function [Y,Xf,Af] = fdynNet(X,~,~)
%FDYNNET neural network simulation function.
%
% Auto-generated by MATLAB, 03-Dec-2021 22:26:46.
% 
% [Y] = fdynNet(X,~,~) takes these arguments:
% 
%   X = 1xTS cell, 1 inputs over TS timesteps
%   Each X{1,ts} = 3xQ matrix, input #1 at timestep ts.
% 
% and returns:
%   Y = 1xTS cell of 1 outputs over TS timesteps.
%   Each Y{1,ts} = 3xQ matrix, output #1 at timestep ts.
% 
% where Q is number of samples (or series) and TS is the number of timesteps.

%#ok<*RPMT0>

% ===== NEURAL NETWORK CONSTANTS =====

% Input 1
x1_step1.xoffset = [-2.72523480991605;-0.647613208613992;-0.801559849623483];
x1_step1.gain = [0.365531496165812;2.27626592748121;1.9319148899287];
x1_step1.ymin = -1;

% Layer 1
b1 = [4.4455157073799993483;-4.1910372259476691426;3.872396402604958876;3.7008935673232530306;-3.2578677605803796347;-2.9028529109481295833;-2.130237873332477605;-2.4466115350098571746;-2.0466311634713600931;1.6311573549330524724;1.8506550627538329579;-1.3318513795523976295;-2.8703094439118967962;0.60790985541776942913;-0.62318442733283307966;0.1705918234941520284;-0.61920125546336191036;-1.1271615446986191778;-1.1739294846928354232;-1.0547243489417095219;1.3853744268767700376;1.4499689911886215476;-3.1041774278444784763;-2.4724412575133620784;-2.6143330935754156563;-3.3365159550956389189;2.9291209402830062913;3.1254723375846231725;3.5741933427037708704;-3.8357375598432374986;4.0699423303883905945;4.4516425412582920629];
IW1_1 = [-2.0107705701788534114 -1.6976695216122703602 -3.5817784267674155352;4.19371696685169848 0.91916289630310510361 1.0492164564279713446;-1.5508774201893831268 -1.5332416561392603338 -3.8719440504148900928;-2.2678490281174488175 1.6014072459481238919 3.4023385888106494335;4.443029838802843301 0.13476649714075972231 -0.54281219746617292987;3.8181255015415676013 2.1830181005498578983 -0.97734939869429082737;0.98281192837145214813 4.1493496409176469086 -2.2441614126393787387;4.2528590277009810094 -0.98350008394973964521 -0.78310541684637158255;0.15059401033689390204 3.5632010572165535578 -2.7680974371487572228;-3.1274847220987718188 3.2661929152240078977 -0.52409848638135181353;-2.8416924074063785177 0.045021088730624866936 3.2499695805470012466;2.9838445996027496143 -3.1422456576102781867 -1.0235017260112262427;2.2850990826979153958 -2.8869057723995630305 -2.0563657741604854934;-3.712211572428884665 2.5536796873919942463 -0.46078301167747642841;0.57321982454907616233 3.4809303939651772275 -2.5815717631946926147;-2.2752596206180601968 1.5086224295010022267 3.4491480398342635461;-4.3524918738556026554 0.18370744785316645009 -0.69714830946529171563;-3.2714262032619778608 -1.425123097909760439 -2.3461839639180688266;-4.2113034535947768688 1.3567241914620089549 -0.05093329535335999747;-1.8227288039070699277 2.542218614076416916 3.0803272488596755707;1.6802394539694380793 -1.6952076367377779675 3.7196685724950908636;3.6184847253646834631 1.8059655286228655235 1.8535957754832534938;-1.1262267164265875596 3.7048592337324315338 -0.36395490249097089963;-3.8529773871328507617 1.9835225086127252769 0.85316193216625280105;-2.9754374215162102679 -2.8726155860497568639 -1.4566038949579445116;-2.2762278589828679465 2.2175889990004700181 -2.5811689449789967377;2.2708341754392136203 2.8384918420666940264 2.6109567646592708456;2.1412781328772458878 -0.21417837307649587042 4.0257536987380655447;2.8928993483749612103 -0.87751558737025103785 3.2694891784065771567;-3.0138809250718163746 -3.2738838874912596921 0.36624678446543834642;2.1872114684338255231 2.2333318957438885732 -3.2604810759927627117;2.0164038279709921575 -1.7590958825872280435 -3.5457182399181794707];

% Layer 2
b2 = [-1.561296675983411486;-1.3038193995908538003;0.93592685614925363868;1.8562248381097272709;1.8642345812099845315;-1.1836958754173112496;1.3022027893011853816;1.1868588302310270066;-1.2299995341244571723;-1.1168172688879198784;-0.74146362424636091948;1.5414528729649792371;-2.5007097810846894426;0.92417765714552924106;1.1404673863674119616;-0.9392097207364746847;-0.17692810630002175909;-0.53412844040584428473;0.700670508504012024;0.65872990990760915686;-0.19757899450878813052;-0.51548293989491189571;-0.38042803463829449884;0.62163024559131907498;-0.64943624891484486028;-1.1381520147274331034;0.19562844771356771578;0.16335111249474065787;-0.46462027730342442267;0.92464086340292528376;0.079828293740950281854;-0.18084473185213501001;-0.36674042517228927496;-0.15143090388361948873;-0.54338322578755049452;0.13045112992647422967;-0.33893456992291165486;-0.36301899338605009282;-0.069759737009154484944;0.17255616803764492473;0.3503975093227400528;-0.11394855065770821689;0.19472711453798619008;-0.44550852583087940939;-0.45597800528876186732;0.73704286611443292632;-0.98122178515418556621;0.68895223159917218236;0.84723682265257160839;-1.1122163012742884991;0.85765041724677326673;-0.77863595418577091767;1.3932103711208243535;-1.2315843240369781508;-1.9843828209644094329;1.5986807930241544451;1.1488938158210972862;0.1477865211944357493;1.356318445344744994;1.2439444458182615794;0.85924734509514000269;1.2293998618046086957;-1.3488709161239300638;-2.1387954835201026249];
LW2_1 = [0.23099958587278424105 -0.17964885631163771129 -0.07254067785799254986 -0.10006091544017411965 -0.078952112852891068173 0.4242998979440820162 0.18219993458523317531 0.44312631499064414342 0.37601151884374067746 -0.32389699202178706683 -0.43610040847552933307 -0.49210652922835385059 0.027832839970300556759 0.23042529005270334652 -0.40340393573183036535 0.040322477346636242945 -0.18007677505028049647 0.38441206439281028207 -0.48995916678013184953 0.061653630863086859859 0.21999928598721771311 -0.39894256016711138191 -0.12686846392792272553 -0.23814669547246059 -0.078332286454571534162 0.17320952466765154876 -0.40054811510536780794 -0.10042781604178509236 0.001077465081352490606 -0.4515769207672273855 0.0027643843248460293546 -0.11049720267414106512;0.34950355446187381103 -0.54222586421453167205 -0.13440962164261302525 0.3343980570465943658 -0.25949442709318865097 0.18944872813113661225 -0.39132051243308713095 -0.58479990106984902631 0.046310551047759461463 0.075630004640373157954 0.56378130837946760501 -0.39840907286947396804 -0.14147859221116895756 0.24825988863297845932 0.13032872352287044881 -0.42710241959696459979 -0.10578885033198419385 0.14794556537660638607 -0.61567673302349890108 -0.68178079708816941018 0.39535674835559503348 0.29237658345999195664 0.09317468957006304342 -0.54635677323045361842 -0.4329514543830521589 -0.39886645620776944865 -0.15893604494620297563 0.44410521764024574187 0.68963777392438385672 -0.067695813913238173098 -0.048307377359782598114 0.31220769220209321215;-0.78213239260024425281 0.79658461293527937919 -0.68403595623660540248 -0.76978188471442732244 0.37630633867765572731 0.56716900292013505691 -0.42132171312841448785 0.55302184503084039768 -0.78188828700089130219 -0.36874009914914618324 -0.48833555996745992012 0.076683051256342726898 0.20481947660508459386 -0.96484375341080685917 -0.41824810614729368563 0.50557108943391193545 0.10869488408018565528 -0.24600178969346425673 -0.52477410434343141343 -0.11515352070398421347 0.94384183080176298208 -0.073648701839011024295 -0.39446998546393247098 -0.096612312723409365933 0.045743300034922752817 -0.46680507270905335915 -0.55343904326830950513 0.20047471593464888384 -0.1276095340995598848 0.2929650955088387021 -0.89133541776127223066 -0.85242062974806964704;-0.064503144690896421776 -0.2041773079417662784 0.42661406388506895038 0.87187574512516730074 -0.78329980126938569818 -0.41517413522226948031 0.17039552244031552775 -0.30052607270746239942 0.027929054427816193962 0.49700268372948858131 -0.023988183361724684656 -0.23766094417450209231 0.2399596919521914673 0.49948320934287337991 0.856129876062355466 0.062972980744427364819 0.39120620227449121042 -0.14128699480725281923 0.27664289037450601194 -0.40079740608366276611 -0.14179778998819417279 -0.14244582048244350259 -0.0096870682560172803599 0.1146757341195146912 -0.088024853804784072842 0.05934873166987562898 0.047380188205618449515 -0.0091744770984734137775 0.48540704964334657756 -0.25524164885652367296 0.74394255838406031511 0.85828475028630313304;0.057426189005460349934 -0.90151836156563469604 0.92235067783831914401 0.12556905314621963354 -0.44352199651578944062 -0.21585133846005427616 -0.26042238576458381916 -0.23452864210289664504 0.68974851665195324735 0.77071879116818431399 0.040305962734036686335 -0.12847201131326838053 0.27766690041542368972 0.71417535955002930947 0.93593805884157421637 -0.13885776646207079188 -0.23881906740183719839 0.3139859092488358483 0.059059184230038315466 -0.40965468582181796542 -0.4601426002743057575 0.43529397908859684962 0.47112747733637821979 -0.55548942745636753493 -0.27918437321899564063 -0.041477470047774189776 0.10316651005230620397 0.37461776926174938929 -0.0029992694647613666985 -0.095692786514838215628 0.82200050726057483086 0.16956187600611330457;0.64141758585184449615 -0.030129006693811903606 0.55986598829277556266 0.30875118388147948512 -0.1771691010324968063 -0.00046968668732507481414 0.10204336749499150205 -0.42432389153132510362 -0.0030187647297984627169 0.35475859505581147646 0.50028733052093177225 0.038932595080688893463 -0.33691882024982899857 -0.15304142092729178248 0.25272767321799965989 0.25015974508046984193 -0.048418774914066424475 0.21269318667147849022 0.1943705607179949113 0.42677022585314328129 -0.46981351031533097329 -0.59921404628549035376 0.17991981590757893938 0.52891725096026809272 -0.32834801286468917603 0.32521726738117434641 -0.35110791223973186748 0.44310849607703284292 -0.30340135407108376198 -0.072712067803985661052 -0.21662143783385451323 0.12463290602807475249;-0.038294354220701903868 -0.44285667470169298721 0.43941415051646021128 -0.012450706389024091339 -0.1267479968694612269 -0.34193643056190131668 -0.25562720136766892143 0.50633991722652282874 -0.40227314405545888665 0.44262513438430445278 -0.0069288578593461836938 -0.16142355296009680554 -0.26164959252439029536 -0.455221422817025545 0.19450777049011214181 -0.047447160188517287227 -0.085680285473895348436 0.48676873521149766066 0.23824234000832608671 -0.05851278999389124269 0.44328424031067759081 0.049777406947849420216 0.22638044195935078107 0.015650095219410221914 0.049620169335704879254 -0.082682733549566289621 0.32778325562182258901 0.10022482885129682662 0.37584357344264945899 -0.058811535655400662415 -0.37603816799908884594 0.2068029785533683218;-0.12576773419298170609 0.14067948665343027459 -0.40623381420376647455 0.43842519985100381064 0.19539329399923821562 0.40735688721291946068 -0.53195481801273214462 0.3271073052010264326 -0.51693470784943684748 -0.15051852405803778367 0.062481797214504031235 -0.20378928830035719644 -0.013227844913337226049 -0.1293910428987950223 0.38680365176664155413 0.37918134641845335775 0.17811574868565457908 -0.31923107052228433256 -0.19932527977307223921 -0.069589496133823022794 -0.20798043150616568608 0.43803970414685083901 -0.42240855176451769237 -0.41696353792857565601 -0.09841393733659364873 -0.24439545267750248381 -0.19239927315919236328 -0.24306866465533122357 0.28651480100960879938 0.11156977790624481028 0.25082980681220257146 -0.20468935355725978442;0.26516344501976590875 0.23240854296773083565 0.026502269858956067905 0.21369760485310421161 -0.20174462360075809397 0.17895204823986099463 0.034341251300980937811 -0.45656202872150014604 0.13592695412773900254 -0.27073842450650587033 -0.38891381754737874843 -0.40994561902703235967 0.40944001111304789697 -0.40212464442517109608 -0.050469005304616933183 -0.27000823402819035257 -0.33205244345763962333 0.14090585186774939874 0.013972843241483373644 0.36659854796059077042 0.29297657008659883093 0.30272656116303309215 -0.14557258867695135884 -0.030389531932565612415 -0.46784512035084668824 0.14946438963382543963 -0.060050005089468741493 -0.15156354400183488784 0.27323055805692869624 0.22316152100733716024 0.41927315812235305126 -0.37743206324116912453;0.27021849054535496126 0.38479654500425353181 0.47535706842766622948 0.42293413727485218434 -0.099945342140013326837 -0.19487103828012786177 -0.19405357915398985247 0.36524177937050805731 0.050978282073981737166 -0.19068698804617220666 -0.067572307099639628003 0.092727293809907282429 -0.24440597743256239904 0.12364676344789969631 0.5680197227322347775 0.3338953158560953316 0.45793607643332973067 -0.016240953927118779998 0.28241330014661819581 0.22789432879083190708 -0.45188848433886807943 0.38246116496701476617 0.0087388559207443212984 0.32307090948345223991 0.44135214688912949299 0.19888441571911424921 0.21443174972206049955 -0.39869534704187586938 0.13598127855394762098 0.14799308850225204037 0.18749394344559694447 0.054027396981326671066;0.6710627723041626691 -0.58874058355577185697 -0.18696544691092023549 0.20496725773938220816 -0.79654118056205369669 -0.68082238547935680639 -0.38742617376161736509 -0.5946689103554591016 0.096137263874743555947 0.21509796687177726304 -0.31460814658968616619 -0.59417096777234978955 -0.48887996974432734731 -0.088572485161937844489 0.21964712512438011593 -0.31811218549294267843 0.27563990118633163728 -0.037879754850825335388 0.016104966554171117055 -0.18777427314586295215 -0.074726788856912890191 0.08777232907585802435 -0.37986114653832236954 -0.23062359890303585352 -0.29862916498366259832 -0.29579412146909456194 0.31748210273964744266 0.19945367131614208378 0.20185151774170431715 -0.88317173833245943282 0.86215207773213886622 -0.049106254121226607101;0.36491395701968987186 -0.7443235242131097662 0.12944008016362029689 0.29922171561884680635 -0.89310308855956843654 -0.63188073078151096862 0.272099746908237905 -0.094356095149064400651 -0.087742466942057381618 0.54726622329088470131 -0.022508144951272224948 -0.60977087883983105421 -0.1236736225685851065 0.91773484181129039161 0.14682752639120952298 -0.27498101034765459749 -0.02055645115715981977 -0.068420339304723881702 0.15361266889856903251 -0.70695788571129647426 -0.34080247441611405401 0.17169091755422291601 0.34138636856590487412 0.0089230805865760150913 -0.77953691347876408191 -0.25783718212360234867 0.85402585582828804966 -0.051931925952690548287 0.35169839478450770631 -0.56677300656523543765 0.75667803592623184006 0.13014398358157769353;-1.4259814899345797379 1.4031523188782615286 -1.6432624701380986743 -1.9654897960545871793 1.2832489079872615445 0.627661240577828905 -0.55002077014300776447 1.5917116510159678988 -1.0347118484824060491 -1.7828263569802806909 0.59400453226152205577 1.540260921202774691 0.27205976642667389909 -1.4102313425752628362 -1.4669119637558705183 1.0196214703394224088 -0.67842095177741545964 -1.0067611220732313182 -0.23364674056317621953 1.0746911893302928398 1.2700464025977742377 -0.72977556456805092733 -0.31580292111406160771 1.5260039793507851336 1.7421689491778233894 -0.11409622204297259485 -1.0385106455535697556 -0.34350531451184540543 -0.98682276325318030175 1.8332261956403925751 -1.4226346348935066111 -1.0960532661855786341;-0.28204655370987152807 -0.057720443336437873838 0.065534496712118542328 0.19849259372580668748 -0.26311768210206853968 -0.032948894579229719148 0.20282480810416408934 -0.027708004540908413166 -0.038702954660346733373 0.18085094754516498061 0.091511111628908597959 0.48256604898288529837 -0.5127206719928548706 -0.44292791280660276376 0.26401934397191889614 -0.33328969485019266372 0.16530040478808682991 -0.47229749374586593724 -0.068901617500165379671 0.48675022161325243175 -0.44586132782857057499 0.40343387561165838795 0.033367612821615502683 0.082734223033425285942 0.067418788475196680943 -0.28194068644503295085 -0.21749797599080736288 0.01779883612427098083 0.44831411667941267751 -0.23693534035386490388 0.33871865351097407704 -0.21550933361632412799;-0.18118071038141927986 -0.53642722853880919764 0.050639331060274725416 -0.10264765886798773997 -0.20525156606671149384 -0.36491483526455792408 0.7939121505656328015 -0.22477649003992833387 1.2256800294362786286 0.80936849132396371242 -0.41293183376474101864 -0.81172569858094312245 -0.029205152668205124761 1.01342402134968812 0.76965733121961721341 -0.42508464802229634083 0.78176501541861098676 0.70785085068037678635 0.33978151559940289461 -0.51913716042877977586 -1.0063228259416896471 -0.14055868042856500821 0.87774697101946641542 0.058703784427767496945 -0.25525925976222979541 0.27366485343164853594 -0.059800030713508242619 -0.15938126226716445299 -0.34367457771104836795 -0.35425066073684358114 0.46231753923961055319 0.66944494588838332483;0.16021530073417825091 0.21581563836596032169 0.35248775082752586973 -0.152256125939588427 0.15345878085802774904 0.35941075340650380232 0.39164112872845641133 0.53049511205391264301 0.24393730301624849677 -0.55086096836207265603 -0.0092665064428957191062 0.10117720184928127858 -0.18543763763623641316 -0.046381537413943664527 -0.2752467847993340655 -0.25576631254745402222 0.28994221869431713312 -0.50515566291882851857 -0.31026097486319065277 0.4938771216473592518 -0.18418556771311050957 -0.30299148529365060867 0.20932827262919273537 -0.014505951161489128928 0.46384262294398753701 -0.14596071753020706252 0.30228828681493585817 0.23235764380232609705 -0.22907613846963281734 0.27791438488290565179 -0.099287002782293215519 -0.13718743300682748054;0.99172400239581226522 -0.5464393548625009478 0.63354632844738856257 0.22211375308929368066 -0.84422303368963014236 -1.1511700695907669534 -1.2999299024619117571 -1.0920022840329592917 -0.59154290877896442691 0.43668696954103064511 0.76611469294539102926 -0.18794792939950533128 -0.84001354656301618906 0.32056775034128859314 -1.4247095386935020311 1.2749953967363172325 0.13503063862897374259 -0.17709764001479524897 -0.95161329651339443547 -0.6054557683847360261 0.61736558909365479852 0.67074460649591483019 -0.74966676143308008662 -0.61121356199878029702 -0.54469465812933937077 -0.71374467219753645608 0.74853602623903736646 0.20445101709912577581 0.83559288212703142218 -0.85497894944303876041 0.74701960484441776167 0.79037150954225454669;0.5896562863642939023 -0.62971246690411164515 0.44846463406206299451 0.31917246708877389239 0.25854304106594305779 -0.51497789450670528044 0.29241773104293783403 -0.47257903907236847862 0.7124263064828724179 0.56834860091554173511 -0.063086623725616269853 0.14689343239100885463 -0.25340442271067425972 0.11179349578073456695 0.68715897873108200411 -0.45925800774710023866 0.51632492392876505605 0.47186056451197955219 -0.13234579842529903271 -0.41929268275378867026 -0.41170301846937162882 -0.038389825523121187678 -0.12969426608828366065 0.27943556278925263392 0.012319565488114088414 0.34503395468573377913 -0.085973969382402981587 0.097451956677587714406 -0.18745699677356028601 -0.34250923930950466501 0.53076113547464442988 0.45857105054542918188;-0.21581400363018293787 -0.4558515445934511745 0.018280887943626335929 -0.38540049507128448791 0.19014054534300309229 -0.002711981627009199796 -0.29768746690979258629 0.026179158266467678767 0.38091062886987486769 0.45091523147650575121 0.055582108064233852474 -0.070386882451980423148 0.41623840341792422981 -0.024792703717710338346 0.18045890896229857536 -0.48244616301306736394 -0.21181788819184857453 0.32180320171519505301 0.13623646874719944067 0.32068991586997303012 0.24060295484192614768 -0.39105311884871413186 0.13597101009029066709 0.47286548238211884021 -0.15140155751459974387 0.32212316428783799305 0.075229894382362272331 -0.1472006507078343629 0.47015887388496135912 0.35105018026791257046 -0.37710052730305743118 0.014582216291552131671;-0.27129855150868303904 0.15687855202668993249 -0.27992855630599849937 0.40446536212209710515 0.1616520716745148134 -0.11452529692020170515 -0.44029791780992655337 -0.098456640613226148462 -0.35756189180567293784 0.10683569523338254381 0.622539917935972964 0.27420684858680327567 -0.65099713848255325033 0.12928122194389576882 -0.59423117498238609002 -0.17033851818642448128 -0.15161327719469575026 -0.57961678754780143752 -0.44343669657991235944 0.081413407611602359171 0.23927144089974522467 0.28412336020950679227 0.0077494071403453506156 0.38908502729033783707 0.37172110915320605296 -0.06334708897274335393 -0.34592318811326644434 0.16578149254325411088 -0.11084341095500417629 -0.40380765497027171218 -0.17870882560814888018 0.46713929011394594859;-1.1330476367416326688 1.252468516224398698 -0.91341338422629048122 -0.65234041010414578476 1.0530006469897055243 0.42385689093167822072 0.10518347404804113954 1.1181760345869193873 -0.086850752124187385883 -0.54342697374910531316 0.51126441988324977661 1.227339248475270761 -0.070928020273611544488 -0.77961401316639944437 -0.55512090198400232399 0.39557377345638550237 -0.39781964418851145648 -0.95681707374967450708 -0.71887983393699594892 0.85494562368809834396 0.63025935586275860789 -0.40987173378021901637 -0.29197148113072241005 0.60071423207635921138 0.57310113518182725922 -0.43007676149337603633 -1.0254639751049967611 -0.49733879059575231141 -0.1238674112696248053 0.71998565093288791061 -1.038331435361848909 -0.34941816741619019515;0.39716467714154352064 -0.47887497595493228042 -0.44100222719464621246 -0.29280262736552797875 0.22041007971099138563 0.16895498270894618309 0.14042197356882210602 0.041260208581892755808 -0.063113410385774879052 -0.44156368964670805743 0.14274046569598913825 0.22009438104937767422 -0.3025951394743630618 -0.14782910874980759175 -0.23553068588364722835 -0.21291427845792548768 0.039399122385120881329 -0.40608674041483555639 0.044872622285105273621 -0.076700073927992246103 -0.23401493558080657675 0.31332826568154403812 -0.31084374654264240734 0.42217348707696095156 0.36526397635139262743 0.31006464355461149651 0.11262446931960579111 0.024394238409801826534 0.21322011965721232585 0.41541168846564480166 -0.11210207335401840834 0.42437909420088093526;0.34120407890027110165 0.16359802611442036957 -0.11241931649262291992 -0.033002477428392164305 0.15862553973357845782 -0.47857240666126193984 -0.014896783961182595568 0.30768121344392357353 -0.38815971085744499502 0.28666009631676925284 -0.37385050843868350423 0.34726234030362324035 0.20502088960643519155 -0.41564614066507149515 -0.39849559027534176003 0.032846113506050801656 -0.24849978013183898762 -0.46664548528740612543 -0.41701088241198608353 -0.39191883936133969923 0.19035615335947883575 0.20138811703830605815 -0.20668272216668864827 -0.42119700963835871033 -0.35615774552521600738 -0.44614528682071452614 0.0907592473158296692 0.15698116486806745762 -0.26927441500541748898 0.25547497503894134319 -0.21880928353079970305 0.077455856645639004077;-0.036478077232338361469 -0.40584743345455881469 0.17084048529301562591 0.28385961504973450387 -0.42879732394888880886 -0.12977234506621132537 -0.18690142158025552233 -0.4784400977093745122 -0.56307910237515879093 -0.52164968460895466684 0.98696733471806663562 0.63818783594349037802 -0.18712150682593298168 -1.1162386620134570059 -1.1423697579140261738 1.2878234284159582046 -0.77277590213315705547 -0.58872695721478252029 -0.40278722355633855834 -0.57468751324328626318 0.75283645752360439651 0.26791435762506343732 -0.90067155319344149866 -0.44321090792317713314 0.07085695635716834917 -1.2001995188679099869 -0.037704325939763770614 0.67390797715745209828 0.485434501642413474 -0.097738231200585931613 0.2841886149896736824 0.62789474010571877383;-1.0425676440577078541 1.3905291408406967868 -1.0280406917937574551 -1.3707011723666620018 1.1294807247026605879 0.52940887537977798782 0.24200793689713440138 0.69112843968757908808 -0.07634932853101782102 -0.57247792846230582953 -0.54297963477019073331 0.51612090817100086948 0.80595962474345761439 -0.20540683782959234804 -0.32567516497220611038 -0.31457244168244408167 -0.22507933383542633177 -0.10311298727077627957 0.053752352606603576168 0.29260854397009350425 0.10362850332458374558 -0.35162856240743012304 -0.097667866101103312237 1.3698135323426370302 0.9757765108445229929 0.041743029571222084462 -1.516735981164213376 -1.0097967717049036729 -1.1049831640766516472 0.58067533393489401128 -0.59977794189267152891 -1.1466781410952999742;-1.6470407834584213091 1.7961718264092452202 -1.1363582688527245068 -1.8063439239359848631 1.819584138118426786 1.1569054130579312645 -0.38418861911262686126 1.2496660325287196613 -0.63601768649831047497 -1.7949169060849412549 0.57866921447691554992 1.4929915785613778745 0.33304556180655914277 -1.1460583080925819122 -1.7614247392091570976 1.4780761475977355346 -0.34685305314928560616 -0.74756719659450709958 0.10653104182257398802 1.1276444336763113974 1.4107530703482789036 -1.0377402387507084214 -0.51277059604543218096 1.1738969180547054183 0.93700146120287375329 -0.46689933105368214283 -1.3668963766378385838 -1.1949567821849100824 -1.2271179202762680926 1.0564224340640842037 -1.8513874710809254953 -1.2539528072484873444;0.86384360011111116506 -0.84048570525804844333 0.58823070460211823729 0.74433640425380975802 -0.90472640865716247305 -0.97895557993753212767 -0.11834166773743508283 -0.73316725984172992359 -0.11944148931933963598 0.4453084438464946504 0.30449817806451756619 0.18647188268805503508 -0.72878357815242411633 -0.53507409523575055754 -0.30833391589127195909 0.14230581086628696363 0.21967155224835488436 -0.28343223586976329376 -0.47343032833073217525 0.11525369586502030861 0.35438951496740994651 0.10577539167228675043 -0.41151835943395753681 -0.50912968058397223281 -0.73985638403131692709 -0.35171157986148399166 0.32783255894073082271 0.41414625087530965164 0.59863406012169506631 -0.29805837001701351863 0.45048179418502498628 0.84480438767488552632;0.56577566299716897102 -0.52922516576674993871 0.95888970112124838341 0.11436827577769079212 0.1230209875223771121 -0.64204360172228269743 0.10989560398022599208 -0.49662506328052991034 0.16002217552305178505 0.62372898834074308461 -0.45642201956830130705 -0.77382317123297406081 0.041965254527072795576 -0.14969938913376512613 0.50042387880540217804 -0.030530085471420428944 0.41259901051353969903 0.69617270715897683342 -0.13169268262862018903 -0.49506455154420658804 -0.53251475779145773792 0.16758962881684583146 0.21359107414170608319 -0.22486830178217515064 0.22414965805872852367 0.27825848798365515613 0.40006725532483533581 -0.053447790013517897101 0.014448944500402849389 -0.20886615846590556034 0.20308774456751860216 0.20651991733183125421;-0.8085731749129903001 1.0642476763934081152 -0.66030307919942610173 -0.18029063585484506049 0.571321805308894759 0.73594085010950527348 -0.44887176613724127927 0.47271038460274139581 -0.510449290393237054 -0.28236575091148119476 -0.094416670228271229459 0.36887787275879008186 0.41488724196471249428 -0.79879344241148853012 -0.99056672166489023734 0.53675607951289394659 -0.21696576289043920105 -0.67417165891900587837 -0.45166818615264436865 0.46613217064124556899 0.79888049308613862109 -0.52512757625416894847 -0.39592426827741922235 0.20199711235672623832 0.95872191363099945605 -0.20913486210408738231 -0.86607410137704921027 -0.57075484457418412809 -0.21461772356208233536 0.20356559822472755639 -0.88819356626411805067 -0.1462217980333250511;0.77646698764306310014 -0.65688634146524937929 0.95111921915768915525 1.2263764530873102476 -0.26055133992794982101 -0.68903186753268086395 0.10511910564372649313 -0.63774635061048079443 0.92585475992104582232 0.42084232467546406342 -0.089153709237491024497 -0.93960552813076136935 -0.3294997758365908469 0.19121225523093834942 0.7300904775289909221 -0.5442950818485079445 0.35235728020207218725 0.38778475065214013107 0.28440700170690252913 -0.76954517203221883825 -1.1809837583561211272 0.22010068354483111608 -0.13563744319479009715 0.037857731466619144733 -1.1683943923985369295 -0.15499491974234128056 0.75811827469587900197 0.030864681313168707694 0.03811530504366995864 -0.76775035189634976973 0.5234180160496749723 0.70675749733999659874;-0.029137377581213305677 0.11545890419056574483 0.32153127042154505677 0.48910839262156674545 -0.05451996086458168328 -0.5639751991867233416 -0.077269291385402005812 0.1274960077539696035 0.12599411112079808572 -0.4707822890154501061 0.15773537669324527721 -0.071684548152944005395 -0.039630612124010235198 -0.88679688467049955225 -0.30341140515801978683 0.61456745693125203189 0.17574303710005426127 -0.47350816249932425883 0.075289407444546860293 -0.41389497691314985905 0.84413662895263574804 -0.35358008224206000092 -0.082331622785650981911 -0.059848608332631107742 -0.1507755889595549792 -0.086113740040609954018 -0.14670317850517308744 -0.21584493099780271974 -0.20676562472163312334 -0.29793971947414849 0.1155312124465355389 0.19191819955736952319;-0.45293287058868303419 -0.26784536288377730484 -0.34695055621832859849 -0.32027840516780470281 0.27040897944804820341 0.23357529215809402778 0.075136207742841368273 -0.15171174830240946596 -0.035874326456450257583 -0.65443299046035063871 -0.10941566070065578131 0.5118643592599217973 -0.16485712650829706383 -0.57624041043821705443 0.12756237152315658134 0.37014988491926831271 -0.58024462270566135036 -0.16428616007091109696 -0.17772632891627090923 0.28109447171163531864 0.32989000498026949115 0.45393151549575350145 0.10605306840754659403 0.29727660434004760104 0.095634296283466133093 -0.039881219165491602063 0.034629526571380929434 0.034845278233586386707 -0.43408041401313562924 -0.25821631105683151564 0.25595141270838689396 -0.35308969192308187202;-0.13699317826185769542 -0.074978014346184090888 -0.14076797354623613034 -0.35185419876576545795 -0.24116159437729295378 0.59716268993077470384 0.1102094010052357409 0.31804303696838370774 -0.0091352360749882774438 -0.66222097489090292477 0.1298682119985457295 0.19596428180521030527 -0.10690176411380500343 0.02270517807574964908 -0.41574551301143586324 0.39021600502203129812 -0.53721770134145774289 0.22643264077734728823 0.11687572140760837947 0.38686348492434852187 -0.24722202584665706193 -0.28755192458463135763 -0.36350414603762731813 0.42307359271277128476 0.62048546491636169531 0.49672271121373462455 -0.22044477047231825217 -0.54912613182073688467 -0.69170665685424459479 0.51434253800631435372 -0.70296300568448788493 -0.014483020347195443497;-0.3261026882026937801 -0.38219302993101184063 -0.17566448820596067271 0.18784142295877148676 0.37136701561523405291 -0.2102851864412160765 -0.42127625412815139505 0.36456168529003385448 -0.047599531697043465095 -0.26594988047559825484 0.42890625408771859695 0.23676839514790418151 0.23896790653497965162 -0.70012739431237791532 -0.1126880590502328805 0.17321201391269083758 0.28752459408746389169 -0.39523542267936723205 -0.53167580330932029398 -0.19995758599105120656 0.74508138477839358504 -0.20875775970530766057 -0.62255218445316939935 -0.53385537574894004198 -0.14010847726529038204 -0.2816315452019070853 -0.093041137177012900317 0.074315930308240407687 0.35101825182447343732 0.54054122561167483596 0.13374729619433856076 0.36018166006714891214;-0.52890130672411739265 0.21813101051861574775 -0.51339881904550965785 -0.42507824753698569831 -0.12535937189424861682 -0.28711758166693657213 -0.35939926248879550119 0.26941094169962520599 -0.62010671593744903785 -0.65683054321538714149 0.62272001385092323744 0.03193172318664977416 -0.0053863612722552314804 -0.62595552499381301725 -0.35389043819790000356 0.67938167444608998924 0.19772250580769246131 -0.16995221807146521087 0.63872476357054308593 0.28499840285386190963 0.51137553015134806778 -0.25678984008421668062 -0.066748842428418206363 0.71733453049300544002 0.004343821778510197594 0.34366677054582911444 0.045351551578916168839 -0.036872079038063325374 -0.10037504627353423248 0.76318458225643392989 -0.382155196779961015 -0.89775751016053051412;0.12886464187149346272 -0.68783402886663902454 -0.018209232458414794514 0.16547482019558126809 0.076369775956957611229 0.23817003445730355882 -0.36811999070474482609 -0.47473036994925976728 -0.03441692030945325137 0.052345110811688438934 -0.54262503243415549647 -0.18367193815434787463 0.25361915700976556121 0.18373621903584338999 -0.055309556397762173197 -0.62027128080017879252 0.40306875922118728939 -0.18689124437326434802 -0.21695121495798017075 -0.075588748973720060187 0.15887425029364113382 -0.10660897287607802586 0.37991276810407736964 0.11494367321665410753 -0.68966285250882009006 -0.21748280405194536646 0.6389859023483146494 0.40678806686796092906 -0.092727281886822790491 -0.32907648156277002904 0.36029293037828730162 0.16522691474122588873;-0.43398690376165954818 -0.22147922795823868358 0.12096562474607050475 -0.27813962670680053568 0.59481010984701354616 0.63685913305366081971 -0.023878247131546771753 0.13911898883846610109 -0.3012269851285279687 -0.38626955205273533211 0.052099630138576512317 -0.012283907969353561121 0.080520492650809571966 0.043793978556308753303 -0.0055499227347702651328 -0.45124205840676945289 -0.20545547841446137882 0.079786839813488649731 -0.078451252542297969517 0.30052018890160764331 -0.31245833652085924781 -0.20131952782283826786 0.18378855265861379631 0.36413874400500922945 0.47339588811201704921 -0.17641279674713239434 0.3307970321760900223 0.20007181316164038276 -0.36528064031769824638 -0.039618413875151525794 -0.57756191463606587622 -0.19775998987028681197;-0.095208860390440019916 0.30088926486825434692 0.074358900652715054225 -0.30115672481402244731 0.22183521248461529618 -0.20572267985176145855 0.11237315509105717803 0.20498987060987791664 -0.37768023630102043331 -0.6898660264796686592 0.69645886253112254671 0.49812210011921637109 -0.27702889768228144973 0.058610742243053182143 -1.1626865680590543484 0.94400387972939348025 -0.48590686575827141125 -0.34168898783598428137 -0.21444972577582835371 0.13946317893984688796 0.92838652280721611909 -0.16948901912112748769 -0.07315163426369873656 -0.16188922871797373215 -0.33530785048249339697 -0.62026185289910085174 0.37044055800026903791 0.03462227183236352146 0.445991634071097931 0.10259708093678227003 -0.33346554120202870353 0.17757134514111000412;-0.29497651387251710986 -0.061523513538259105848 -0.68829751722579979312 -0.31164263386112622811 0.42714556689314658877 0.44985745314567421316 -0.18363538664158360336 -0.0015120583721877961427 -0.66630430883230951089 -0.78524747486409429698 -0.076264132027652753454 0.87516016141598684808 -0.5590549497325700834 -0.62281653554422211627 -0.59881359755146101875 0.62901863798598500743 0.096322086535930898088 -0.3145186555524032701 0.40878943629065561671 0.86616268696553400108 0.1699883163232820682 -0.3724916374485330306 -0.24586771548378830166 0.14450498994476265735 0.26145265364703218491 0.31268991990624767086 -0.43382681102117476302 -0.39388095680816420652 -0.67172359547821414161 -0.037418806022140864431 -0.25533629483890529777 -0.25749696402094252035;-0.026798975503432916068 -0.04603853449326960473 0.0052743065226813221416 -0.081785552574104483647 0.51210998496288651083 0.54726146923305996062 -0.43563637859196774338 0.55205985002613522372 -0.0061420401393951886207 -0.17245362752389037375 0.23446560030178370537 0.46228217303480118039 0.23397985392077941258 -0.58045950302779314445 -0.564065439952235681 -0.22112366296761948314 -0.06007360390853668658 -0.41084350785350465252 -0.066724789482652466233 0.087025210947281939067 0.39511930550859247768 -0.2929686215015431805 -0.18838261547649853833 0.44829081036703799512 0.53309452810752644414 0.076469775470615647395 0.24122692014720317766 -0.32622082930989781957 -0.44455818894488041693 0.044334946859396866248 -0.37705842539702677518 -0.60054301098464268893;0.069130837038260686822 -0.030232117114373867339 -0.4368218250555930271 0.38375498143946756846 -0.20842679386316675938 0.11570659847774471263 -0.35256783329907215307 -0.058888732997107923195 -0.57933177929859103195 -0.46449487327150384974 0.66763071226285863879 0.48746053503198910617 0.19290499299215943529 -0.32710245005918131556 -0.50486513000085253555 0.83494997618609578804 -0.3538408937991215919 -0.44287935806926576054 -0.19322553091948327375 -0.12996954941898217206 1.067604025391693634 0.011913314562278809819 -0.69875886841317591536 0.53929759632750029485 0.43972458277155473949 0.30287902673677807863 0.13487584656545992257 -0.16572414100633864331 -0.48837891294476648563 -0.079403795072335858762 -0.30238396947559975647 0.17248304251105556206;0.3537280712277270367 -0.16678742344381075613 0.14496217821355086852 0.19190338046606880695 -0.0023065711309291714662 -0.68979320138548705366 -0.42963699866810850514 -0.0094216813911361125405 -0.52137938149651119613 0.49799704574363973242 -0.10029368915249610439 -0.31411035288193722703 0.052315664443968998287 0.015683863421659005599 -0.59557705615789591214 -0.054010316871392176352 -0.19951131986434628152 0.061797208786336134401 -0.3795894333902858353 -0.33378908884013713809 0.55356209611635776024 0.11610741302685646803 -0.018615582527772275845 -0.10388943859900286182 -0.15531400163942576942 -0.61631229446128488192 0.74788710971852190301 0.73543956095063545142 0.76031213811399345204 -0.47386067593502312345 -0.14618741523315395558 0.79261437176099980295;-0.0014282338149192363649 0.0033569555136067660665 -0.29030429371349925072 -0.10628770807583877434 0.68511963537498488108 0.019060200002265558633 -0.54408039474234659583 -0.1358175679710834638 -0.38359311539226303989 -0.8645765236230685824 0.62375197309626284614 -0.014439332966611134051 -0.75513117123298789668 -0.60727833672670683551 -1.2092284128671781929 0.34405075776383353681 -0.42595209755593121947 -0.44342417653151883217 -0.17377221803427272961 0.3780106295758011159 0.93420539141346181644 -0.64633914831871330797 -0.27707675461323100219 0.65246275008987786315 0.6794975701420964409 -0.25250629895187337581 -0.816003302977150069 -0.53066827677309336142 -0.11488320930870338232 0.52349957564597182635 -0.39805476779183768254 -0.40229958436351215267;-0.25778629644557793377 -0.44004344852233928664 -0.029364158750387212016 0.027154526966831189772 -0.15424967759009317048 -0.18217316022920856944 0.33654553080778937257 -0.42883221342853511393 0.15567534503969099324 -0.32964961591943620078 -0.29916509173511429687 0.052286480830799481057 0.3406484736048823736 0.15962008145344699916 0.42568169500394092974 -0.6652857777527113603 0.14021381976411836923 0.0028392707170264643197 0.077900719301288251506 -0.066248980130421228352 -0.22434911007762353696 0.50721740479202392926 -0.15823693835867247426 -0.042447601932688823478 0.26694547094890985761 0.12503092367640294968 0.54116847281588231766 0.60492331036282165346 0.47026839934133368715 -0.57607251369714596034 -0.07299129363285751515 -0.17580089078762123345;-0.26159893662542177406 0.31399175941091789221 0.6336595120178734053 0.092747749616221328295 -0.3098845524539997065 -0.63814501405468226913 -0.75346567262904873274 -0.5226458044547444004 -0.75782936957959401436 -0.61630863109345446205 0.8434182946543249404 -0.021125812140100376502 -0.23283232106037610176 -0.47700111695213370799 -0.23873029027909978272 0.18148669908310915977 -0.52431523416898007106 -0.49823511130940989489 -0.37195140237273199846 0.1821266279898093865 0.46808077167136735719 0.20888030902854709536 -0.60986360727349098187 0.12611955870638347221 -0.14704672834120316449 0.042809566276219852832 0.085808590980180551866 0.28067061742737581254 0.24514217437809920908 0.063409125757696291337 0.30738188582701980733 0.13767539648550283782;0.074704416436440407301 -0.32394895196320339092 -0.0031537032374813964153 0.073559895271451611332 0.34826446833114860224 0.26060734040406396961 -0.31836666585235723348 0.077770637928899766234 0.27673630573574820035 0.44605859048056067939 -0.33630391402575499082 0.0047413267681635723819 -0.46478133847816427426 0.11066723278504204953 0.2455630557133744174 0.47116620016112914504 0.55249310976448229304 -0.11636736977387529546 -0.18568356115631096115 -0.18405416745519984079 -0.26275685443348262282 0.24491603269869674508 0.51246204029520192602 -0.044743268007387572427 -0.20570277328483876911 -0.17006681577588753096 -0.30935923939962378659 0.16242589421188172172 0.30730981087102632321 -0.28582619549334709053 0.069372747477880691847 -0.21742814704400553749;-0.36325110094463025634 -0.12205244833736028642 0.21804789894656947946 -0.6272900565125125727 0.13439178091247652724 0.30670002606900442776 0.34622680035472036542 0.56169173355401535996 0.10408103490196926599 -0.33079252619061827456 -0.20309671516869565178 0.13451753606491845261 -0.27992273277980850299 0.1577014299513512241 0.30241827474836718848 0.43229235045878877663 -0.21555232519411424152 -0.18623650527620141948 -0.19743996787653647629 0.44471037741551044942 0.66604113848374635332 -0.39470611756461237984 0.27305063006880408993 0.059707819588406887967 0.38182543825851339436 -0.084691024699455025315 -0.1485877788591550841 -0.18221433131361861046 -0.22368339614657251069 0.49378943630206573179 -0.18660504495199292663 -0.52961592275088154036;0.29090505031229318966 0.39611598830934530158 -0.46435177351528256207 0.10315372238830693152 -0.019779095758764641405 0.64582748861075955915 0.2472014259066774855 0.21728715616315871784 0.69871946791362393725 0.16322269815274415006 -0.29397290973825962457 0.43722216729514568057 0.67643057392626770863 0.57157343394192527963 0.98038628986202491777 -0.38052722129056576472 -0.24504163698489636602 -0.12468692058736613459 -0.18776840059337004951 0.29096776853357736448 -0.1724526056147026587 -0.19616981665367613785 -0.13675182562912249762 0.19463068372714534271 0.40366748816365211061 -0.25067128098818058923 0.3350970318012483351 0.10552167348325432183 0.40927352909917413815 0.20309025064807714744 0.36183241172987157253 -0.38327325384024024668;0.10639416177300171917 0.4200934340325309102 0.073121897561028673107 0.30351745577798161513 -0.012685049649029556118 0.35985461656454165169 0.36580532966715118004 0.26371210354621382743 0.25952724447206698688 0.37856491317969359622 0.337361087887269262 -0.41536076021122830815 -0.0031675620774957069688 0.11932546841297164697 0.035035811923379074628 -0.3118628805868918219 -0.37467961657336146253 -0.33288585603302089932 0.069901319163520367339 -0.36235516592280436754 -0.34669713608113200687 -0.38859922298298771315 0.21491608274649165455 0.28616501228558116621 0.090342660740865415869 0.32021346614438311873 0.16855103978572325008 0.32886819462266814185 0.395227070600172814 0.015322161380119162649 0.44752894673282661575 0.34866353560757612495;-0.48922952199087471614 0.65523551536425661546 -0.34870293595756296501 -0.47129267013164743982 0.4458670219291893666 0.29569587880996961449 0.19579457180442741415 0.032459417331738647794 0.90309875019866381329 0.83049992879561385095 -0.85189415890458597413 0.21554467960975623453 0.25679031822792630635 0.92487499955140584085 0.72164508394137105718 -0.64580927559863099408 0.8115097255601607662 0.9198511716231277946 1.0259307938462778331 -0.12919820667897718991 -1.0188345886782899097 -0.16976241172508027555 0.24883213613866336789 0.57326653800798677008 0.75189164190534818477 0.039139981167540957574 -0.21999591196229273393 -0.34993986427853090992 -0.24855484441113523397 -0.079538745496042354 -0.2558378786866680743 -0.38998547130544863881;0.01521601263167865134 0.10382186612484288479 -0.081351151928374193512 -0.30636628052244019305 0.44241597672351945514 0.53536519716484454179 0.22380360501264223716 -0.051334592717162404185 0.070750411393203288535 -0.1095091621907602758 -0.42737191924894091244 0.21729911921744196612 0.44938561271510824024 0.39243106008115180572 0.47943210968243638037 -0.34129204157982734325 -0.10577485523653540334 0.027842960937289450846 -0.22799464928438556433 0.36821062431484319344 0.039608810024241707104 -0.55699455316209700584 0.37744832097230246459 -0.020539730690643052263 0.2504738133112661691 0.087945584732060877453 0.18443940101958189448 -0.31238053639711543807 -0.17134029231207051347 0.33832532329365905266 0.40630773271285103299 0.26166181059262733077;-0.135129238629766113 -0.044716931523040279184 -0.14350849443225335844 0.45937570141878775187 0.019807010342241439943 -0.18956303001720561929 -0.63175187175462343969 -0.31704917390458053905 -0.13201407519035315841 0.36699869050329103626 0.17710776061548644256 0.012273831884974306314 -0.57205548595575739235 -0.26095161111770409645 -0.13331544701213632331 0.57345134577795686681 0.055029014221026358034 0.43254898885621906324 -0.44056724171534972223 -0.25143057039447719303 -0.14796458376880861074 -0.049537765926566675045 -0.091132660856650019032 -0.4459371229479247023 -0.60430020467613088098 -0.55542706127662055948 0.22585338969131998899 -0.30660733179328680809 0.35613791016459861449 -0.37823285402499567942 -0.12579254992802790802 0.51337450457243494206;0.37940036066352761379 -0.24443429435613189815 -0.019251412894697984834 -0.04844935159079549053 -0.81891837468127570698 -0.053145304262917365812 0.40561368469636677192 -0.58394392858519494904 0.07873825135502103556 0.58331461565991404861 0.093357091409306161567 -0.28366924625849387898 0.27762897919848039674 0.018179219783343483763 0.32099948699027475163 -0.1323936460062884457 -0.27066083284801384368 -0.054391098964887654721 -0.11415198743088579569 -0.2694156116696032055 0.4180601838920905422 0.52754369574345882921 0.011050756003553803206 -0.10410706440527715821 -0.087873771043888701526 -0.38895255959165647708 -0.12476290400243042478 0.54008937359149822299 0.1715258260856362682 -0.14429692497473950441 -0.10047002161579716983 0.75344990224184260619;-0.24239113389859709424 0.26161765921272367441 -0.41917101455188521264 -0.6177147418002554291 0.39190290817566703074 0.10534844000081218518 0.42538620258700154952 0.5269868605257863603 -0.26196307667784940465 0.17262051299664044057 -0.0083900055618949531677 0.48463995055591063688 0.69005888514195601324 -0.40207648173576093775 0.064132167376309598406 -0.020487291962954505553 -0.079249108267709478248 0.50245487677241329472 0.39099597777289818445 0.060960188787399303967 -0.46718853905767321333 -0.053239228890577007525 0.38496386866942611249 -0.089868240607687999155 -0.3260065941523665467 -0.24124872079710230066 0.30283377362367452923 -0.097734989805674646335 0.11614608564548628555 -0.060485460417201340755 0.1121438076805140599 0.0088908654175233609029;-1.0345068351720427824 0.69345668276968297494 -1.0089707809802448413 -0.55041032513257837078 0.72497596485083282136 0.64980572747810749767 -0.1393636953203023221 0.71072624293496267089 -0.40266999132139136286 -0.45382416566223493515 0.064613191188874014026 0.82320834429010891764 -0.27087538362346891274 -0.22855966858141510412 -0.72469509088837003041 0.42576256381059207623 0.16132870655338171773 -0.17894224559380156325 -0.300123725474805092 0.33812342168210191007 0.66556208197240562807 -1.010379900351536131 -0.78807325059809441026 1.183643227901371997 1.1801670536284367685 0.20873029180107033342 -0.6313791933121720712 -0.15452029354036767028 -0.28363489764553129202 1.3397409348149489361 -0.62549455452459445937 -0.89789152706184272024;0.43143786046369370091 -0.13838061824831388025 -0.031550269410242401391 0.43347866815072938484 0.13986824711352738304 0.011616392071377096631 0.032371049898120812793 0.033361827720205981807 -0.43519873106329415302 0.6545999101607283821 0.40200626743605538671 0.0089180829688611344686 -0.047032879093305147988 0.36644033099741618598 -0.23716466011262779534 0.42486711265949306249 -0.25995736582380440938 -0.2084439705606550286 0.2142758904297139555 -0.20429222303426636254 -0.28774223676062332666 0.41679692041228755262 -0.2522180459796505847 0.053845034873217074989 -0.55862989577163879584 -0.20281126772996196928 -0.071730452817865761328 -0.12478923480551123992 0.17909833892130758159 -0.2115400900186840405 0.33933255905136783248 0.78493704421448928787;0.32522960896671715414 -0.35649287984267724605 0.13710953433879402574 -0.15398505643165333323 0.38833099664777892546 0.33799827927456577159 -0.6493231795608148671 0.20856283769217606738 -0.17933429634993691693 -0.68317536364220665668 0.46699530048526194381 -0.062157400174134964932 -0.32454887070255966641 -0.16572650776680683538 -0.12042190562545633525 0.12631313332597046695 -0.38284372479727923899 -0.19722112760051285774 -0.13465614844544546158 0.40605018804837100799 0.66622789197799614502 0.33336094980527286591 0.049868696916946765596 0.33061406344624100218 0.097855789832853992682 -0.62637008910239788673 -0.27912410682796734429 -0.3019494066917062236 -0.38222220984010640832 -0.11538100743410648064 -0.2326334589413075471 0.21649648657893746928;-1.1301571575988167417 1.4414335774706221738 -1.3279332953432483322 -1.4620553723796063661 0.71079276086063114537 1.0714523578331427434 -0.048244139625696159934 1.1791547038385223889 -0.83347269775469168263 -1.2482366927417698488 0.0024138155228095319223 1.1635837460751778938 0.35400377329604776344 -0.85405367180688895878 -0.9635402951207645561 0.87705616720540691134 -0.24979639612399459625 -0.3701386252066957705 0.56130410825293874932 0.87088266111727785646 0.53431318777742486947 -0.8043614624575812222 0.05307984924757160744 0.91460688418428337521 1.1924204012991652668 -0.42646896550630841727 -1.0019652133261325311 -0.40786007204031210494 -1.1864145629121585213 0.92986684664659668975 -1.4572912716359480712 -1.6296973725456187498;0.080295959126442925657 -0.067603438978401972359 -0.15510576427515565534 0.14626091834150359294 0.25298127843908674306 -0.35087921184561143839 0.118911662056469844 0.19843054453957756356 -0.61132398503963414349 -0.67217104694966445244 0.19823679863726959005 0.2547410945189886311 -0.33510572936205379468 -0.35503445533153932256 -0.90523809362276452806 0.25524145335514303312 0.22994791624529800633 0.196691406445439948 -0.39989920750109786418 -0.054568050096911985269 0.079816517767808473072 0.35434568208710903736 -0.6422580184459577568 0.35757423174545904798 0.42315043499950955042 0.084021216917981839112 -0.41622067128825895876 -0.24061983909070769339 0.041735606521473324337 0.037173568090887600113 -0.12016104354490100836 -0.33526444016367834555;0.19898863841820194076 0.54381174282959832134 -0.58354518814099298751 -0.51807674613598064806 0.27254079353112914408 0.37224749663800116295 -0.21832359366509507259 -0.30386082465382613371 -0.54724274308954745649 -0.20677077906907437299 0.4009096296543360749 0.18370781790132528766 -0.46845427072241002664 -0.086790335034094001632 -0.57033095355828933304 0.18793849324310676896 0.19072125975916801033 0.36045841806165529464 -0.32521894005913393189 0.20136631295723222967 0.36542789015156118548 -0.096806392736397794962 0.048553100155073282418 0.40805769931631991065 0.49162519638740581618 -0.28663176693892994384 -0.24932471617811038933 -0.45080743712443149818 -0.25050167323318617285 -0.30300525175581810577 0.19706787908793188535 0.094534872202483632986;-0.53618497115239549533 0.33078037451011454984 -0.43298282151270639506 -0.82235256335040929354 0.84106007252439918265 0.25307246901615343404 0.46707387624452240127 0.078010121371659829626 -0.22139168455518576373 -0.56607386237820500607 0.13066063071868028178 0.70125798877436429368 -0.3047337537155030418 -0.25766972855099445905 0.10403203932970954415 0.17302094298013953599 -0.21914275255130913345 0.48946801561979763617 0.7438882772830957002 0.4253196825842746609 0.20068598529622427851 -0.64967608493395412328 0.62625009358085870215 0.97713946105396676245 0.74365866381531298135 0.21306699300300230293 -0.36026664164914579125 -0.90790985728807649391 -0.1609929393222839511 0.92789328961729522494 -0.69090017930841463034 -0.91255159118788065076;-0.19377072387982091639 0.5734061875254901075 -0.14421562633155535216 -0.23695944668079185758 0.031625637946518111998 0.34788092386089336516 -0.011982723528596157109 -0.29480431430995485131 0.56324709986747212298 -0.17747503924987650947 -0.31480046961163193897 0.45110691239788291984 0.39201397124503550851 0.38322509301417279071 -0.19627654125090282511 0.46687236878671262152 0.16730760773688899135 0.51670676821429528669 -0.20107679101490824602 0.61629536780094640314 -0.49318806194827369271 -0.57180412417631698574 0.094496869753221801602 0.31711585661188002039 0.19372335344112481814 0.1451898674194933847 -0.63162244827723834639 -0.65014000626519230508 0.059181504943509884165 0.17526854265606631178 -0.0019309449503590561843 -0.31655475918590547657;-0.011426473375317469303 0.060084852313732776963 0.60150448155229652158 -0.060014661444338077145 -0.53677509693315494932 -0.45913458539465495933 0.20382315916551976831 -0.38881159288583516664 0.4624488017856452915 -0.05290542280228193589 -0.39446802678140857612 0.035543731038593519289 0.52627535168175809677 -0.077926391747093648465 0.68893203529330915291 0.0014350140454313109212 0.45997481393153266671 0.065975961263832316739 -0.12437955112661175372 0.13962000808866534274 -0.57649028851867800682 0.45490931445688476131 -0.15850034409730540119 -0.18967673982079086281 -0.35909222673803053993 -0.13033077972136780653 0.4259182144265634129 0.13306496804422654479 0.093670867233546464825 0.2018807191847963034 0.62134234561929624352 -0.19817851619996057488;-0.73693121735004840644 0.74787839563281366395 -0.51136719320844625791 -0.63547064666840480385 0.49949067884662973205 0.28035508609573417393 -0.29893904130437809474 0.76748438595623780234 -0.41471714712845775264 -0.051580541996480024081 -0.39879260939085858784 0.018605028606129444396 -0.11604509680114079295 -0.99610571081345933298 -0.2364223777013464145 0.49306109679287457581 0.028491833851989292747 -0.36109411852054479342 0.27216093771122829015 0.71397795463669022631 0.030293577320625968835 -0.36811036462283980297 0.077062059246124803291 0.80135909438069186095 0.17122469920097677099 0.0064219005219094439652 -0.48623245453982799624 0.048926778549544296115 -0.83047819353684482202 0.57891816148646124685 -0.2589540990385675312 -0.41550988392182286457];

% Layer 3
b3 = [-1.280034543445647266;-0.75132426008865582645;-1.6937282413480934107;-1.4299487133806549899;1.3513812475418132131;1.3967491272270773361;1.5758330756948828455;-1.8634388732196331961;-1.5199300766368581961;0.87464327946963515981;1.3238348491493321379;0.24923382968266047377;1.2674411298722141339;1.3994535718493308352;1.2652473266963870646;1.4867179192962687306;1.0618560990567844637;-1.1360972539758456001;-1.0892299398851579273;1.1173669011881419699;-1.0091570553511948205;-1.4220129748983214579;1.6257402998806576022;-0.60591782400326610336;0.87136231866896307618;-1.8454438281019256429;0.29069023644282493413;1.2482095040052254564;0.81222235908087192513;1.2820327413226797475;-0.97446692589515893079;0.70591112270049571897;-0.72096546916635539937;-0.72023421502575979414;-0.79599702464147259473;-0.98085859970037980737;-0.048026145552653470849;0.96944238455899944817;-0.59404239638768385756;1.0010889243528902082;0.53353189300579473286;1.4206147009854788177;0.51413541646281812891;-0.69779021078169578551;0.5569457075075660013;-0.61524275554501006713;0.38003515006254218189;-0.70688650659516227837;0.22783670127080735135;-0.48131043726770522673;0.56373217675161557683;0.32341199338906861938;0.6626452045880526498;0.16569059440526184845;0.030472851633546679112;-0.55551892988313389399;-0.19737252485395823109;-0.24578444328670029373;-0.14486507161912259845;-0.52649584796510329188;-0.26093425248717044829;-0.46934739577353473683;-0.24947937915755061256;-0.6806369467383350802;-0.470517539138843921;0.11736435682964853344;0.1734872975603437284;-1.6708102452035360486;-0.59353728566775454389;0.14588269237945541978;0.070486970902377960035;-0.69368481892130051669;0.27042678670301456556;0.20715823798000126965;-0.48522366037618536172;0.35210743697152635523;0.21944409454297589268;0.41246851540708046047;-0.77077163641437329566;-0.6235798963471792522;-0.38129847080825696182;-0.80109919027639364675;0.35914732850548197751;-0.63917895735934149304;-0.41876350344644025503;0.49482611874052501166;1.0162795570358804653;-0.96692128818898948062;-0.66854823141776265061;0.26610165971017746278;-1.1033791556524130684;-0.75730695490349697607;-0.5679046835827697981;0.57304106963311540746;-0.63150545916779954325;0.73185962853212715995;0.59877719263006445871;-0.97596791490806344971;-1.9926747362053298662;-1.3336122003320247664;-0.72685744959635711915;1.1472364849047522739;0.90564393616454685887;-0.99234914661705642125;-0.95630624457962642992;-0.95646668269732748602;0.20234380690673839376;0.66431969406572222159;1.066944493683521733;-1.0185209238005554777;-1.1629362038397625945;-1.1915126798552528875;-1.2301391121234153125;0.94718732887094192474;1.3211408329300973197;-1.1238088986589276352;-1.1310815348469207553;-1.0972454482107125706;1.3104582248815035417;1.3404788656378492373;-1.2426715589945167562;1.4443685700113100268;-2.7529060324505825186;-1.4786999577661115168;-1.4314127989146403497;-1.5747233392620409997;-1.3942437659534991923;-1.7930763854078155539];
LW3_2 = [-0.13335372234923908996 0.17107928040370737333 -0.023975237423459094116 0.12342921814291166194 0.080333535173373507576 0.19878470945616535936 6.1449129741607255977e-05 -0.20874709674049660157 -0.18313262028709367812 -0.032701682616476816789 -0.06868466888288263239 0.026662648447877759783 -0.27290798576170605116 0.43863315242144529371 -0.018170006691327622583 -0.35368655706772572644 0.19652903702831683863 -0.021045576748349382329 0.35494353259453376159 0.093499305963633497218 0.28450309605063073271 0.11551987290191384483 0.038277541901411651915 0.028075777632031430342 -0.25914008526348969452 0.23181499427912341527 0.16139644344783504737 0.17052039446809391654 -0.14895128592529213729 0.25428766607772379515 0.27718941980414713022 -0.10955702170596356981 0.326761082643626799 -0.10105051736368762805 -0.16444086920867034829 -0.40900342714201759486 -0.19422526650217109001 -0.3144745314006074377 0.058320412138007413083 0.14585664538722167838 -0.21883854542718905734 -0.10157937299353995975 -0.016966182786161233126 -0.32270400313237873613 -0.19603172802580862144 0.42811514843432768584 0.069444662486893987685 0.31937851658979327096 0.45913749755984151202 -0.33265009209997392636 0.19955839047897860894 0.12916734699904075523 -0.21222749586202632743 0.05874717581162078317 0.070691741488737760979 -0.26301345922192059801 0.41559340649931686418 0.20713187541628383381 -0.38142474974443646429 0.33229241200031384151 0.20429763473890749648 0.50480940488839420865 -0.34142874863248895423 0.06864064371439451695;-0.66796035372958251219 0.029922881784710690656 0.16587914289540184321 0.52721552023113016361 0.67385866197419375112 -0.45035754744398576177 0.66105007213056554694 0.65034645987846229076 -0.17599216734154399244 -0.49045788961339448209 0.70960933419693394963 0.89253400337230737183 0.27540025398181744443 0.56994938508863079996 0.22913797915675257477 -0.86428426468230723501 1.1512505264695891416 0.34422422422371568018 0.17198183329107027961 0.0096014375084951687073 -0.63071350838462159061 -0.65577302309072516007 -0.85278734254985566476 1.1204490161285018957 0.033787979775159439344 0.14208198201987953802 0.6922232950967085463 0.22735780789757184528 -0.27125495750778350068 -0.280242281826880546 1.2834134416099531872 -0.83033107032311725959 0.61101938327984683941 0.059044545380413912539 0.45398809707791804025 -0.64870897381735337373 -0.98776612411105368938 -1.2309323579272981597 0.12793882079926674478 -1.1254162509619276555 -0.29911497740175974069 -0.67148737230121391395 0.19813186523961986985 0.83447101103546750256 -0.83578935409265597833 0.88378388758516734924 -0.39029480084949907948 -0.075435283376508940889 0.84794364367849528463 -1.0251843755592500163 0.69042613284910836491 -0.59211638579406411509 -0.35036141051985636441 -1.0056154712651954597 0.40895002527430773798 -0.97364234058234022662 0.82780275497046496014 -0.23102585199630246149 -0.39550601467921758791 0.13579764012573075638 0.28138033642548182511 1.1719690357624399368 -0.37114655660559309203 -0.10021071406438608609;0.29828784512147149544 0.23251041628137703032 0.099160566374235620257 0.073788150068094984779 -0.24932142590260047976 0.083743211385468460661 0.055188796706905018929 -0.28636444902028085346 0.13618685973453045768 0.29651905744862927516 0.018249256552713088997 -0.41790407296869624965 -0.032812431977938275041 -0.33390671836774143966 0.024682885516802383769 0.059408853350191158371 0.098195851061851677222 0.059177683034815221907 -0.4533206334234308188 -0.1421299511462651155 0.28344566487271699584 0.038813070237543038921 0.023050440944287844264 -0.013761755709015331336 -0.17004480956091766464 -0.04297767319247106782 -0.38217529347322803934 -0.060074428168801707884 0.33654560967734059584 -0.1387974854978570316 -0.044002027868574593306 -0.12869066028349485098 -0.25148534454571591645 0.23290020843074790702 -0.28106658410737112019 0.15262788250051653738 0.037069827852215901653 0.31906378292186587942 0.056484405861786345093 0.29554329787483418768 0.30394829644844967298 0.14038323545663478065 0.0073209759255995193045 -0.34242673386422972648 0.083170263398867655402 0.02011031802770464269 0.36642980567182892315 0.19264647122773445598 -0.16329358157704321197 0.16556071802551888816 -0.14772592676209395091 -0.10494956833201467272 0.26856987113099661801 0.50347442193977376412 0.11531359808160278335 0.49752734729488756749 -0.10245672346155669519 0.14091971223733720797 0.23382723609914926599 -0.33916944896668510534 0.062713502493656370085 -0.52145253213159581396 0.45211398709900979531 0.19217109681251864917;0.094070221549346202949 -0.1217409892422941925 0.26260833487668638897 0.010540196527878815252 -0.16574045975158638311 0.077114594938080677222 0.10442620206950102568 0.19258011430058480373 -0.038874935724448986263 0.30804298132646679154 -0.21538895081653131047 0.2249676796305207227 0.18365465868765828983 0.016823570119505058124 -0.068357414169289615336 -0.18735643808804397503 -0.1579937729618861586 -0.009024120559305029432 -0.0084594792705169202796 0.06201383400936674728 0.30746026361301020957 0.10523427588408708344 -0.11071646211228329537 -0.012189419949073217533 -0.020511234857137801424 0.07841593655414239028 0.26793951395532611404 -0.11940380672311041999 -0.042181506161392268162 0.19574869547847056905 -0.31401596110015406182 -0.036445854172595659737 0.064012166203124276631 0.11212333622007976397 -0.20754912114845572302 -0.34026738297255620935 0.052781265386066644751 0.32386564005255430443 -0.32150598904120175625 0.21470720942029111744 0.18914566732770196622 -0.13766125536339648971 0.24629139259764296077 -0.25264043947943820578 0.14078644361838904553 -0.23745958986556864323 -0.14303549291933168042 -0.27946914820724194639 -0.21328665348096170762 0.3160682618203308758 0.23934085907838265062 0.17999750994505994695 0.15500963591398927988 0.33327045152365991632 0.1977130103326379118 -0.018720803461217190578 -0.23523727089712859195 -0.16739562940888819131 0.076904875106908715532 -0.043293656454729698146 0.1671319859511590511 -0.28375911055454838827 -0.23365047923186840761 0.11140853818200960323;-0.219163432658404711 -0.21405379575866917419 0.12663612369990359663 -0.091957864327094213097 0.038625879950669572693 0.081988549368209137636 -0.018725744103810278846 -0.24756042307305212158 0.18322332979696048794 -0.10717165898930275381 -0.034996829028801919315 -0.18931252914243792973 0.25775480386991916903 -0.30613801891874353744 0.060828091934074866864 0.30398408590293696241 -0.2819671197127014417 -0.33242061797711469628 0.12912043376907908487 -0.12394378757656912549 0.1124047254288324249 -0.20977569372135299042 0.15502795784366493748 0.26305833024444952306 -0.18222972836912737504 -0.043810846050509479055 0.079048537646469199669 0.12303349519310884108 0.24649977918284243783 0.12182478063781487787 0.28292741274930677253 -0.28806058038561466184 0.22253658318057009669 0.26462312494274808916 -0.26105041015204055732 -0.031995225519436711059 -0.214633640945584514 -0.23128876676991660943 -0.22935361597046866056 -0.033624503166036309731 -0.092321411401494218874 0.19745663126601248338 0.21979135868440444201 0.2278478284192453629 -0.1860526140388876204 0.099776263341394694217 -0.17634292427520925628 -0.035952438007988730961 -0.22171055652702012506 0.29358518605135747181 0.031290957858653246915 0.2982625003714228229 0.14898519620163783173 0.24836930992235164983 -0.16438186720121056306 -0.18174142636372439541 0.18477860897234257842 -0.17522282748475367931 0.15945898883053688522 -0.35047013393340159526 -0.30267844613842137536 0.046418683325655255012 -0.13015522267652440691 -0.152838602912189786;-0.099374055273025063695 -0.19786647427717551917 0.0028970723599039088607 0.31333601544700312447 -0.038338820134670333062 0.19311090255930615789 0.062924473386221729809 0.24441637452134473696 -0.13461394665801945658 0.10210656349927356434 -0.17803106778571597957 0.13367196289420826827 -0.019449598171057680407 0.0635203967410558068 0.16849341592320918326 -0.19152273283282839067 0.21262841278332381134 0.24661943126568258711 0.27009283016683666157 0.23723143469448371157 -0.12255193103652821385 -0.24551858010926178033 0.18393227582250357144 0.15081578456304348124 -0.24971096474300571999 -0.30981028021100071035 -0.25384921563997697724 0.26861634674925766175 0.29117486214723903304 0.10205411763063391983 0.22646433341796071148 -0.1440887233676757806 0.28558352326853825298 0.2384505263529873853 0.11594941871485901774 -0.21557600449634792272 -0.069399679916358605891 -0.20781269694044052221 -0.16531911406657326391 0.11419294524973561122 -0.17320456431752120907 -0.034853614274120932326 0.29681312159406081363 -0.17649652614963548536 -0.2852377672886747817 0.24974693848218104675 -0.18855518478588437215 -0.18750971219675663382 -0.14969219494724544939 0.23051939690926437354 -0.11893344055471363752 0.28114438854138878998 -0.1529633878481485576 -0.18356954743843678646 0.13068466246472412728 0.063895116944829646877 0.078907448465115367919 -0.24529451186055162282 -0.058973027391985295698 0.10866530368721789845 0.13290000885034589095 -0.052852443873582594103 -0.020489562284705116479 -0.26215980111967907007;-0.43707657611537226172 -0.16641198739888560243 0.26799517959128354994 0.056967724863424086534 -0.063728915994302776094 0.093758461259846367919 -0.088934704933997230092 0.0060158459333663275026 -0.42032677469720958197 -0.37946239438744372441 -0.11429704283865753378 -0.006472813921415997325 -0.23473047793643728176 0.2602952536115936133 -0.14637339711741770287 -0.23287990403472094703 0.49057216299495270961 0.28605592948993291413 -0.01914425692965958381 -0.020057916428804823533 -0.33800019080447335496 -0.13971973261227982332 -0.22462698996432473031 0.051797648144095737033 -0.062238057695638358824 -0.030965336135281573693 0.00074942371677997905027 0.17657690001696801918 0.15666273710826247867 -0.34021987511335122223 0.11200748740866398045 0.075549733739832883317 0.2032469679013254038 0.18065765012896234376 0.12861942537379264517 -0.3028863679881591553 -0.29305101661057308959 -0.49195799324881800407 0.07470971237267842735 -0.02271458599602670797 0.16786915089057022343 -0.0054495479217389905871 0.3113956302230996287 -0.15519365179987343328 0.097760509127433989351 0.25863637150124535458 -0.37882216811022573211 -0.12166098413737644335 0.43390334177751593847 0.098601928175722483583 0.38612825375628806457 0.05812328773446211877 -0.10191218895988428395 -0.20886331687443779326 0.013299665192403477276 -0.40472732202125499823 0.089211324273450146038 -0.087663770589138920175 -0.37376323997258170673 0.030882713439714153114 -0.21297905839675820849 0.34127821894285015336 0.096023338136558222811 0.051222713681300137412;0.72946101035240595856 0.0944931575669701318 -0.085201220953207174036 -0.30229519606921734232 -0.11096943339249187854 0.17377989656520534401 -0.78785133861470890704 -0.36267919030697287619 0.025963809900235130385 0.1245623177827375333 -0.052720160111421818239 -0.20326666732533954507 0.27163076253493451118 -0.43797053597127832969 0.15143355836431751649 0.30307841057005058261 -0.59480567360932201648 -0.67741038393980701482 -0.14663854610860907468 -0.23872079689402608826 0.63423719499928588039 0.20465812364331661954 0.43222773420473414863 -0.10885270128271104517 -0.037832230295796520636 0.17410483163157611242 -0.67355247886893521159 -0.20059558766886079195 -0.022461071659754489743 0.26677385332151909436 -0.62112003970664708685 0.17670863691835492215 -0.48154528764993848045 0.038892375585834464136 -0.12617235499987128344 0.58404558267045481035 0.27667492969962370619 0.55246020371312087871 0.056627139903288610523 0.60778179130740883629 0.46843797111952961698 -0.011755306409597940723 -0.12112202650908231172 -0.18823120678410734663 0.65530554408506391795 -0.44806526346747399536 0.28025132740884106664 -0.012977431087397506976 -0.40562322786967530686 0.12050378456066880573 0.003717066572249573455 0.14722684088701906702 0.13255496233839855758 0.59620804016120532154 0.13911709932885307772 0.51120996373920435385 -0.23568507572860730725 0.25915971930980286064 0.39537702546293507222 0.037798279097312183217 -0.13303705753551547941 -0.61309452653033091885 0.24589540815197080681 0.68468243653718108277;0.48823411391351329014 -0.1470428497592362882 -0.024042767113604791851 -0.23489824590378488578 -0.17528026375704938711 0.13441681778977745965 0.0067635677509608575775 -0.06734068689013428255 0.2944174847086847846 0.10282908457078963893 -0.26393874252986526674 -0.20613782201865374355 0.25371933380309469319 -0.3547557491210761027 0.029006431272881803146 0.1308966295802630464 -0.3954168383701816003 -0.45117867574824721544 -0.35040260418943308673 0.13749707945794772956 0.29458756220525700309 0.23503785598338042262 0.55827656486617616149 -0.10540805529997401835 0.071311972738118692416 0.0035217089163468275406 -0.13011016069081166036 -0.29240815993348628909 0.032624903217504379327 0.019107683540666050431 -0.41456844796027342293 0.17330180067292721979 0.052739567256143204954 0.18318629676087416769 -0.14420907233769433842 0.017233759885683853919 0.27328947722294943956 0.17030846409417926823 0.026494120530152754506 0.055350069349480703063 0.09433630169990034342 0.048669854728314122794 -0.066205374210400722013 0.15863966975253934732 0.41922818009581269694 0.11543652257931535932 0.00330838107719267022 0.22364641341329175028 0.1178714897544193424 0.37357190296040504451 -0.1309537065198946304 0.05992160924808692668 0.34299093310066980367 0.35180599322353833802 -0.36041541583031927454 -0.13686500499349657511 -0.27366122062849074226 -0.072640490876882360394 -0.088055312867400079013 0.028413791826392743173 -0.48239628156507496914 -0.010529712190121755244 0.49108094181031525238 0.09401834762985933347;0.23995156188891819671 -0.10336678933436978245 0.059436940605708449281 -0.42204049871881293976 -0.29534703839571185835 0.020317463588895665755 -0.38059649753171514996 -0.17852242923773709027 0.33524256542701219574 0.0099140612581101322798 -0.1884199349803021839 -0.715255504259893371 -0.013728415035612928294 -0.37243327112064278372 0.037541921818330499516 0.067206951984721735593 -0.49210649395726441258 -0.47504052812325286981 -0.35023608663873667668 -0.42372505677231625532 0.39867935018266759117 0.42479957860271111425 0.17696305187010219484 -0.64250380911615190271 0.27981257504699735827 0.022657397592550899967 -0.66719454282446932769 -0.36045606876849473066 0.37455005996379070465 -0.077646890723916062171 -0.28213062309413650119 0.40946849770453502826 -0.037005024064604347123 -0.22055815050276680878 -0.39529102595150966692 0.49420221954753756899 0.47443512120415404221 0.28837252711235938918 -0.0174014483465372502 0.21639578976364196028 -0.037812659310834072224 0.51997065255241770032 -0.44463955422121942407 0.21193218061889454451 0.33047810611305933337 -0.64144627973039691771 0.2435962667147583971 -0.081143538885897467661 -0.43995416762537675748 0.30181241839026395901 -0.06212128654085832119 0.45963829877702483406 0.43645519504468910377 0.12366354692895169254 -0.04991349498779360655 -0.038766631937440891587 -0.48230251404434570928 0.064749313900696797708 0.12915524498253252994 -0.51371127919422110431 -0.50962928401129881095 -0.49434437803458308736 0.4078887342991558973 0.11213646949287445209;-0.17226678093768224564 0.15771805979002118114 0.36306768517364279569 -0.25084967260670121281 0.034388677014887236716 -0.014319837047008662778 0.34508550159801737456 0.050831996989525875252 -0.11177926940411828105 -0.33405956906086170521 0.14858437049479522596 0.23100842608193278283 0.07028573516449075631 -0.18452730006800505125 -0.21668516389535980027 -0.26394671120489593408 0.20807202317758985433 0.23013106728351587216 0.16136147482868687386 -0.12911686199861843738 -0.12648422333577097332 0.12050756022489267361 0.10583053125876541734 0.024414474227075801116 -0.068716953143607095722 0.026241253570640339643 0.077297549724146721872 0.077528591203429517154 -0.1837153215095786718 -0.3133550480130713467 0.1019506677041789322 0.25914750993938495682 0.024462812421178540406 -0.227995425318016115 -0.13404577900139610924 0.09704775416277697242 -0.34409812153602559182 0.26362900331660910069 -0.089405905504609375911 -0.15533212293763387635 -0.17426214409865370403 0.1858986763413721377 0.22037033965577976224 0.035672386026354432897 -0.31872933931799968255 0.086103405044310840633 -0.037456131695307599838 -0.14389395045687541907 0.16332856456431890657 0.016448421937689989419 0.19085089589557974188 -0.34627656250649857528 -0.16677369727196805771 -0.33776352612240745366 0.14921736803534790816 -0.083359531241250311995 -0.0018993995806732806922 0.011847532902942221888 -0.21755909790304403528 -0.18579535616231127038 0.083824101586899818495 0.22705756420243378146 0.14059455579905430489 0.13589555137699385612;0.69219968353997374244 -0.48828847611180531407 -0.67972932617972381397 -0.49402633129258011202 -0.38822869298987616737 0.64953869835109834252 -0.81681163955936220145 -0.73513240272505964157 0.68685804708338316082 0.56855814373706647924 -0.90469044426189115793 -1.0784942738482306002 0.26380848882532814681 -1.0152522591631440996 -0.46961010235335387542 0.7098273494508056114 -1.3637352052222062593 -1.0447969220532544732 -0.64047550974459099837 -0.17152034748364283767 0.73670135720216634034 0.89651291935968024926 1.4489479496015902349 -1.069001603616716034 -0.11229178252598004395 0.16137457633722271377 -1.4960969803892700813 -0.59604339652961457752 0.14495260309100832519 0.59334968713009439423 -1.5635194920277353248 1.0893025188999734265 -0.98051043086967593077 0.063668306303053270878 -0.38244161522415992538 0.88894978499227450541 1.4436470155135598947 1.0228704822733090118 -0.12265612366031537761 1.2612607885105389105 0.93894409577812709689 0.59607636808293285036 -0.21647082223667882261 -0.74858305456420370927 0.92553113664129227356 -1.0101974591081763766 0.4445056944877669447 0.21382840518198786839 -1.2101364821506777059 1.1731776547776417985 -1.3095638468765948836 0.88692996430643267214 0.21191029933003321939 0.76451204089551805243 0.13464753769168305575 1.2848502496162670372 -1.0508744862716477009 0.37315151053065220843 0.83853899369547235665 -0.27681201309741487737 -0.41620301769483503129 -0.88853451446068065778 0.91379153722618355893 0.37108994456718685795;-0.37276527210219406738 -0.028496835924150951819 -0.36147598416600307258 0.18571063250077776696 0.18989606024220684333 -0.11419083537969147712 0.163932928616974255 0.02575204563910308414 -0.22111668624576361064 -0.2042193164469972011 0.062734334586931006505 0.16293616214570474932 -0.049160856384374854167 0.044615499365782136654 0.27972279718481984911 0.33026639863159124033 0.450928442970629062 0.10333581102866193357 0.17961089635356725092 -0.15491122102403484528 0.23258128511753031753 0.21261149351039901334 0.033197257355782334998 0.12691340481761284598 0.0036827497800496510928 0.40531612065478184181 0.028407836380322522285 0.31104552651261729856 -0.069472127073066450298 -0.060858850486299631566 0.074941231004866493137 -0.53469751417134370186 0.060811604793816330383 -0.1001347169512815799 -0.35919254042921416881 0.01292302035753195924 -0.20482763094460681996 -0.47618322667505519341 0.35956981626623024662 -0.060357532217084786108 0.049286614715194583536 0.075713398007876700491 0.32566144671474694938 0.38391383485126101549 -0.14584840884726382737 -0.1384971499609406187 0.2650323811481268832 -0.30248865596704516134 0.053160269504237307736 0.16052697955766290216 0.13547842191708803217 0.22864003334696372804 0.19964725836812574622 0.1276433449391744801 -0.10051534607015860656 -0.14447093075434466747 0.060660026101634900719 0.3629208394284719752 0.029994153517739454567 -0.24402646332554153719 0.077084449105675953429 0.47429280964346576255 0.14302865086826901941 0.0037570857451461568688;-0.49469635139899020837 -0.20309944411911282081 0.29494103315837344459 0.5400545044817921525 0.071026566488267106614 -0.44570599857495851737 0.0071555387921655617955 0.37644403705360163226 0.15146754615287055801 -0.33538323632994382351 -0.45849594698634721368 0.2472529319657756075 -0.41100364347398660181 0.28221772548617657383 -0.13451176661630362408 -0.11776005073097584042 -0.081681899993116854897 0.19383037498613500671 -0.9484158032069177624 -0.085723992099132492739 -0.4948863193626635848 0.10591167524644114206 0.4795297408299383779 -0.17606942439539491341 -0.019228609477515184317 -0.6002809613221486984 -0.50250749695558571961 -0.57932996306356054905 0.94850595146667360247 0.094438961924969311301 -0.85475873885171083089 0.77033193186253379192 -0.86509995676003303977 0.16870857451373325042 0.19963607261014346128 0.12485623147494832874 0.2796649560210153207 0.74107825385489556336 -0.31962510043248870684 0.23461225632777918393 0.36989347251626680801 0.45768256623607866951 -0.053701278696789270239 -0.88068053149154856829 0.16971436235826539707 -0.0364861577945810589 -0.12473241068364748774 0.038962009577147946326 0.39112625865009120751 0.43979688937179933772 -1.0015435104930301424 0.061199762135521404427 0.38470701784829330894 -0.036883709903268224739 -0.3599343980734346915 0.83145901997656834759 -0.18511583888184282576 -0.79216521607779488701 -0.36618983337554900093 0.34495075505710476316 0.33861640050430341642 -0.55357493077747699228 -0.0031293320467495394296 -0.16120003139445374107;-0.3845406503635515616 0.052049240168728368172 0.078451054018471688689 -0.20819162955193712405 0.20594865367047268667 -0.10857636311295854048 -0.083879901424218181183 -0.068795724380505851592 0.29090125217393825174 -0.029742354427298250963 -0.0039434709259019836911 0.19295528788655694208 0.037965007019123919729 -0.1097801854128021698 0.1995208812815278121 -0.34489126848011897319 0.081623102148482978846 0.060794514128347985904 -0.35375913787799673216 -0.10148397467997005705 -0.20391361774039826193 -0.083932160109262368697 -0.22631265448524778838 0.075023235317819111923 0.11076899865992750893 0.18347883477790633 0.2830688697016161548 -0.36175675891326602995 0.16795807521034275545 -0.28528909333264335091 0.15655431742942227391 0.30639036725278373519 0.079655316335048617638 0.26959822000021366195 -0.090605406107368932633 -0.18631710956948574487 0.09459956183704859578 0.061902171075270052969 -0.3439483182522510285 0.13161541347929955892 -0.17188368524463604192 0.11740400902829532803 0.077981631838304990567 0.26552450092426910233 -0.29911256185104606597 -0.10997364369764889291 -0.012277287938999728242 0.25779998409064686093 -0.12520855655664855921 0.17445026498667998149 0.13433019453397346266 0.15945840899413946112 0.31352392457587924257 0.23030171353289913272 -0.12161111159723785036 -0.21806223729275225898 0.20234558145993347678 0.11655372640051792077 0.088403682106801217966 0.27056188577150991348 0.21426286107824180083 0.17331775326503373602 0.12094971537094752201 -0.3274612539564795699;-0.42329570598895288613 -0.1005127601385289865 -0.015109671359096858018 0.016700948299293881527 -0.091636956431342467266 -0.16019277449364990873 0.20690625840870882635 0.53989784353841874243 0.10971667858185266131 -0.10102282567881239184 0.34590662678503220073 0.585647246921145892 0.14739140364095626445 0.42590930088696576927 0.27026266665595694016 -0.14300583082345019736 0.51831530751057675044 0.49879456337482219741 0.19085225983058717869 -0.12409118978670025113 -0.25367125904617321419 -0.3947636575982687579 -0.43933287300259354913 0.1248443979781403701 -0.11710332989971439233 0.03184387335591623569 0.62916053013241557412 -0.046425695549158360609 -0.16255584359564320684 0.038033130279786497852 0.067336185400272668966 -0.20969244906680556406 0.37462401090167374296 0.35983372029798477154 0.45139316428852105378 -0.1731994832172819021 -0.065315276814316897136 -0.26929981212477421826 -0.14408601071869958643 -0.58106149334729395584 0.13121527164850077529 -0.0032829316805305028271 -0.071029910782495972454 0.25068823781784199678 -0.58045898222311176351 0.22755802317259726797 -0.48065890186535320527 -0.14413113320642406689 0.014814055524337099365 -0.064610171413645403615 0.48646402804617511206 -0.11399163327951251923 -0.14098956445173027596 -0.4147529605695908228 -0.016398847975963914969 -0.31552058757264123123 0.45386644112453555788 -0.012997081874814459326 -0.31932381413743271548 -0.15536060824643005418 -0.064095034663279287779 0.32533324776848399074 -0.40881382340210487003 -0.36870435130352091635;-0.16938396193000052059 0.30670225469717327105 0.25216927153908824666 -0.20407820885011410117 -0.0034810024231127860948 -0.077813142276886335114 -0.37349716621290390828 -0.18616632834102725402 -0.20039805602352656067 -0.0716635942729304809 0.20866956337700240387 -0.11059292564905549849 -0.15683654359793341992 -0.23535505036374052001 -0.30771981820189109325 0.22714875433567843777 -0.25863086395799828043 -0.085474335407421983546 0.22326375096465789216 -0.1871071972066211675 -0.10259020047594885616 -0.15934399446298530556 0.28338167821713833305 -0.22730085399076765951 -0.16571015465991148496 0.16182845977708018581 0.17657316986612697773 -0.29830643487516778078 0.19336946126731874296 0.29306216666796380821 -0.13920167896141394381 0.1351771259460488317 0.018618145567747487051 0.17018150577210813812 -0.31352652363070182551 -0.093204938781124083147 -0.062947778674371165919 -0.014634775046457290312 -0.24313932826442435919 0.078421237134705168437 0.060925903898081473775 0.2796877435431563419 0.012962426784258566925 0.28202382319523233711 -0.13335872888912453371 0.10621691491278276165 0.31863733903941920955 0.18874426952546105585 0.10873203178049450912 -0.099681896859236507336 0.01406925174392232962 0.38212464723755806828 0.19519587878585031859 0.27649080957261867875 -0.23802287759673509959 0.024183796030720742382 -0.19410600632639146701 0.13626735187832506035 0.017992237899249131222 -0.26081919666014369286 -0.2701949065678773132 0.081247279550638776269 -0.010724464685932296598 -0.17262462474608281093;0.199074335266665986 -0.20154458875686226405 -0.030161547783160283509 -0.25059326573887508172 -0.050880227850936647627 0.10096910664766066412 -0.0007293576826007542712 -0.073042615385657858051 -0.07869251113841338463 -0.30311238620510139175 -0.36707867366554131072 -0.22303515638732429593 -0.19664236468984783168 0.23545002923497104774 -0.21137426234660783297 -0.050891309229908344991 -0.34239706723060781002 0.18324336903052249048 0.014002778188803370954 0.23626997831841872744 0.28566867710114784984 0.30703293178755336479 -0.13752253197041969246 0.218185027506307333 0.24504095330298791833 -0.28320421845839977015 -0.20750047873023630407 -0.048565147777200307067 0.069118407767178868806 -0.18096213583154005522 -0.3230074545529118546 0.2361119270339458176 -0.27977157586375878129 0.24163407713348833417 -0.15624371863815492145 0.032240150816778063991 -0.16438408423237266254 0.1772384410247237474 0.003211800556936062704 -0.15468743864128561838 -0.19819593119265993542 0.36896813111183413003 0.21226193175119983936 -0.11110854444301530852 -0.0079933024789407228911 -0.15940257316853717606 0.08257351562087114627 -0.04997018660653625155 0.23540684331376343641 0.14335801851333987433 0.1452187367224923864 0.054215226980140987512 -0.13470631860871523644 0.27824214062007179837 0.055948279244512219566 0.30947605787260201726 0.11895421145424982245 0.26622180071473106056 0.21955986061187693359 -0.21076244339123448301 0.024043566352291691202 0.025372575873936202562 -0.26064981327526498545 -0.21266122602767997818;0.26843979613594975975 -0.017166149672453889785 -0.31169610606692477184 -0.086245384469031599606 -0.15982518940005632779 0.29753492952676580119 -0.25398519894169946376 0.11344976285772459534 -0.29451694158586622097 -0.01129181161952334464 -0.051112602194993056459 0.27155622130020717897 -0.15325786919317843648 -0.20312348331841881266 0.034791515742829612345 0.085709007956409302698 0.098045821158222856706 -0.20618144239245100868 -0.29205972009362790587 -0.23541152770375270431 0.25374650613308841196 0.067087726335925412791 -0.17709286487013892186 -0.20247762532554125503 -0.051671337888295594543 -0.19257005121177675488 -0.054752925917759695529 0.27740056185949607537 -0.14260631602221318648 0.24434829094906057589 0.092177583210222624466 -0.22616851318403402571 -0.04669857092128677778 -0.10745482747511048149 -0.19302149062292225934 0.0077013154426090867782 0.039188857270763724494 0.27500047047756359664 0.099175045938724559758 0.30765744858367449766 0.00027132634471048634869 -0.23287373827647617208 0.14248782081530145249 -0.18842488238210119977 -0.067110845521418396875 0.098336793941007347164 0.02321148873574141111 0.03355119087671046274 0.23482844022005977536 0.16597723374278428032 -0.17030542380373311917 0.029087657793972213766 -0.14991129687276369409 0.3064674126629877704 0.28974702259499662826 -0.18213404108492384226 0.16940509838229886319 -0.28545304706232949021 -0.23616031934533043835 0.28404890705580310151 0.26255749850895526709 -0.11980031915166691747 -0.14050622706811674578 0.22865004194812960092;-0.12898459855464924906 0.25649557565353303668 -0.13250371089549195514 -0.2260220109886307005 0.0031995489107099935044 -0.082583473814334923402 -0.080233577581323267669 -0.12772245848137225854 -0.38991189101772216752 -0.13880016334045877646 -0.087770468486202485314 0.0090090084281217938655 0.29323939606804855229 -0.0067055886425147889426 0.20135274153933888086 -0.093758008420135721672 -0.01964672138122481454 -0.23329125283299464999 0.34992916735611140355 0.22207459444354143985 0.066447068245005014298 0.14115684371192979696 -0.21582000360950381879 0.10452281580716424325 -0.20346232028813093784 -0.0035800400798162994483 0.076848647628416824618 -0.076477457338372939466 0.12313882093852343558 -0.010136627094120843548 0.074842608180020128716 -0.36105048911212744844 0.55385523170943196103 -0.18578184361768484978 -0.017065492456595512949 0.037258541988169427417 -0.37364340055363681747 -0.019704075000405614493 0.11646753673614912428 -0.25428007148645348501 0.01838899882087253676 -0.4515657065607409093 0.17912074730971633274 0.43556719882513361686 -0.25889518658877486157 0.17388028062352323122 -0.05844195234903293984 -0.3086223115503269887 0.31108506250696216222 -0.3359566250637605056 0.021099222814746607796 -0.18542051798871683754 -0.10189413557293297563 0.029731021658580620431 -0.15323929595035881701 -0.51047667485469017112 -0.20609522855200676505 0.028490895375844923348 0.28323909836797228623 0.024102393675316344246 0.34841109406703762996 0.44178135039625504588 0.13036977530415178039 0.12198017330215972509;0.078899438965772020205 -0.21666379313709363541 -0.16629215871694030815 0.29878253751218253331 0.16383549776470057724 0.057759823223717643437 -0.048883663938190109743 0.077242948702169994535 0.31497727480189879889 -0.18545583887871014417 -0.23235920457990638655 -0.24212829889504189351 -0.13992051808629363263 0.095283776179977838772 0.089081845151820909789 0.17644799339861119702 0.23052173300101835851 -0.22960561961611411497 -0.34625030096855252681 -0.13244803505621391415 0.26707076363989823431 0.25547501008626416485 -0.26334839702034673614 0.057999149544092569453 -0.32714787710081011385 0.062560308939294637098 0.047619097661691277279 -0.38882276572831897532 0.18258310024253007753 -0.088321115412993450589 -0.14800626909008218757 -0.10210080629196942315 0.18256310653259325005 0.10392136537090125581 0.36085059507385175426 -0.086316569673972318166 0.18472666580471347464 0.22921965588681170178 -0.051951300549769617587 0.098004795712718292822 0.11204309725921735019 0.089604932080915827841 0.034669463699303425253 -0.11259494406079434414 0.16932320400481423728 0.087258381536803722445 -0.040360987693225248985 -0.17591023862818960799 -0.13564221440108090166 -0.045455074708187888366 -0.31119506187722045798 -0.3502306236015556018 0.23304193333910080965 0.053741109976706509521 -0.1778333786740004252 0.40634016171000414408 0.27022071123434937556 -0.23364591556031233388 -0.22108498945602528263 0.40002949010432703458 0.039910803803665718947 -0.40529299413976632716 -0.16549165293656589726 0.019948035277805080401;0.40719487008438259856 0.16920647497105475998 -0.075016613818363997446 -0.18939749884892864706 -0.46791812650907144144 0.41277845964627540853 -0.12226307231656566299 -0.45537395635377242442 -0.029851515795554586091 0.28885230246039078628 -0.55602045145054945774 -0.5133161601916704786 -0.10218648173992876671 -0.54036168222889802149 -0.18609717330158548343 0.58818943508928189789 -0.4168018365581713236 -0.62991327730657542538 -0.18898190968715150584 -0.036509267615962709419 0.11444981935886765212 0.37177373925057910498 0.43056588363506054229 -0.12109008034584328728 -0.051683517586252461506 -0.29618719626463729799 -0.1874740696527079642 0.085801046933637034608 0.12240024397646859233 0.11393316276134511644 -0.34643456873571459864 0.45427502221925192272 -0.29917652070411498988 -0.23867476890580377469 -0.078862746090138657884 0.097850668717064256952 0.71658000218156514549 0.18656496523452981151 -0.31490562356406015532 0.39500037125064113575 0.17906935666295784038 0.27903160372237245657 0.067264510269018001898 -0.20596939974839703624 0.21531083718994586951 -0.55480885712056593473 0.42975400001118013726 -0.30396352254823588712 -0.58321763430288808827 0.51328981335871004532 -0.094021605701108054709 0.54115484305346805982 0.27105494869942153846 0.029480422330913108597 -0.13873875083953385312 0.17481034347650539762 -0.32923482063736025927 -0.17562048596166934811 0.076047608512020012372 -0.37586212913326433327 -0.34493806315381142502 -0.15167800597063049728 0.18167465075626923476 0.28362597803004080399;-0.92830318847816062355 0.13702811193328179318 0.092738861390306917554 0.51619635393123119993 0.22897247680100044076 -0.27519732641942429296 0.41533165332608873443 0.13012472340205111232 -0.30567737816338469425 -0.61620276619494562809 0.56359972008239700436 0.675718730534007328 -0.35231704023674376147 0.29246394096686489927 0.36226370695145898582 -0.73733366778912479145 0.32131175912045617515 0.67891685336554297159 0.1079534250648162691 0.0031379991902148046679 -0.24342049314591143738 -0.39160355719967554489 -0.34009948956155905408 0.68881002603856078537 0.22253343464490138448 -0.087212638677257758868 0.69600828806345027555 0.14510153704130673846 -0.41769718508319603201 -0.35636225361559398239 0.40673524233493457691 -0.54412748269005484225 0.16987938686531095511 -0.041993484979419196113 0.38411506000308442976 -0.31234870687352589425 -0.46355811555064135865 -0.31199230338956929209 -0.030409831208908548461 -0.75888569591208876464 -0.056944186167890133154 -0.47370365488239224439 -0.095065494426891980484 0.11048603734353301675 -0.64604916204713469519 0.22168952296783694944 -0.50736245095040777286 0.0025104614697382663692 0.5948881985472831424 -0.64041197721779663521 0.75136849686341222743 -0.63639756099638711273 0.18532091493590488462 -0.51966063051997279931 0.14545497061999898558 -0.33450669626799289791 0.47833512837741831714 -0.12994227152352277876 -0.46964982341127642362 -0.14382981499932015468 0.32184543499874618266 0.80074500980250673532 -0.72226989055392509798 -0.42819336572608079905;-0.25582708766144923729 0.072017158551664364752 0.44075231560836553024 0.19983373514551838745 0.26299191396053672731 -0.40551844488106303377 0.26467685305576166277 0.18802971946951999027 -0.50659871273692391735 3.1739946652031071931e-05 0.13649338853363690571 0.49706923530198665606 0.069209956548659634645 0.53665177029371025075 0.16089825149915301661 -0.24410545324280499835 0.68162027983819650778 0.55114142241135788414 0.37031207315795322543 -0.14597436874878905178 -0.12550296800522051099 -0.45656146831739674585 -0.82576227673735114188 0.63165172366630473189 0.26424923083249279854 0.032006065591744854715 0.95963213156632887202 0.68943172956253773176 -0.47385783141421011777 -0.54517368476749861195 0.98943982028492682979 -0.52976303789478362827 0.76203602892886934672 -0.1428832847225046665 -0.25276591906490747386 -0.24340897376462855561 -0.65007482089434620587 -1.0666689680157976916 0.37996055383348881218 -0.64127792157420226982 -0.38130690495751340396 -0.60016271645904117893 0.23454287326973846661 1.0275272867982718772 -0.6202942830026874077 -0.068373727283533677901 -0.395697375723699174 0.16334935366946512492 0.33901647833891979111 -0.55709542716202964385 1.0470963814853575524 -0.27225724406296897273 -0.23817301964405140913 -0.35348446529920035664 0.14880369238648430419 -0.59577231128989449616 0.68899869971183824724 0.18973809514183126446 -0.19542513694961441417 -0.17756923295907628413 -0.34273454565381639148 0.5371246118530407232 -0.091047082621765071386 -0.32196622124742629856;-0.21570464628978025523 0.066267465543081577328 -0.25725288166764176401 0.16163459388984402487 0.12659368362549852649 0.25494515542823309451 -0.07073553617354644274 -0.050269564008381818765 0.013715106296524162341 0.025934336185473239739 -0.42244761604851277514 -0.21676066380960543056 -0.31937577580078985173 0.055968908414466042589 -0.18593292508726380619 0.085921989338588980467 -0.085408144750450998295 -0.01078856112684068759 0.0037868255208318903765 0.1905610425154808385 -0.30745262286966129617 -0.10892602072057155915 0.6387722858400890491 -0.62435760996289735303 -0.19554133866647360751 -0.05923358238301268397 -0.49611409273815409993 -0.4527102138826923361 -0.015990624574719218554 0.41590210802234134357 -0.32172268219298599812 0.26170632751547218131 -0.023780680526316211321 0.15923338503411527123 0.079107921145394402562 0.17691018710095038347 0.4952205553385994885 0.68520667156558434652 -0.18656092483448480368 -0.054569553109440442629 0.6488358944385518301 0.14615357825165684047 0.13731760964168332473 -0.57680217805793432273 0.38431594613087416423 -0.29325999458902268779 -0.18645031809644341259 0.22174118199254161388 -0.28693573801491922826 0.28521317725028183521 -0.70158860999964878236 0.075965278670717867326 0.4279983718932426906 0.27760074120223643401 0.18992837017473540584 0.19559166213924925048 0.090946602700468087699 -0.21912011566606215407 0.18250393576605447588 0.2454892101753852196 -0.15371346962086718246 -0.11348077133430913011 -0.032250290174266817156 -0.12091267215827335157;1.1217007692614078262 -0.068037784207154644589 -0.43945438982996570809 -0.35776285328205825742 -0.31160647664228774412 0.87567838247652574069 -0.8916239140367279159 -0.62216723367023640812 0.66737057532319432607 0.39394008184906814662 -0.45709652095901881497 -0.52801458794623556958 0.26203561372234396298 -0.57109231701456020236 -0.27664689839962564033 1.0085004814376570259 -0.66507717348669104229 -0.5830510254386945812 -0.16689682496630300901 -0.40378315119001018108 0.72098933445664747932 0.94240505789859851937 0.89342890974657385161 -1.1148551783588407371 -0.32173987789552643823 -0.073676128027345827443 -0.86356646518225321785 -0.37816135388459171107 0.37123290665593106086 0.54212451844803921652 -0.92372270539695933156 0.67344297466341351832 -0.41955152798870332109 -0.04918154882026963548 -0.68685038630657013758 0.77078468573527025853 1.2356509697441568907 0.76362691429984097535 -0.48331469907827140364 0.72188543740832356033 0.73748371129329703955 0.60204317325597467292 -0.54261357277294586243 -0.38307466039761495225 0.52683369644180622071 -0.44711496680163825834 1.0079638263995462921 -0.01070352411314927886 -0.80519176111879908753 0.91034835414226011885 -0.72869114423323078089 0.60585525701412634714 0.21200016402296592566 1.0209778618924247873 0.051207523479431797664 1.1014003014701032601 -0.5639777005783846997 0.47698019935528357394 0.90468956334588046531 -0.0017353548034005725643 -0.17958111984082300583 -0.69415338045735452965 1.1357341083814513905 0.53744643614817333432;-0.86657081548255210368 0.53836630798400386677 0.75749520227376110348 1.1238021942010651966 0.82413111042141018459 -0.64087108696871220026 1.2281030123697673773 1.08578039230564527 -0.30184417570588467639 -0.96982360161957348321 0.52144927382006711625 1.059026213980333031 -0.10574703068327177824 0.87477909174794632463 0.37496016368646678529 -1.0476613378264829635 0.96801941909486566296 0.82926855866016613295 0.21851515388101386272 0.46365189167696468919 -0.90193859645094298649 -1.2005271194173636751 -1.3154316251455684395 1.2943917377004534597 0.11812566690468521979 -0.059370028208093249267 1.4379260081405857985 0.83081624285032418253 -0.21107368532943815431 -0.65353012098800267182 1.1565140765035928361 -1.3254991803973714681 0.74008336584233191946 0.64898886326234728195 0.80476547149128485614 -0.85260496716752143254 -1.161712572117785891 -1.4554189592463058212 0.40742707215738793725 -1.1133877743120608184 -0.48165998423000211393 -0.55426533387607335168 0.42936487367306608309 1.2179223385438688876 -0.98029974030710198551 0.97495972238859918146 -0.79246237585106571455 0.29237281354650479503 1.3235214370686021468 -1.0933341148289639211 1.4466905372276235298 -0.52067138504811205646 0.39179938045598522445 -1.0907618335221163086 0.21639664504666958345 -1.5142368557204779478 1.3893289098707761742 -0.30712335124855877355 -0.73130431857916322613 -0.025092698988676540028 -0.086444142015671937562 1.4481827831665097239 -0.82406637093514445436 -0.99324315085717773677;-0.52010815886676498021 0.16459178325588821878 0.5066524692333361779 0.382931904220909336 0.011804552263271846438 -0.29659252757046239424 0.35306018440499375988 0.38012701504805462838 -0.49912908952842832688 -0.027092966201797640674 0.52354211681837137249 0.10179713445493301927 0.29009528652050103892 0.54506475496279960247 -0.2409620275241388665 -0.039028419425210229832 0.41892376993517227435 0.25014490132253791588 0.47927008508131574427 -0.2848609303452139252 -0.34464751764941248258 -0.51476302710062837864 -0.91868268102508099382 0.43922475904787539047 0.059941590300594767282 -0.18149373720441996927 0.39806991928247015267 0.33519443720619718219 -0.43039839381016692377 -0.71502451211639173057 1.1011989628231162452 -0.81001035529458487172 0.59580498706007289922 0.08613281321502380683 -0.27875088019595534172 -0.63946697729621382322 -0.81389114311552801517 -0.87584957831606280454 0.17588407134337880056 -0.22709693491039772972 -0.73196735404953505721 -0.1163211453393600131 -0.069330195428340901653 0.70659470812774771709 -0.091512341223406012958 0.58456000278338127174 -0.27245880987630843872 0.029053551891397830925 0.21528733802598862268 -0.50126285391195868346 1.0556903615598569601 -0.20360479046699048178 0.1755245638179522838 -0.28803758962602443727 0.28999455282063529848 -0.87680302566190171376 0.15375515400409173195 0.079120912603756032855 -0.086126873573401679929 -0.27572407157319450688 0.13077475449111003458 0.80726671005647965274 -0.12955561888797395564 0.092838180719601440249;-0.2354940441233330517 0.34325247167537042969 0.048793209212411842168 -0.26772405848058711264 0.13011304504129830861 -0.20281342875498653555 -0.064212484078043433056 0.22554797849707919344 0.038178347987789691687 0.028123634964163660155 -0.1306131631021613948 -0.21079797867538402345 0.0068993870302880046241 0.09094654229590157235 -0.14779380555530510777 -0.0034455121674802089218 -0.086649607165941569531 -0.0629888947875845151 -0.34246103703759284143 0.024831394001302166397 -0.25968282944013360014 -0.11588933043103306908 -0.027328668292024762415 -0.17113774530162337295 0.13523245831480046331 -0.044248828167474711648 -0.21542226622947482917 -0.12403389562741529151 -0.20171147840736403101 -0.10588286029323532023 -0.047663467303999083879 0.075088327252167644255 0.23205746824739723055 -0.2224214486316833661 -0.095948853214178050908 -0.008094500520977758462 0.073823287038027748941 0.38889397985331974894 -0.35152468930164881833 -0.24501593034502219814 -0.11155321599383660747 0.24867477360351661342 -0.12118532705046805575 0.30726098943061025404 0.0062725611037340225223 0.34477926986803653087 -0.33753581469052673647 -0.15305224083379845301 0.01796085403858449156 0.31995805292690504551 -0.30417039788553223989 -0.27604972123274862383 -0.31019238949420763207 -0.14228263054622239392 -0.094533385835303226918 0.035478084410938311166 