function [Y,Xf,Af] = idynNet(X,~,~)
%IDYNNET neural network simulation function.
%
% Auto-generated by MATLAB, 03-Dec-2021 22:26:47.
% 
% [Y] = idynNet(X,~,~) takes these arguments:
% 
%   X = 1xTS cell, 1 inputs over TS timesteps
%   Each X{1,ts} = 3xQ matrix, input #1 at timestep ts.
% 
% and returns:
%   Y = 1xTS cell of 1 outputs over TS timesteps.
%   Each Y{1,ts} = 3xQ matrix, output #1 at timestep ts.
% 
% where Q is number of samples (or series) and TS is the number of timesteps.

%#ok<*RPMT0>

% ===== NEURAL NETWORK CONSTANTS =====

% Input 1
x1_step1.xoffset = [-2.72694147963487;-0.618223692785619;-0.770498991400587];
x1_step1.gain = [0.365563569583878;2.40299049613103;2.0090932239072];
x1_step1.ymin = -1;

% Layer 1
b1 = [4.4431453175188249105;-4.1607665147248278359;3.8711967704732339612;3.5852087298309207597;3.3014708382954314203;3.0180095773465160924;2.7249123809433246635;-2.4393274153002613147;-2.1514192582990894209;1.8623916342593784812;1.5725931804294122074;-1.291664296828589853;1.0036526341326117429;-0.71388840801197905872;0.4333860042299134685;-0.14578553606744987237;0.14152656084950560045;-0.42994210571588276082;0.71625265563893758536;1.006066264624568829;-1.2886373665544976763;-1.5788860586130595287;-1.8639436107563651657;-2.1534223893778845493;-2.4356729465544759705;2.7255616450108433035;-3.0109405259494845808;-3.2978999397222876766;-3.5846060607255476604;-3.8712123028450329265;4.1579227074349436322;-4.4405349468126447121];
IW1_1 = [-1.6453305946695835349 -3.2400033389520155325 2.562163406089414952;3.3169425582386913298 2.3785247249773506795 -1.7513795684106263639;-3.5923260978698294821 2.2716618094028171448 -1.2999854079062327372;-2.2772748144647194657 3.4157675262481856926 1.7025069366456815345;-0.52449937283510450481 -3.6316180905211026264 2.5030386447828205654;-0.083749962855148893381 0.93828261361167875076 4.3393382279544328028;-2.4604662445950644667 3.6760737934859757381 0.42941029908097266832;3.8304409959023457688 2.2522288537152146404 0.011019257080697683962;1.1673437944839504254 -3.9963344427362867961 -1.5539705177455565011;-3.8957802608676157519 -0.64979947522474967858 2.040712962520335072;-1.1997668812635020608 2.994077489596794095 3.0597336773464274273;4.1996362069992780874 -0.21672938087574741828 1.4382428189764848714;-4.3731151679553876832 0.28035032955935063059 -0.73895545808453810821;2.1927875541627881439 -3.2062260687293893113 2.1616616254316562973;-1.4064035352387895816 2.0511777482526616367 -3.6828581897789751665;2.2680447220726596136 3.8168598580934731679 0.19440017154423952506;1.9684209595442030416 3.0401235232467209713 2.5748734672168707149;-2.1256378539451228349 3.2562959925440604358 2.1511206954427692928;0.97622735812291105972 -4.318422522794136853 -0.38797245085063480907;3.8350027733729015189 -1.7253453641970875054 1.4381249674743992184;-1.091435342981549983 -4.3090866789404973503 -0.0036687370789261755308;-1.9107901070750066275 -3.4879506528749981698 1.9835510654716506096;-3.0962077320852108286 0.83942273702409286873 -3.0752973463916464247;-0.8873363795461812753 -4.313500962664491567 -0.59026198338100288598;-3.1110504865311150446 1.9877411950342569469 -2.4763142144682541712;0.40915709067775835051 -3.7503858735310400263 2.3483628286609317115;-0.16698060196216615858 2.9907717440544994147 3.2837416236603544917;-0.70635055265076540643 -2.7474019256762356456 -3.4216703680096207663;-1.2892783883358660546 -2.2213120814020230753 -3.6274221780754678512;-0.56151775606909648531 3.3533797706632682001 2.8627080187082545315;2.2965159248425455196 -3.8016352712375049983 -0.17074128724135087531;-0.35050509245826932947 3.2093901898690293528 -3.0605055568778922748];

% Layer 2
b2 = [-1.5962610005374642252;1.5444260275278969274;1.4936275593353218749;-1.44583021886622487;-1.3936998594095326709;-1.3454211438427059466;1.2934255549526949558;1.2406911503173170264;-1.186367919838969609;1.140811114039764318;-1.0882179151741782075;-1.040882295926050638;-0.98691829971595479432;-0.93629520419195633174;0.88794404129679560533;-0.83628822054611362535;-0.78450742662490025037;0.73470465038615384579;-0.6840498291028643818;-0.63348845716338608725;0.58655501333178194923;-0.53593149723135713458;0.48172346532039328482;0.42742272793141056209;0.38389497340070960485;0.33421391369375597069;-0.28201052563219941582;0.22369363480198239946;0.17151107302328061355;-0.12903296506782943598;-0.078564526878555321354;-0.025976304035261004594;0.025367157723788041207;-0.071531896025137597928;0.12255380262141110648;-0.17704667859479680803;-0.22764464778339760231;0.28134794278159608316;-0.32946346032758672129;-0.38019314551670774227;0.43359886913408901554;-0.48014155900952604217;-0.52980529520803854027;0.58219620939059202325;-0.63344911001527381966;0.68172035823725374293;-0.73407241090435260134;0.78689173823228697469;-0.83393863271963097894;0.88467011230947756317;0.93542499209719109921;0.98823995191401625693;1.0405655772407040871;-1.0880485873148824094;1.1392232283501342316;1.1882009292847004467;1.2436124670183976715;-1.292236622594035822;-1.345319667775704664;1.3896457414704888045;1.4485980476619291224;1.4958426031184943739;-1.5436803241911849494;-1.5875016806168684713];
LW2_1 = [0.42498904403920256811 -0.12534201759579188806 -0.00226564689233432889 -0.53332888879654982706 0.27603707047558867504 0.089241285628181857281 0.18810910137911507345 -0.43426061664941284501 0.10337238171852419777 -0.12554354505812126419 -0.35377551657027700438 0.094431247685318076002 0.19856026030244830483 0.035252846608897790703 -0.13710647538885256669 -0.40634046029169629266 0.26545931526870386596 -0.48593693700524293044 -0.18660644243112387008 0.30551805397516751395 -0.27507990868993181799 -0.09431401831126726143 -0.52060684557678038598 0.14318120757701233159 0.36967609329050388212 0.19150632796241026656 -0.29136388427008913515 -0.042949489263078496903 -0.36481598326306918789 0.35563002462309689644 0.16070724739583472362 0.055547982678361133846;-0.29918982346235273306 -0.052695856463158483041 -0.26461108336984506817 0.24939151674393664204 -0.38285540235663678699 0.3424317045542760729 -0.3801931287861233244 0.36067450386705746102 -0.30626088879632651363 0.36258601371257237478 -0.088232653942627886634 -0.31310164018763897431 0.03889015743814715903 0.030663112815861939819 0.30934106368917491103 -0.034533835711449717421 0.20160371009732763747 0.27667013250936445257 0.042268785162673794265 -0.24853107929987919289 0.25497118147809766375 -0.3464294148185488309 0.27974939689452299474 0.35161629740449773518 0.21160415051373912543 -0.31484985993637554236 -0.23357954463852720339 0.37658608329323900454 0.37879975791009862229 0.32944468685283767595 0.36343293090858280747 0.23043912819654682744;-0.19627958327885491885 0.14499228294739371914 0.35489250555597451342 -0.42989192133036124854 0.12460474314921807237 0.22671889392447711065 0.43556565733118413064 -0.19126407385645455284 -0.40563472745914946893 0.15256119605974835518 -0.2588073456284629148 -0.39513430927195236642 0.16348018396883615133 0.37322394146099818757 0.12922656364841378362 -0.36096329250712638759 -0.29055365112160685959 -0.094642095066724871155 -0.4415814071751556491 -0.11632673980723627627 0.025707023709282510182 -0.14649278504719392968 -0.44623486828611180766 -0.11258381857232310774 0.22392061428038179116 0.21330426837582966426 0.37103099390073102093 0.44120239322390547576 0.21413768686194911695 -0.18454102436737815363 -0.043756716224421635109 -0.3297695059178314958;0.1078351895878081057 0.1647207296457956216 -0.32279956731263503844 -0.30991791023267933891 0.40722360842211474674 0.3642209357338723752 -0.08072727726306745677 -0.16998514858755450763 -0.16403110655389499528 0.40410604301717767406 0.14251443553198547831 -0.04377782766286742594 -0.47606182707761079964 -0.14583227601957440833 0.077546377976422845024 0.16701099335273256186 -0.025881158806076432627 0.37131731466106482342 0.44896800745093495832 -0.43925398931470593933 -0.29235456883109101067 0.091451293251063950351 0.20605599233729934849 -0.29124786421324722063 -0.40122439123460995614 0.35736654252639021845 -0.02915193881482925492 0.055648493330149213787 0.23271307562806681224 -0.17876856192023396486 0.36697696208138902429 0.44906673565178806262;0.25479727517732281283 -0.14329579852201032586 0.094454956742046194962 -0.12546393565213764809 -0.36751637241389739641 -0.44966674528891992235 -0.45491689232977600144 -0.26534870334342403053 -0.38255129579036828424 -0.40572649839781244063 -0.15641332890656794996 -0.39819085903383483194 0.031922953200491821502 0.28091538863061260578 0.16276706887789044176 0.038473185537351579921 -0.18971682017813801258 -0.24276956201902466503 -0.4236443511766633252 0.030795790792680983322 -0.090082355217599080488 -0.47839291973236980349 0.23050831503375251996 0.4527896156869115063 -0.30655141572260696803 -0.17158838009548463277 0.022084016085717944611 0.27373422094144406191 0.24592266016553634977 -0.073586527756196826178 -0.31736476779847377916 -0.27436439626006542403;0.1803772647713457189 0.28473458091249770341 -0.19936137096703926419 -0.035882412894299449413 -0.50245599679777597224 0.13706877849321322249 -0.22892370057693434138 -0.48460337417668875037 -0.1133897937623798563 0.19752183025591574239 0.39093213349814526225 -0.018323860012355364102 -0.58974537863020526363 -0.12212715974129034757 0.24284970597907382106 0.48466020921548375044 -0.35404918288495262901 -0.15586453622676194053 0.093005618006496551531 -0.20844848414860867036 -0.33598666524576475956 0.22309323378928958004 -0.22064368971519646156 -0.47951014787073420464 0.026752963416004475056 -0.13028671735765234851 0.4167112622597774485 0.13119775089238547294 0.18131857282954552679 -0.10631448997322481831 -0.044666690804933878445 -0.24619630641689443928;-0.095620534890721725629 -0.2847144805227830866 -0.23029701218270276497 -0.17553696015911637862 -0.070484902491510917355 0.32180292576494312629 0.30713409398401730899 -0.23145400256344578205 0.15721311641142185489 -0.078637447165782581315 0.29319877386683845799 -0.24863782190690666973 -0.39192940297267464533 0.38375638683954693686 0.31508360528688078572 -0.13544392944837238546 -0.34954521230733726078 -0.38331482602596717024 -0.37467879170545265177 -0.37418450433722588722 -0.4276920120113912871 -0.33300984850796760961 -0.011129645548136196664 -0.33695035581533044899 -0.34773868069345348353 0.30148696955908799167 0.076249234744650354334 0.41524688520606733988 0.015391961322524952069 0.22784289743610794399 0.014738914228465956752 0.33197083420482348393;-0.22290204891511811169 -0.14452342948683968848 -0.11875093205906274429 0.44144702934893864654 0.080596383903718191166 -0.178373185104726939 -0.1289744370211372837 0.00046210510542952457514 -0.065892567009671096367 0.45481429823614316632 0.17948228189074658112 -0.3861215158534684333 -0.41488575432728730386 0.04840089486488521886 0.25394968339363194199 0.37729242689384329124 -0.26851558918061085857 -0.33237562524359809402 0.28931332911218449189 -0.2984127650726969283 -0.23212099550693116035 0.17097458870140366805 -0.37103328476744362741 0.086991895345056691191 0.36860216195065836908 0.2433205484342411129 -0.19814174296169553835 -0.13555036279143953259 0.38160637562017157842 0.28703663294988734922 -0.43160282377145969823 -0.42693604952413471976;0.27128624066626205735 -0.040158261117746854585 0.12695843344292886967 0.058148890890699383993 -0.23692735881743137716 0.36971140700221744035 0.15713190401595172885 -0.35462077226384186579 0.0089680266477173472411 -0.12259159744090213084 0.4432681745302019527 0.4229788780353391231 -0.25999618824514891813 -0.25763862080276489497 0.20471939703987665493 -0.4837347502895996687 -0.11038361779858005263 0.42702659447409679894 -0.46816585951032424484 0.23369336018057176863 -0.20476312442421099047 0.16402285711039454874 -0.41760161487367863931 0.3360950686513147212 0.2403826044151898822 0.028088753248974508703 0.36542509080724971948 -0.089626942770555134699 0.055185025529295467228 0.20407968185680733231 -0.40523976091512187159 -0.26799934940320874199;-0.28178978932418408121 -0.085639190800209707977 -0.065407917208157959066 -0.44934466869939737599 0.18123916150460034347 0.41850453638893242436 -0.37285936999505120415 0.19243089403404925464 0.36123788347069352156 -0.3919223865438726806 -0.32496661484241567974 0.30990039587319390124 -0.4389739898377401639 -0.47421149689868963284 0.30746707979912718534 -0.032282838881354435079 -0.022540444864759808657 0.16073401857649083357 0.28789836070088165032 0.46139747466367281303 0.24110161506043767399 0.014683641848278661604 -0.033539977437290882656 -0.22360961103333765188 -0.07261202516041015409 -0.42853091264923542925 0.10974997920689637254 0.30996363160948303683 0.13564286672267783507 -0.20007191611935831732 -0.15059213264568521717 -0.226807965042248455;0.19425975443125440001 0.25843734479603008847 0.34043304619778402831 0.0067848852155742876355 -0.36079243490969004071 -0.32414404637733307268 0.060909307853439925706 0.12063295192066358918 0.28659262267252971768 0.44720974031220173117 -0.10446017443512398137 -0.3162788628429786808 0.28388908124024236912 -0.3057894875922034239 0.23609831678438197855 -0.2777593744129746578 -0.46523951170782212872 0.3312796159325229195 0.30586299325974075636 0.076138384443721937589 0.46990121610397572738 0.37781175704457087283 0.032869794349204589645 0.33380780952000560502 -0.4390031000753073509 0.13452178835567371595 0.031618108615662443572 0.087774792506070967169 -0.31346271753128868154 -0.23098250275665282993 0.2711259880209861417 0.12270222374379467778;0.085098868335066982227 0.37986287946964131246 0.078165879502125598655 -0.06726642467405606618 -0.4479327395152763458 -0.41304576353120669996 -0.37374765408505283837 -0.062031324933272853628 -0.35471962325623329626 0.46734221719758978209 -0.29997898724145055649 -0.032430695460273335773 -0.36419871072379439436 0.40952342987185186285 -0.39920237482772541471 0.067711972083156615754 -0.43918998698752870213 0.34736380270546945992 0.015845815940775182656 0.21094968462481730742 0.14002952422040743086 -0.17238556980057026524 -0.29945451733992861643 -0.40966530275503321157 -0.018843770703551712686 -0.2089271102441112582 -0.074681359070785255372 0.15160458490506234508 -0.22564907417217994201 -0.27910383621535611587 -0.044738727979707550164 0.30805274974659274667;0.27205537123677514533 0.15859190012686544269 -0.17600053135864526799 -0.098479716190611285564 0.2589199677338440142 -0.5352534047185137922 -0.32061232134549716433 0.36456394669920433316 0.18065565667176380904 0.56444783098556305934 0.008793287299760329731 0.13065937190998663797 0.56600388257534794967 -0.21126178141071613736 0.062004458535422954379 0.041350185822583963857 0.17264800479535358235 0.071159932944941634014 -0.31343228347347057428 -0.082575399991618406159 0.31689749110787923669 0.19777916100607109695 -0.17799249623998539271 0.19607558572175393108 0.47376440315485601751 0.017513347771652410662 0.37461521771548556003 -0.11113392810272280931 0.15035391882876247838 0.36878909857173558517 0.3222688041804779302 0.29070999963493809881;0.13028120465986170462 -0.16744677212612471551 -0.45861157761771209618 -0.43099088393226059335 -0.090572737841370209999 -0.050021481859948577209 -0.43150451230148428872 -0.039628923175744158736 0.38335178234018890686 0.13544478527881420593 -0.22236706009638990134 -0.063362507679623855661 0.16425801758354285909 0.31723474318911754066 -0.0043330278976329954232 0.44274133867584253288 -0.45706688579615778467 0.26913331437687293413 -0.047667706002036035196 -0.14512050080549818154 0.28814646609898592056 0.42635937134668422388 0.22706438630036959725 -0.19659022965526046223 0.37835868650633752708 -0.17910521449787797366 -0.1621253672245426547 -0.37626303340141709075 0.44093880801779183898 -0.27330605650366751602 -0.14511920803076816533 -0.25784832053426204324;-0.22334536403611951472 -0.3420156862194044245 0.051199722732544902803 0.31837184252725381217 0.39819704675786565806 -0.016959230242379479819 0.36676525980101082336 -0.14211188590301951362 0.30419086136140494059 -0.082959772042481227938 -0.067679881195500002367 0.22967436768819415871 -0.057338751976217530726 0.16011105579580200975 -0.15491145361627253751 -0.36014491718813013144 -0.45395168652731310299 0.15998366100416563929 -0.015328457283729723937 -0.025872114896390043665 -0.23873408886100894177 0.28909960884220847754 -0.34775127618104184624 -0.088495450608421621919 0.39710978637687305293 -0.025830660782169855005 0.44133728388434434464 -0.39789503463621184176 0.31013539471942358494 -0.44107844822356967462 -0.31722802149023798801 -0.45825420842798975096;0.37046679939696935957 0.11293245404281204713 -0.3847709037942716459 0.091791424584141009801 -0.23194189995858965903 0.27159822391360688432 -0.40284357196561448866 -0.13742660921797850149 -0.20940575560971971814 -0.12534815239013313848 -0.43442948790773289192 -0.18682995624865522677 0.11167462989669910134 -0.071689902020337981092 -0.4105385708925179955 0.15982912333177479169 0.18503909248321095959 -0.4335365113722844943 0.45257102775423041496 0.075522730347183431032 -0.28798440308950973288 0.045218641579274507225 0.36153549206176122111 -0.35567482077193890433 0.13623831416857168364 -0.39615916093889291805 -0.4831329186311882351 0.10009665858690139362 -0.23862111011160588858 0.23380566293567134339 -0.30142144900074729907 -0.17146162654307423034;0.13368752596890251527 0.30696037654331759237 0.21319940589664004849 -0.33121173220615734989 -0.36835314469423258155 -0.31265784171152155579 -0.45514457650143380629 0.4431871055525273273 0.27635110838128662536 0.0214999051213447534 0.32701488115694099523 -0.42318499627024613874 0.36211051192633514351 0.41509257404186145068 -0.12904961883496685049 0.060601773605252158561 0.2222169440169535215 -0.043713861571210647916 0.28727084055171636656 0.063188583134865347612 0.36932919108581219181 -0.2518812109018419565 0.40703255790862363783 0.060132692089583758555 -0.12605161907337450455 -0.008861017042547275277 0.074856338996764484883 0.35755304260244463732 0.22015388592361412323 0.098753963452679102697 -0.42340158302937314083 0.23907089506074885588;-0.39294574270136345406 0.035354748394423089752 0.17301042340786437768 0.24761888867736553399 -0.4660472975503399673 -0.44312846132899924578 -0.36167682991447419605 0.021856615010639120905 0.20187003145583518049 0.46133012659108246778 0.35463783865467024548 -0.073241640528044660297 0.27257176248292253051 -0.28255017774908730566 0.26049600340412731869 0.10781922874212647445 0.2085351640190049316 -0.41485383453253366071 -0.074376350763123447174 -0.13918630013834298875 0.36217422550635691714 0.20009562135559069707 0.19997956315257969795 0.44818673112794826796 0.11912735180884670427 -0.40529569772863710542 0.006700622271870921437 0.095607021808655864858 -0.33869148329430448507 -0.046714037417269801966 -0.37129871421599619508 -0.19139058768627817408;0.27447252292229973314 -0.07240214990756535518 0.32911932370362689815 -0.3948324791901863251 0.038310633130822252523 -0.34396417279639784903 0.13468484876873118572 -0.48367360291965866281 -0.28203039474072766346 -0.50015208935616495278 -0.075418414647102735571 -0.30884463680242457695 0.25773163441596236289 -0.12549001439129600644 0.45044134656969814223 0.22709548806551144162 -0.22214435020358955231 -0.23988893909348604772 -0.013775587137981973665 0.26983287559487162399 -0.34003178971430236821 0.28283643488700505042 -0.051624582357884293837 0.39390957421974026609 0.14775203678713799693 -0.42494141645039340549 0.003115210141600688841 -0.18114735333485773583 -0.26760595446193419233 0.16053026044639881476 0.37929739127844908086 0.22134592653694973308;0.22327935917747904204 0.30991385836443463564 -0.44037757281108119711 -0.14822961686290550554 -0.053642888039725604432 0.33011047519213509993 -0.41552075383414460719 -0.0070039013580393558525 -0.040266253077691556428 0.43097039239883172534 -0.31315215899152254453 -0.10256611035811126487 0.40633229007411758582 -0.023017455592122940122 0.24663457657207119023 0.36914330556886537638 0.24784848690077815325 0.17518961508303459995 -0.049062677653769641573 -0.22292982875365363604 0.23760560501337563144 -0.12981654297944078547 0.12302890496235234508 0.029182070768700527769 0.36146313634719390295 -0.4343208114895049099 -0.44031781496019695155 0.11468174130067687599 0.43431939526127760764 0.31725355396324222967 0.21610767873652630966 0.37348477037190952466;-0.22171330228527535988 0.26255645982952374728 -0.31606376387099532899 -0.36802911879258554118 0.40587683905988702904 0.28940513778335358319 0.25465080210701440677 -0.22858832566891920668 0.20784752634767711399 0.20936524203636208696 -0.36666289212749325621 -0.2094942667277148729 0.14852564318208824612 -0.29151763685845571983 -0.38402991432347305389 0.25800289382643115665 -0.10103291996936279717 0.035407513621522689051 0.074653605394299049625 -0.095461417400864126415 -0.30192018135038151128 -0.21257412609620698896 -0.40443103352792159066 -0.38818620382111129752 0.29097485280736162805 0.11923610276134828656 -0.35814657243897551897 0.046877242473558386471 0.37469717986653205966 -0.45522788085878490572 0.087146222119435429176 0.41416411899068156233;0.16346252560889812377 0.091201145753980986108 0.44629714469422426815 -0.10289976225822067279 0.1654414882973589962 0.48882406589849175527 -0.22897782761040216815 0.24689493134594742152 -0.09930686983464538653 -0.13849941292967377082 -0.25169622746516950862 -0.4303674852783272442 -0.40489065348959918378 -0.14143778031266177053 -0.32043924889664576749 0.3227076580084042301 -0.008270804934930852878 0.0089362729718083597913 -0.33772988932344988333 -0.30618162949704103015 -0.17832113799477408711 -0.47874688961204336923 -0.392299184711873139 -0.11366848245268229567 -0.3934308520205519466 0.11234307187941140749 -0.14264204997333579383 0.36429543330771246845 -0.44760114095720010541 0.083807970375525453477 0.0099724386460194134468 0.28585563001155667173;-0.21801273990064534702 0.26127513798745094498 -0.028839145996247147336 -0.071362850841551903058 0.27383507191060002528 0.050251309416904060834 0.46831070896538673498 0.43657627363893375394 0.24810385928373815401 -0.28099548832813792121 -0.078080007877984788922 -0.47599911951807022392 -0.17526253034776764772 -0.2943911263793871913 -0.15634363796773531607 -0.14132728282813322718 0.23024477682556412916 -0.17935253257352501421 -0.15582620594880577936 0.16857294756718091411 0.31199947367913483109 -0.53209773274131955123 -0.36413735680548986462 0.10807673900185500726 -0.48122543127477701574 -0.026521167361521200134 -0.50800642330071577035 0.16805549036187544809 0.16068581967154008106 -0.16032390876874244579 0.3838631256052241203 0.11799670896719889612;-0.31069144131212411697 0.39645006711521574294 -0.022181090649094417633 -0.23483367269575400327 0.00065426578076337269397 0.36413992588255561511 0.34507641190245658125 0.030927751079391382211 0.46563176755952262464 0.0086817680989031142946 -0.028720159378914707216 0.38088842282815271734 0.18407170040534448496 -0.18975066008066990286 -0.28613592545645588627 -0.39525458276301322913 -0.088408144153404449872 0.39197387678133743805 0.38097057270402323592 0.054427960388069220043 0.15474503588031715551 0.11101465538301720504 0.44132403350901233674 0.29034842173111463648 -0.43188675935263676209 0.047421199308282382945 0.17992883483786592524 0.23743210762333843977 -0.12427714710264965714 0.45453253713486824195 -0.089761723208194768575 0.42464059515748547868;-0.22764837616909985862 -0.029378202736772503212 -0.31525058306106451544 0.18556649749834364105 -0.16347855113718801068 0.39173604133482131662 0.26870396577412258843 -0.43445839942600134043 0.46660136726111162142 0.33205045898951812688 -0.27725397661767015034 -0.066359911053248898938 -0.4896784230528566928 0.11155188088880536867 0.46991650928356121231 0.14646385630073160966 0.43902444962302211717 0.39944218213450177757 0.049987869566394782517 -0.21149111526561450991 0.31372823187008735957 0.0044751142236391433168 -0.3506494362415621957 0.18541486524874364883 0.22230814973534690493 -0.32194395912927553649 -0.13341380755905063449 -0.32397010626309130643 -0.0083186979680518798735 0.055919485269696755925 0.2548264330926174881 -0.11404806459393131146;-0.38960690994021801581 -0.19405917168050140775 -0.55680507150206581812 0.44210547947309841721 -0.37621244268584241865 -0.33825862013295071584 0.43399662006024786187 -0.33419353926301487157 -0.28402986753654307917 0.21593850271642825445 -0.015608272954316784742 0.066966659611527062923 0.41286969761059311157 -0.16493660645946281451 0.11211401997653816509 0.044592423856147679617 0.13732072408251200235 -0.22843786272033322904 0.14562707426940188493 -0.21116594561090862303 0.20096183604611336793 -0.27167069430396484364 0.12641431505201441987 0.32738898706062663502 -0.070351653251361750963 0.25625562015430736196 -0.24160830153770293527 0.30743625248216843726 -0.11359433527387531593 -0.38335098398161038258 -0.32312470928217290611 -0.29545971531194353821;0.13500869101785858972 0.40687095512742538217 -0.24391457655042123043 -0.080256892503195398358 -0.1924404576938991418 -0.33662434053839312975 0.4459469979174640053 0.3795093615412560295 -0.11004480288910252483 0.31166568891908874583 0.41439715014672395821 -0.42057491424046822281 -0.17230510068213220065 -0.31531451612528843542 -0.21046722321357513863 0.30998639182015308435 -0.12195207673739395793 0.052628614678710307351 0.035382373212392431716 -0.44181373434052534366 -0.45113459415079981696 -0.28567925834795354634 -0.37782395905461874097 0.11868883997535281671 0.24537552723143127298 -0.0096278257460453101763 -0.32202843612479237212 0.15992814504622909766 -0.16339592586325638046 0.069095454079065921071 0.0075293428410167940329 -0.43939415258295005939;-0.10423027516039855278 -0.22990062902912555831 0.11582907176163842466 -0.38501756405133863437 0.42978527492274881672 -0.32321373142680193125 -0.19299606199523589023 -0.23784276061605258423 -0.21468033787237905674 -0.3501683229246089768 0.20696084049573021391 0.35124736215920021598 0.20080076473466695886 -0.17539206681739494265 -0.13494642705608114741 -0.43074815234236540906 -0.24064518916762739353 0.38944647944426286079 0.28129137483322064206 -0.3214726032543697154 -0.13766042942329881349 0.41880185569146016755 0.43387444542058611896 0.057327844906721651952 -0.37884651087828391525 -0.18101600254469263351 -0.17589126648041419898 -0.031028670512912897433 0.15703033947626401923 0.31131699309947430399 0.3008354524635924454 0.34910968302769473937;-0.030488767341297601243 -0.041208007171833274662 0.21826475025098682203 -0.19930511721995039509 0.096015400497834760274 0.13639626592440792785 -0.43868405720126590897 0.43016806894236941927 0.36814052995020207781 0.47180774776163403317 -0.220006731622682139 -0.27007796549965629174 0.35241334737419793832 -0.37218849409096199654 0.18954654133065385047 -0.35732526755103971583 -0.41154985852100123278 0.20523341139902528951 -0.25958682019813672515 0.018350929755879184097 -0.4397752495655722349 0.18420961917117456563 0.40804140540842853691 0.061280733118607010057 -0.032415370674665905382 -0.24392145063498368862 -0.2548023408508320875 0.38026964966370663257 -0.13864660421765917508 -0.064604480852536644298 0.29356693432288760714 0.29862577666398087972;0.077039533324362294286 -0.43768358857647177151 0.1732247160323392432 -0.33871333053678320812 -0.35963899593548820377 -0.41174263872647681728 -0.19886847488281236829 0.29185707058556231708 -0.23660213060521567696 -0.16531962719004392182 0.20555757406088662198 0.13929694212018700616 -0.33145995265070971048 0.28697207066187380153 -0.41946480199951857726 0.34952311409826741784 -0.076516081507803507256 -0.30952172331584359988 -0.051358389908815957337 0.34670734161824107167 -0.415889830520620285 -0.41189009659896336224 -0.23292496142672988735 0.16778647453200937201 -0.023913949667525708637 -0.43084499257450303844 0.0013072574994853968736 0.33358431224781681657 -0.1375392862630799018 0.12611321701896349712 -0.39520251024623920255 0.10680942803859112822;0.34700816420874897039 -0.14183489070855115344 0.21946659475401836259 0.18440286122038582195 0.073049126162090791126 -0.24135956546155404312 0.11137360316467265209 0.36619557691424409196 -0.095919197541447856481 -0.069689206486402088814 -0.074310115940212473351 -0.45336698035786432426 0.11291309985976262509 0.12109702785903939115 -0.04332902614474160724 -0.45822201705099607771 -0.50495112904707240009 -0.23369791924571811648 -0.48517780634778706617 0.34321966941293968745 0.16443402973038773185 0.28515065527844934978 -0.46634944675936534919 -0.37518986260824976897 0.067785442216865707254 0.11080585562659625576 -0.35024076286144689707 -0.063759694128198096674 -0.089677698552123513709 -0.17464010966751092324 -0.30470404980012938401 -0.48850904723306265431;0.47538087460283590113 0.0650320500958012776 0.31099222936389503413 -0.075318677634388875308 -0.06148657561525557036 -0.38670565452058419664 -0.10403820167243946204 0.16456171731306643014 0.1048504337848930601 0.46158623022470657293 0.2807085075134079788 -0.41484074335497800323 -0.44890181943214496618 0.023306660836825462968 -0.14969419580601336928 -0.15258769042449327191 0.03265413136918110526 -0.31061781357537171511 0.45948314272748519427 -0.32068315461805985134 -0.092675180830601069926 0.44238492810825935653 0.18096461621634837846 -0.37825353589721472103 -0.38628118433391611664 -0.24075042044391364859 -0.057883049051903202875 -0.26362406902123824981 -0.39866366601039876505 0.17059610920649773136 0.0050145526091743544347 -0.19568517061794571399;0.25649616487406468046 -0.051645040465678984654 -0.30093231158031064076 -0.14095828499525497879 -0.043291554936494149042 0.35117171088658633016 -0.24405345419866827927 0.47954327069162189234 0.08164191750174018547 -0.44775403575575378756 0.22277733273677244319 0.43340074257790683898 0.030968950573524219733 0.49671564839968107563 -0.44063594067569700208 0.31763120419628665392 -0.20828492114118535294 -0.01221097250600672833 0.042194520952541295089 0.27446673340391031237 0.1982748527560210805 0.18944713753159656 -0.12099452905931060154 -0.24277354837894032924 -0.03166136408654324913 0.42148218298493766998 0.37506234065182486592 0.1829059923622443351 -0.38699666559417139622 0.15824772941717243913 0.17802845764431410314 -0.36024606486262167326;-0.0073348308431757667028 -0.46233973677832118643 -0.4664182937341949664 0.078190754340524637467 0.05040422529228433951 0.32297579941143367277 0.11669114799735655352 -0.15007297249831208497 -0.29358708772757696748 0.34932780689340270364 -0.46889782713360173005 -0.10979497842605971669 0.243200737300205444 0.06446163136632880597 -0.12677425869551270377 -0.23458795541970164922 0.2531891372739740742 0.25563918709899813297 0.19716806749425649925 0.0026802733233171082729 0.1056854531858030799 -0.29733446211044123331 0.26346062890387139666 -0.29602599159342934954 -0.41311385723575488882 -0.31375327345753484254 -0.41942028304662176685 -0.398642611758111165 -0.17312601419592801855 0.39039358620350184115 0.40776263985313271343 0.064638137314377758225;0.3780119085808773538 -0.33002234195187696297 0.037172071357184532925 -0.32520510479876385546 0.028174592638514611015 0.15904974030945434604 0.15203415830021876909 0.21628734296497559297 0.15823707461934102825 -0.22480602793898049607 -0.3060265860306266017 0.44625801862896230521 -0.40269233406012089338 0.23243055878243304435 -0.46163301727394728813 0.40164624546854454934 -0.42114627010405536467 -0.01545009187508048637 -0.15225379557890658666 -0.054515187310586452063 -0.2670301221102424627 0.19609037641133250651 -0.086148058162659815751 -0.047919561944084344829 0.18718908730648392558 -0.21617038292346127393 -0.23890195289183507876 -0.43327384677698366211 0.32911590843135080098 -0.31587103487551110303 -0.3104187507365130938 -0.41303296730722316443;-0.11943779049567240791 -0.33739147952690606846 -0.31765618064916811836 -0.4252438617889998107 0.19521350776819471062 -0.37244072715109033389 -0.3164889004249741844 -0.28651989160427071557 -0.0033138908968969467937 0.11705372478086917276 -0.15794691707162691885 -0.29659777320302727066 0.35375513875040487388 0.41025635814343242025 0.33228498477842260961 0.22876692740055720732 -0.19718795795601679055 0.22456983688061682436 -0.10264210486753128082 0.051586912448356468663 0.049336394393460998586 -0.41271009985003737075 -0.35524205132715336308 0.13556403698020758064 0.10298803191622164788 -0.41821703101961971161 -0.22360726590072835251 0.23855932601225782186 0.41243846957147745069 -0.43928422871287314821 -0.28528697703495353721 0.17896278533526771559;-0.1014320706500474456 -0.18003669073331585171 -0.38307878165307129859 -0.2959413110721048068 0.26467205881408728541 0.31226569856621810839 0.28514944825274196605 -0.23462131931432411713 0.41307748197477012209 0.27138602710926762462 -0.13927154846920167253 -0.059759721144069848087 0.064065692624630854457 0.3114868264549792154 0.20528258074577834802 -0.3877739281936126714 0.031425086278844452381 -0.37653409624003897349 -0.11572618178362663321 0.35584943426063547767 0.3431059334443469222 -0.15878172511407778744 -0.2328932518023707765 0.40165141599462533817 -0.36418030102142251447 0.4245927981424238995 -0.13039342435960155075 -0.35493106118634848434 0.2408051341378582566 0.35577959636082923112 -0.21490682389682805309 -0.26834022466103196747;0.41959352847453113 0.46782695777530636239 0.22631232972025919215 0.26191015876936241114 -0.37226365441473663331 -0.27315052802675293675 -0.25564530150254616281 -0.025767970524680425259 0.20671444887943718483 0.33964621817752188582 -0.33063141047650501658 0.0056261270822977041059 0.25714868922223671488 -0.052776786214697030131 -0.19278073530028125293 -0.22592286684545104247 -0.40363596317741734509 0.47279985566093740701 0.12363008736386330022 -0.35377800985085317009 -0.083578841061495032227 0.13162556696555804958 -0.39455202813809503448 -0.34763836191943980891 0.23480066859058099094 -0.048451959687201534566 -0.032670249501468608122 0.24046725922337283676 -0.42565523808229210889 0.1214703492634244264 -0.14013959634419276279 0.4014531075184292197;-0.37957278431594171364 0.10815011601343228753 0.18565946412217240735 -0.26771050641770610667 0.46421948586044925467 -0.20394581244125659092 0.12030817589264539147 -0.18068502224355945107 0.13304779109779621415 -0.21908249899223342094 0.1242179008718209271 -0.51164066885057390976 -0.24015458614032864082 -0.089772104194650370612 -0.33953568001919526287 0.51306693385495727444 -0.047542344217198051481 -0.25059621172226770325 0.30584549552418510698 -0.37095503873109331172 -0.26063888390790479477 0.0018250999317157006342 -0.31125277296082448641 -0.015940396086022025346 0.086982140463269477793 0.020589476849003453263 -0.51722765832119332874 -0.017551857005962276381 -0.39410191585267656533 0.24935870965898110363 0.45258452802633919454 -0.16589349015220650196;-0.28209717774436965376 0.33818611077413573973 0.27219621223028889201 -0.34033108442797027626 -0.035343555610099879061 -0.055386726567929006615 -0.12159551014386302259 -0.4475493579866209326 -0.35663486928981585899 -0.38738518078717754101 -0.366761550261507141 0.22099292534389319842 0.17627550948637721318 0.2076277147708166515 0.12497008134178252958 -0.20066411490127397665 -0.023910033088292571846 0.33508768519726322976 -0.46423585345001228131 -0.23906816345728398865 0.40696627882209990279 0.07957035199240948542 0.0073535963456733263385 -0.18527001514897664669 0.41206135279068273336 -0.039493777727043051506 -0.21198070313767669592 -0.46110156091578230475 -0.29951330073624071737 0.40369199014656576008 -0.27234022638988814036 -0.068484680648217055587;0.37681193509362376215 -0.45135637035933806605 0.27007223419291254141 -0.15432312327895369997 -0.25697911814437168765 -0.22038959895745324769 0.47837724165006900723 -0.34685851107503867796 0.3505338094770186208 -0.1999948934460674399 -0.32206638808686133268 -0.45017579236712451651 0.30223375834530669115 -0.067478575951877770023 0.39945390698163057985 -0.50514086845791761338 0.039610878825628095812 0.032211630020888365467 -0.13548868932306412649 0.11433968323312515558 -0.24431401725894960619 -0.12860634500116274737 0.32829190120540130415 -0.14634084179791945202 0.11792949050221132601 0.15303979738307846303 0.057506725241757442046 0.39831284601434735482 0.15831239358504581305 0.1663834117872701468 -0.31002068514822916923 0.24633118809361614909;-0.13899338575571101861 -0.26594688971126734245 0.2217560575851965643 -0.43513096697471032037 0.021665469564734557428 -0.16670043315306098952 -0.40467835873565916049 0.27488416139647570136 -0.15656625179536190484 0.25086738400709501784 -0.44529355031871409309 -0.44979068776671587981 0.079241163884377657789 -0.2902577795274502992 0.33773835626734821647 0.1816905075696811922 -0.12297983709908420769 0.032285417786219391956 -0.32832313353252090549 0.45694167386743644865 -0.30914042688738985198 0.060674079981188198951 -0.24983253689455031665 -0.30216700992530304282 0.30153985517842590847 -0.04550389698773379954 0.22632825816345586434 0.067102396057282881481 -0.47091654493890222621 -0.015630062560402877003 0.46783348627132920194 -0.21461620140805809376;-0.2937361934061211155 -0.44832739715145125681 -0.036734217883432451757 0.41710840234567059248 0.027152632419225511407 0.34028733847607706142 0.084040777226471352623 0.38629698998531336596 -0.22838019233059905777 0.33329216535424782686 -0.34624369116577363714 0.34325121788293705416 0.17322961137079354033 -0.052139133863942567493 0.010088769875170447432 0.30315762757513131653 0.34308885308323588959 0.047910079374229308513 0.47536189378327070587 -0.14409723567929400012 0.10602767961819013764 0.42413188873530138778 0.22604483142429826481 -0.19016583971413750231 -0.35545909810151354868 -0.38733842599129708617 -0.32158242141747472864 -0.34505233869703394456 -0.19943498787836427821 0.12452766016325832188 -0.062215032324820639109 -0.28680368986142706911;0.36765882880523131915 0.4983878451473556237 -0.0056548527770388440014 -0.32438517094741636804 0.24030202422939017648 -0.0055705321582930405686 -0.14598245471117476946 0.29517646307006417672 -0.21522155199854658969 0.20733361737181446594 -0.49166437201786933331 -0.090023938558624325146 0.35164278671189408421 0.01587128713358790244 -0.1482943335928085804 -0.15521349144593130087 -0.15179357105875945777 0.1953301146901923746 0.05068223324442272526 0.38158734157408796817 0.2165240198117328041 0.20962818852457873464 -0.073135134783290867144 0.43362979723505234997 0.19198170745628950762 -0.16171280331762730165 -0.35674634078025602157 -0.47419583129128395349 -0.29406152305779886813 0.28182343545884364078 0.23133061151138911704 -0.49782284483453559387;-0.30635225165813095849 0.38588610192621031203 -0.0010668960711302721486 -0.27526977530926183269 0.40972191560246473685 -0.3244775428189580202 -0.32893903190251050361 -0.089602857594619264581 0.14648905798638892084 0.19554065257867134231 0.3883154583289484818 -0.025029694027905297765 -0.085446578418393953624 0.082394319435465324108 -0.3773802639936494896 0.31164782952737479782 0.24384862526719566778 -0.081141085820667022133 -0.42542490251409148527 -0.41040326119816872286 -0.24090083976791731857 0.28815790095084325984 -0.20084016201353588338 0.43995875563979919276 0.24530475012392999323 0.4088119892039082659 0.26266838519263790985 0.16032243942655505231 -0.22694471530256529745 0.10133407243025244204 0.37808847024906749867 -0.22967566630868699318;0.45922721416281908624 -0.11156306170529492472 0.01111685164117356267 0.1668400501746162834 0.094807959781686643175 0.18632506518420696717 0.18875632194567812383 -0.31275808157678741672 0.46637960697217828443 -0.48552663937557616336 -0.2212889476955784418 0.27787108668211313312 -0.35332553891055878958 0.093947105917422751853 -0.43453106480027869907 0.1813440928743846603 0.41741882482142539379 0.36212940637883195283 0.24749879199253313478 0.45804994414869310004 -0.09317747002861870298 0.018246023998196091859 0.20277900113628152812 0.27712716245720503405 0.31858127848438444474 0.13175323818912956786 -0.30522045167947026156 0.25411827887407456572 0.40107994327438267756 0.07150040226078104022 -0.067826655538015409586 0.16948707394307899188;-0.10248702270792584001 -0.075505652103071863035 -0.088150710817368860273 -0.036402692590792762317 0.51923097268029416718 -0.0017652421325020999868 -0.31372825720506863911 0.47861698072403241477 -0.08944236682076478484 -0.016995095373500145736 0.32898243344416627787 0.26827897493181485089 0.44994862306025151799 0.088844230536276949661 0.39930669854383421535 -0.40323784649424843085 0.20962462982866239547 0.1276312334134813431 0.25525680162852260047 -0.48583436584750427922 0.1752008196432084941 0.12073419098043296216 -0.3409171929507754939 -0.45850082531258645746 0.050152417974052905525 -0.18966982921619926494 0.062514660875317332178 -0.19302457853650578645 -0.37591298011133073009 -0.18090720197089904531 0.34319411758025136772 -0.3099214260098830942;0.32676680713281763824 0.016988999095988960991 0.45981823537992089213 0.39010286836873558913 0.17320585316141406951 0.0074337694814088344647 -0.14094350234112063003 -0.04393496648667531701 -0.33393898265501648082 -0.12508844695741086483 -0.50843428548712676918 -0.28929915217290752549 0.40085278288437042882 0.4013641488468037144 0.023697547784750899041 0.16085958337249042782 -0.27188487484317114262 0.46785928164256124218 0.059363680381405145581 -0.034029089337699623685 0.12732031817741987223 -0.34431532854824870027 -0.35384825979638750981 -0.29985554331837366293 0.16138887012505287455 -0.070324025293133890502 0.10633855470467031001 0.42755288740197822106 -0.25866668477172671814 -0.26342425992425039238 -0.29103098754235795509 -0.32620439172405329975;-0.20218736592268957142 0.31883847161055151043 -0.031108063515975694496 -0.17609860832581772372 -0.4311474701847176072 0.17924578051943745871 0.052678846268222535854 -0.19633337131703390566 0.036178387661108452056 0.32082216007518910006 -0.21161221068642549481 -0.43398182559294451455 0.02727505787823098285 0.13545768127847729323 0.42040790969081864858 -0.42252977584650852627 -0.15207882869525510272 0.25343982121940755725 -0.46603516241142101117 0.11990096260870788947 -0.067325956509253256921 -0.39053743997105339059 0.059339532552724505443 -0.27733699413799978162 -0.42212188967926461691 -0.12262096806138461647 -0.36005767600989857513 0.27861411081227394071 0.159526782070576717 0.39316879679561089755 0.3032943445489252321 -0.41116939969941251887;0.15527116295590237538 0.32533586311143519731 -0.10074513259405856735 0.0030912349045437276761 -0.34237423599103911087 0.2608170957302519688 0.083232609513383348787 -0.20699762470606103415 -0.35982179754160226182 0.24351790231174438861 -0.19770181925367896758 -0.11796535210686238948 0.35550805693220377535 -0.20828316903192342635 0.33624467551718012492 0.3530456170845823749 0.42131403202884798453 -0.26371529007044852699 -0.18157924030441743857 -0.022300281379710962248 0.28668336717408293701 -0.25206268762633493585 0.44909250270334122312 0.1098043748095535177 0.42615949744581710368 -0.41088164795241133298 0.085003784248190689121 -0.44624410614412202136 0.40325109644319834246 -0.11381363229860033681 -0.37597989339024678879 -0.07453302769463958366;0.17855355044987900048 -0.16008409515624655306 0.43590632638347415195 -0.31440401794185535156 -0.41632903386083330854 -0.43336368306765926661 0.047914409195117940721 0.024249814769743804899 0.45764232552411482358 -0.41942731330573002069 -0.22552318239735114069 -0.15895674205974691384 -0.1526695154532655696 -0.12792515405696358588 0.24157957854298281464 0.13551635708048354045 0.25827416966435989831 0.13375880013413374292 0.012916126512566341797 -0.37589155449189631808 -0.37959439966685204482 -0.21049639521107627038 -0.39966685966447840217 -0.26889965002518678716 0.47382280754486455487 0.12673053959327393314 -0.17176622083947687414 -0.21672895821589055476 0.20559418437555726511 -0.19612822550077554928 0.46081289003116326919 -0.034016082046215395662;0.023066065375401303972 -0.023962163905507056355 -0.452368234516444645 -0.23387524282245805707 -0.17117356929896931916 -0.33813917907842938604 -0.1173590993777931385 0.20652661177701731043 -0.18016140616103526462 0.1062781949919023583 -0.11395413756044159292 0.46362965815465789765 -0.42411133068881923247 -0.47737934039052731805 0.36383913221866986953 0.22647400578388671155 0.38761561158620561063 0.023916808120918696401 -0.23817618723682559834 -0.13759535702295572213 -0.45173960246638567018 0.067005137362806957424 -0.12915708773958334277 0.25011997479339526107 0.35912119322835533985 -0.35406654075694188322 -0.28791486444564817759 0.44447749938930325442 0.10573044910136510099 -0.043247528911766482118 -0.37575950960758336405 0.11568022452318349469;0.16472253779599330126 -0.3570159822671350458 -0.0074892482661204151997 -0.10654003855915121501 -0.26039084776069665317 -0.36910904863844823387 0.37921874284219875273 -0.38734087531515082325 0.17738572270018707067 0.23552210246863461429 -0.01515884769685269147 -0.053539676866516228149 0.011984304751318473892 -0.19668779976143463406 -0.40519439678680790884 0.48086153860008046257 -0.36409345938432302603 0.37878731146370020477 0.10094599811134305489 0.2534470073623480979 0.36446916957571395823 0.17995265653564260222 0.080648450159395396186 0.19322564045200682492 0.06957931514528285788 -0.36749473467502147273 0.44363096632907056405 -0.31452981989745332214 -0.23057726704923139915 -0.31281189235086998002 -0.4401136543286161551 0.055227165670767269789;-0.28515680325922065919 0.087613458996066720386 0.0051567651977423700077 -0.23814422682367802908 0.35068923655114125904 -0.3687150658816407689 -0.018227851639667214806 0.38678904742527570049 -0.38804488779607326787 -0.18778656250478792389 -0.3494044826902409917 0.34156092810058852338 -0.29256280676547186115 -0.32261736257056528032 0.13421454057700998863 -0.34348207876197084376 -0.27678319950185281684 0.31913104886138177196 -0.16422607348412956996 0.26805369354183405939 0.24184607488485493354 0.30085633427776292681 -0.37721782368399803254 0.38354074967996804046 0.24484374208019021868 0.38743360471796983724 0.1517702207774930534 0.18308885861625906477 0.35264652220211373246 0.27885869196546220206 -0.086542259876819058184 0.21143774802309509009;0.2357078294878789948 0.019904066209345063626 0.1230262876655595361 -0.17860963093689066761 0.086675912119721920668 0.44705980350720497807 0.23823733836471527869 0.17728764484085238196 -0.053183941751388880137 -0.50401614782011483484 0.43616915312461251863 0.31879652026668053866 -0.07470525874494825247 0.23843834292908222539 -0.090513881728945838612 -0.50295625732906001915 -0.3389131673685097379 0.0098074937221926793834 -0.22628369587380448014 -0.48513234108408992418 -0.12620865207169232325 0.29434156802517508211 -0.14932052756183072928 0.14254349736193724918 -0.020931586095624829524 -0.47219423060849063933 0.010321408125582140838 -0.46385441998354404181 -0.22200837307541612664 -0.40663869441419581152 -0.25307606916026104127 -0.081673251311275216202;0.54760147110116552671 0.46438375050327918014 -0.1684254695148554859 0.45434613714552818386 -0.0196836841079573166 -0.088455596821007953512 -0.081699825727606811832 -0.34007260686059231913 -0.060467542708498203674 -0.25310644026969847387 -0.012171135114360137272 0.037855024559426457553 -0.51161465232903302613 -0.049181868948668661101 0.33662656202354845902 0.43748063566821726589 -0.10536258982161245124 -0.017719794681177115231 0.34668293930360410959 -0.20041535193065931897 -0.12209295687867996461 -0.15858279764730989769 -0.36702455649763576773 -0.38365522200185103729 -0.46294139788535554336 -0.30040321610623316184 0.22066347546570735938 -0.1690022181843653104 0.17909511363950311735 0.021028406900710294031 0.0047954896019529345483 0.34239137481561043863;0.19372436370358206426 0.20437001189533701706 0.11586159204242679754 0.31849357084383012051 -0.28115199006993141229 0.23202573494420625222 -0.01694141519905696322 0.15781729644545161584 0.26011477795453852302 0.25193531904951782519 -0.41615725351102050844 0.37941818008759825576 0.31358239809378718466 0.10511078885642283209 0.23817263136731553486 0.28877489607588008313 -0.18976189279794031251 0.32791280040018649933 -0.048490299911941689426 -0.4652332269700370504 -0.28401672809262645814 -0.35509884392053941982 -0.1719508716967544093 0.3679868469351128546 0.37594321731765917294 -0.086551560368376453947 0.24816910253764451477 0.20516060873115868346 -0.31515634086843907768 0.27725396434900950737 -0.44699444099139912234 0.34748074798560707466;-0.38270361218175791285 -0.39395248884557676483 0.32838957017592651511 -0.30264969135110864062 -0.42558101913577539577 -0.027701786898398982756 0.019076164377264559491 0.084011512682798480944 -0.33862818200557270876 -0.1693878047337172843 0.084770978171462910145 0.28685725178331505925 0.14208344171621276053 -0.0041806000994161476511 -0.2690003604852262975 -0.035748054033148117525 0.38812175191969650045 -0.12178208053464228966 0.27412674238591350218 -0.42506726572138314735 0.061121011839992252235 0.16429785581650080406 0.045351893812029905884 0.27061398326889146704 -0.40360156231122956694 -0.39508232705037443777 -0.16417723579264961731 -0.43131088309586068652 0.36959990079340004909 0.40292203102304541273 0.40028475356999654311 0.06056782508625297573;-0.18852384726999105169 0.17451707488438261695 -0.27978327761139593077 0.27155080751794391514 -0.37060971019997029918 -0.0029819574415821761305 -0.44402781848013372912 -0.17493052802940878276 -0.23513039757152123799 0.16591785904207007052 0.42088193622585573506 0.42149654525762714208 -0.44717904471369374075 -0.40536062393193150744 -0.41544591798174856923 -0.021075704888403878901 -0.2061220013659377237 0.3464236893777317694 0.068571911058715920295 -0.36305646532676022487 -0.071086907804772919706 -0.29497098654118758532 0.039600364830856243925 -0.25980357768313550038 -0.14029147350090406809 0.060385431816081545919 -0.43040801215288820858 -0.37509435798258478068 0.12636983649350008729 -0.23027980267258835179 -0.017600553417379972282 -0.30977558649631303789;-0.0024468020526110805142 0.15228952818600419161 -0.17624421556637182018 0.15629509222272960911 0.4919836713285071772 0.12252046859264463519 -0.17186172028675875123 -0.48849393706244104152 -0.33339059084259359267 -0.28129122420080565625 -0.061444097328963172278 0.48010609889150135388 -0.019260601994553087912 0.090354239466894789579 -0.090592842638590201365 0.33683447991109377595 0.13092998009932330095 -0.42451280394860996248 0.29877012358883597853 0.1277959145581308853 -0.088686325625654330307 0.26945734637053542215 -0.47027409825935517773 0.37798050523252924027 0.057585728441703197544 -0.37862941850480241746 0.45532665498100038937 0.21766929502410123365 -0.28072244187695227779 0.16073994496811469523 -0.34838381939454737823 0.093216587618241447677;0.3088664753694668752 0.29696381396860460633 0.10003506974082772285 0.14674473357482067937 -0.35205944526918814264 0.39181693415083107546 0.18808437002996433729 0.15053683001296738753 -0.29219118401071064728 -0.29459937087653498278 -0.14708480604531704028 -0.21291924517262270089 -0.47919320136123105813 0.18979425892206738813 -0.13970142021928474985 0.42615410047185675602 -0.1407573214080467261 0.12546832160698881409 -0.31381456715554950643 0.30082101838530073135 0.298049420187289138 -0.43888138745900451276 -0.35391460655344142427 -0.40390337915880880626 -0.082305058590941559959 0.0044654725446898538288 -0.34594208891868433176 0.26212972779074883434 -0.089839432589687212571 0.45367657265646299525 -0.16176067672652025276 0.20254915133566006591;0.44724121085956364263 0.055573511307703875317 0.45133858961334966109 0.023909853285266902123 0.42784470888127551502 -0.090953857747498437214 -0.039256299783334544506 -0.37965262254516429774 0.15013354763621042376 0.11634073201281554255 -0.15452607105312776703 -0.26887893712247407096 -0.0096317659765619532963 0.41036414337614940395 0.2447056565105701631 -0.33796145243163161487 0.34998381014538904044 -0.089111365275156270704 0.36919200924834050248 -0.44298991898563938596 -0.14907106667994743376 0.21966148288884257411 -0.50065858372516081065 -0.20308934053198104963 -0.096074602788328050673 0.2307689610291315252 0.49988468293582183355 -0.091943021204900610144 0.21153979858902668965 0.31837997480055379995 -0.063091091299926432834 0.12832767475013018288;-0.069271396841123489274 0.040007618268337291623 -0.48923360569454793501 -0.19712068542748337197 0.061461155135636158509 -0.46229554597094985047 -0.41465254031111248301 0.070588665410191028804 0.22968126278428788178 0.29453687956792573566 -0.4955539709191025266 -0.089854423758894921836 -0.47432521594160725886 0.12583388889530233712 -0.094162293063918350855 -0.13463210127977695563 -0.42412368079346379757 0.20104734301781124195 -0.40679169472234905092 -0.060457944385786367703 -0.11756020117703869232 -0.16339466950655290312 -0.0050905376587857802811 0.36623121657314633426 0.1040862405220914777 -0.080719063384201844569 0.37728636633221440677 0.32152296782056938307 0.12084961557250341324 -0.24785186287171734332 0.42158282102831401428 -0.3476169618446720011;-0.18164751015431371273 -0.35314413319025783622 -0.11024570668906136239 0.17616660628179475756 0.24373472557078967871 0.41290304840451308444 -0.17101751357330577386 -0.16888463735988090697 -0.382148519700446887 -0.32905352066752446838 0.33757990569965418137 -0.15115499200501031352 -0.045653221590284384646 0.26420456505211209475 -0.28336030732666783738 0.39252708979578704307 -0.28186762176687518711 -0.24196755738570108196 0.028257557224922465189 0.39400919679905649362 -0.20603565548316629674 0.41700732663302175762 0.3636046201300395242 -0.42164782294632746629 0.090316926831422839062 -0.14095546918691648219 -0.2978773613525063646 -0.35224625393929664963 -0.34719761911370067287 -0.17844037251092584317 0.35240352112774048221 0.21384208942357854633];

% Layer 3
b3 = [-1.5101427834998808475;1.4855047642406744579;1.4655375338735063817;-1.4401464644327859332;-1.4151738350736176031;-1.3922338162059026967;1.36755779077432571;-1.3431685259504801966;-1.322258027526849844;-1.2963557279280066847;-1.2724407582919718962;1.249286018649709451;-1.224900767941425217;-1.2005584589790785355;1.1762611619310547884;-1.1537022190631782692;-1.128884088433605104;-1.1058104392102605651;-1.0804060359056468776;1.0605173395211691112;1.0371376621911145843;-1.0114060604692660661;0.988659716637612207;0.96367013339866414157;0.93928214704495438525;0.91545213256012702985;0.89200481598195879851;0.86780490583401137528;-0.84197803858581488079;-0.82078034352549089636;-0.79716905744345945006;0.77281905056217869987;-0.74993343843030768614;0.72579706524029119485;-0.70186232179964169742;0.67816112348934154408;0.65347165728283251873;0.62969889226652131509;0.60599651396914522294;-0.58559817305377581675;0.55735270189363983473;-0.53587694354075399161;0.51108561916760952837;0.48545086327048636576;0.46087729995168025265;0.43876343110784432611;0.41880936077561198294;-0.39067887260798594973;0.37002159028899617166;-0.34597909440278490356;-0.32139025744941529528;0.29522282701266278071;0.27427742350697020823;0.24903164771079880357;0.23007586844998248465;0.20053996352266920122;-0.17467594964317362249;0.15854708738620487685;-0.13162429771554906566;-0.10952002760615926757;-0.081959783154667814609;0.058167648694649659591;0.034549919942640769377;0.012694936294643270266;-0.013597472601749581791;0.036766835760198630922;-0.063850604869260266239;-0.081811254066691235787;0.10253803925806806441;0.13147709519365152753;-0.15543399635539506543;-0.18021930353873899522;0.19947725178126554657;0.22602714309333432618;-0.2520855251491667115;-0.27569416116177636322;-0.29597819059221919247;-0.32130365927002957349;0.34682451464492602966;0.37008818294415068983;0.39218269269895639217;0.4131313833223658194;0.44056401113820758964;0.459336922417017679;-0.48554550480014457836;-0.51179690713385528333;0.53628402916353512531;-0.5580924449198135795;0.58132656686264716495;0.60328246733474311103;0.63185772584134980434;-0.65298883357751669188;0.67854015425763081204;-0.70452360690855109215;0.72280583727960767693;0.74837801810404891434;-0.77420944055371054837;0.79554231232704675225;-0.81743765687064273706;-0.83916589068719127376;-0.86773700715139145956;0.89352307350809212494;-0.91638915544656529555;-0.93814053124249285887;0.95511642327664447727;-0.98834929188531539523;1.012123624235472974;-1.0355396485394994244;1.0573008819867939501;1.0843835635333991529;1.1060362518716373437;1.1336330114768760069;1.1522801470077816965;-1.1808703563002131975;1.2004716952515726014;-1.2254930079081363115;1.2484793125099227229;1.2731895247429425577;-1.2985365834946964725;-1.3214921327518358574;1.3469850646318213272;-1.3671849711698811358;1.3909515994070389411;1.4157319627172664234;1.4391342264098392345;1.4642939013537661364;-1.4859572166235610613;1.5104460822218321869];
LW3_2 = [0.22559948083456812795 -0.15117271861202424832 0.33206168716885070546 -0.022832632855050317283 -0.010240267238433936603 -0.14229736066285364471 0.2990017460239100533 -0.28783890094484260169 0.054996936283233523179 0.043970483738868762491 -0.077773824767496640975 0.28544708717031125333 0.22406057377374752337 -0.037260147137792881677 0.11938148526017225426 0.25930086936212631832 0.12944844678835790153 -0.1543093008930626342 0.29792035157081148133 0.27093115449223126312 -0.13745383919027470698 -0.3157064371895921262 0.066806371420469079503 0.068389179842035213719 0.150186653163113637 -0.17551452353614027668 0.021885685808270962521 -0.2299034747480757368 -0.13150414677792859885 0.1616100439313147008 -0.24598075152150344902 -0.042837480256818556701 -0.18930509467382727884 0.090627827837750196682 0.33358656418769455643 0.18187050803961396506 0.20289188619486450693 0.2111057865081048257 0.12205811298293431366 -0.053701642898896444211 0.18757897629583145105 -0.24657516740483501061 -0.080200868486042492522 0.13573123175782320082 0.33086783272759512364 0.21983346473759973749 -0.012442515318767237778 -0.14521571948938480356 -0.22877154412078418155 0.14900676055107353601 0.037858427717190730466 0.023880423129051975284 -0.28473505222266420889 0.084889348821255719568 0.19062457308922625687 0.32713376029238416809 -0.037147620376289644528 0.2108199624055155097 0.03333190701791720334 0.1610715693246472513 0.17331510067336000636 -0.24479371545374670194 0.26917447761649193616 -0.0027355488618679814697;-0.17191305986159954866 0.12668857605691449808 -0.20131392767385147824 0.14449668783152835871 0.31328698556815215426 -0.015562546178977112663 0.16538254715851757881 -0.034519849573983629742 -0.017311687051414195032 -0.14494798878289244515 -0.096672815243600301871 0.015968167330051658004 -0.32825984439641214818 -0.18522796068429214777 -0.19318589151344328636 -0.068056520212717172558 -0.24276309303274795637 0.17110891004245454283 -0.024192785195606216625 0.044399947198291343786 -0.26491280757924218214 -0.30121652332387005568 -0.012869556063087705944 0.06321302830456969335 0.15350974650798768217 -0.12633871621711628697 -0.13418080027820783462 0.31515524950731399478 -0.2460672304800950172 0.050930479035259712539 -0.092146244775098570812 -0.096908857331957212744 -0.28836784826560146744 -0.18515431167474713514 0.15282979563145773771 -0.12023451566226078802 0.041723157943728182706 -0.33070349503646012668 -0.0030124663066275854037 -0.26325536439960811608 -0.21095166942689724809 0.12567256885535516009 -0.3313621383643137186 -0.13443631243733608627 0.089786068075617606055 -0.16740200482952261041 -0.31622501526712981645 -0.23555804314538167366 0.093035290680118093443 -0.214480865357809386 -0.28953822032439197054 -0.18111041068406188992 -0.32702737305989437733 -0.1268677405178498252 0.28369115171022735167 0.24024555177432294073 -0.28276365030011574309 -0.18383977274217247477 -0.070685482063014740128 0.062068112654984040899 0.20009554778518995333 -0.084325283625152361311 0.0071535869844661804234 -0.15142267120476859965;-0.16424599845687681832 0.12126524492174149683 -0.22946447594323896024 -0.15090267623551989473 0.27329205659212185697 -0.016209277477763503472 0.31059593726076184517 -0.28441701015160986143 0.097885432079514375636 -0.2221521411811138158 0.20046950842216348931 0.068135169620205174312 0.26254442988230708433 0.037954871271667620092 -0.086745817363463553762 0.086601095852214121651 -0.007885894492038308598 0.24060914142028946849 -0.19346415875497879888 0.30409398815879895572 -0.19267838540492715493 -0.2320778145189050512 -0.25027066850301127321 0.071219720100267294716 -0.052350353187683044964 0.3055018650470375241 0.095270550231160405774 -0.055181499950384543807 -0.27050139700741782089 0.19801454922227024191 -0.28040697217147886322 0.12486891182509100851 -0.29120779729246559775 -0.13146340540328554924 -0.22634526715758576665 -0.064748420159778066751 0.15998826973758312198 -0.10019878556149471038 0.28481491954079130036 -0.1730654261797477389 -0.029364793620294780963 -0.11020483204575903802 0.14386172694768725733 0.21481755862832549453 0.13681168537384111317 0.23978565189433279081 -0.072643767131946729299 0.30015686035652683339 -0.0020988243080512333956 -0.044895517311104013447 -0.28081532154703420234 0.013156130536703794509 -0.0052572616362111974919 0.12682141637668903345 -0.23318929815998787336 0.0053347766600935903059 0.27230721191421514149 0.082215515047104156809 -0.082824025180445029481 -0.28223814153896242818 0.18747540261383691118 -0.2180862808167495781 -0.070057018973481821611 0.30342444550956498839;0.047831752840852378994 0.18056797351136338881 -0.2237776783192161334 0.048715324728764698714 0.17271921400188264273 -0.1312797378049024577 0.080854020353560332457 -0.12769043099082388881 0.21172180117127067933 0.1975840727492083615 0.16253277944214195028 0.15944804664291239993 -0.26652070077734180131 -0.088126138798099662441 -0.076933370699618044974 0.3134832417381199221 -0.26119617614740731071 0.18279519041480868369 0.021796278930767021276 0.086590306038690043056 0.1112757830117054314 0.12252855053977031174 0.31942607807255385399 0.1108077339412431167 -0.051566243223193239387 -0.33982903371744066501 -0.133668501690984598 -0.091593097135957118882 0.22885722262464125443 -0.19942345248289808368 0.21333808758331329614 -0.13775588069483701847 -0.25353971566361660495 0.16577256185987365722 0.20835217237536665658 -0.069695616458926176739 -0.20137270001408652531 0.010151800520393175487 0.025744914120627116622 -0.32240350270572676328 0.0079988910412130600353 -0.28286595108504769547 -0.32416803927112025629 0.1650847903915887982 0.052210917683893832975 -0.12417728118440472806 0.16457159321944461738 0.2383304227879245174 -0.32470043700111256291 -0.36236476347560436784 -0.066975347151961323044 0.052597191107925288234 -0.23844844971511802711 -0.016770787417302528144 -0.040165245285526424146 0.31882353920350464671 -0.17797519478823370376 -0.18848562245313674191 0.2333544310924537124 -0.030848127713081430201 0.28709014272224353537 0.054549503281172390112 0.18817457530366035745 -0.06146537635751245926;0.22897340458986117917 0.089742256406853057604 0.19586144130887231385 0.086256861423756520102 0.2391977236928924111 -0.13491255823946490811 -0.12338867645747229884 -0.14851098516354474532 -0.07360069258989181129 0.15960007578200482992 0.12883469146120046789 -0.03552368829166512032 -0.23786606681335184521 -0.074175724253490435411 -0.11118163525760661747 -0.30629067559887185324 0.31193579938772636462 -0.20440577043225185983 -0.22924023886288036334 -0.24096352394074813108 -0.29663140450333630449 0.16031833442401149936 0.09632902405110757571 -0.020938231893720023191 0.12335222557662849086 0.28326297950710660478 0.097634969764073431531 0.0051961587102058847537 0.27205608391731023188 0.11030323439379154105 -0.30417439032356102802 -0.30886293769070050086 0.22444159080552927854 0.25848099226032256182 -0.16129658318449063836 0.26601391812377783719 0.20446448497665437039 0.087145977844187150207 0.017556611495218334834 0.280214160022048131 -0.16227264445043315666 0.051506985796131665722 0.10529086191962291896 0.058770666871956221688 0.07347615118037802151 -0.061254051045966803613 -0.20774960342437884253 0.068016609870454852738 -0.16675383249503364369 0.10760716811979187391 0.26269108266717861033 0.1928384479988867195 -0.23949610867292467353 0.2785362742035565331 0.29050571632641930542 0.14593858580656349222 -0.060861567112094547283 0.12006743860596440221 -0.041111198430453486929 -0.27879033429385668974 -0.20925983352742572041 0.17086458006958102351 0.29965472414551097557 -0.059551965126188863286;0.10914240943261836747 0.061366138267832312514 -0.16406407402150841035 -0.012768484330738679583 0.058444406047016728145 -0.039164088493029255988 0.30777601876950400062 0.26358757550818728843 0.019391848918541294833 -0.28855137054819346432 -0.06210564387686079435 0.21344255004310910828 0.27912289999673456364 0.27510281792792623534 0.23505456640863592321 0.29675360186099336568 -0.032807604531953138416 0.15654707275100224195 -0.22851607005010143858 -0.11919333826394583331 0.22399781428549120355 0.16673796382977698616 0.26138306864366123161 0.069079857023950821948 -0.16275933246420656864 -0.14852436764665905011 0.20422761065802605418 -0.23012114050160045742 -0.28255812325408408148 -0.30413308935925881249 0.14174814948443226204 -0.0077476095780409266756 -0.16482080900980750071 0.088157851283139992971 0.041831111316448732484 -0.17238792399857461035 0.26962664307621492243 -0.11056410337667461896 -0.2172538906494970723 0.19572267942898452509 0.30448175240464814273 0.26285777527000059317 -0.051357086984399488716 -0.00054686361708970775489 -0.046740926688004440226 -0.13514509397878041175 -0.073191617339836048672 0.23397897948595727802 0.27691368844497332713 -0.17525582831853092625 -0.18996583318222803882 -0.21238392396720096045 -0.28632807118640979382 -0.081389826776498294669 -0.05495411507884882113 0.15412052869552550494 0.20113589052266550583 -0.28683327734349539639 0.058559090064015051347 -0.079479871291713050097 0.11425686415103564197 0.30405713994407085332 0.14357887847458120079 -0.12071313377294103086;-0.13890576608835919492 -0.1463800753544986788 0.28802646162263917384 -0.037077757564688049174 -0.13629145886130591969 -0.21189698718581517767 -0.23989966829942829807 0.051871537350223574647 -0.084841297217473229941 0.11942429505875087892 -0.23979303913662747272 -0.056076414884264957905 -0.2136354517738262293 0.083663167918241049259 0.20862704802401441095 -0.15548118540555036504 -0.29224078103480388702 0.072641447259920832735 0.093365678451650363501 -0.075791623781789205228 -0.34268571701676464603 0.31673030617472192061 0.20454353724404700232 -0.20393830130771570253 0.050246495093993093217 0.055745007722477923906 0.19909839690298783421 -0.11770764167330971528 0.31715069793707156842 -0.19693426638020750108 0.073216431016209532201 0.12460746246593919218 0.098752063698336486897 -0.030715414039909395144 -0.25786083596199066426 -0.27354872167012966866 0.11177641443215999284 0.20822506198794038523 0.26521959352589286052 -0.23274111637994052137 -0.21098057758790375593 0.091950041007497346213 0.19534632713078275978 -0.03487721216201320612 -0.00076077526641552754415 0.1657272223641402531 -0.14809326595756636125 0.2253679990418135104 -0.12615965892423644523 0.089220431356124313416 -0.2886218479543710691 0.19274425096567049387 0.19388744849240927004 0.29476675412099045959 -0.16917791305843668526 -0.17048180019905823102 0.26354874732808197813 0.048753715268721839471 -0.33347084894288753221 0.154921499740354629 0.15552498699540476257 0.088872186313958795312 0.29375810719612294175 0.16478209657342865468;0.13192980904207998738 0.31271443471833332284 -0.12133741159686524391 -0.2858478723886424544 0.17741878648222278447 0.31260357217960227372 -0.13188008240832521656 -0.28855427119670151725 -0.29280363013984539444 -0.061650543425271861486 0.096428047800011892909 0.052682890998020724671 0.1000060574854288592 -0.28545120738167339969 0.30452131079587846374 -0.17114339780369297594 0.027320848554953286458 -0.18365811875231588535 0.27507156334419313737 -0.081132508435148797954 0.2171098086093579127 -0.19709316314280625471 -0.26991293424464229966 -0.13876585982604972003 0.019585836484102951 -0.11539480842196547794 -0.29747282769919325407 -0.016383135962782298389 -0.064063747829081960083 -0.0031049793881467347041 0.079808369393914876944 -0.13237014772790592354 -0.25771219696514208186 0.12427503724582232569 -0.078464128477938238637 -0.10376821337744050744 -0.22237578859620832361 -0.063076100942767873714 0.072305271046526967127 -0.094537586911838847326 0.12111340934410666503 -0.063340392120782490482 -0.10529746985536457549 -0.13978070252259083839 0.27351904865908099884 -0.18012513925464851416 -0.026503828790773197033 -0.22719007669467328192 0.27597646551065146969 -0.30216352983187821923 -0.24185163810361579029 0.24860717413700714196 -0.048715749279797056215 -0.076798071916482926746 0.30762797658235657705 0.28491076853588820361 -0.27567158584954687406 -0.21887093162318657646 -0.091342566841977571035 0.17743547300815351586 0.13356392967833297103 0.1687155843731775462 0.20342890991681505941 0.031870438577700763161;0.06506547707135797165 0.15863928413075581436 -0.11104041431320067768 -0.10078199705388690699 -0.20782804902961712901 -0.069147900172611062586 -0.27934023262020768463 -0.069877160023858464477 0.061406261321888394589 -0.16818449589744352557 0.25780845970490756658 -0.0057235590118276122654 0.018661032234129362739 -0.045596173471295603497 -0.30904362671691970599 -0.26591372271788832338 0.16981250635439937291 -0.30918560625804175634 0.16610203246946442235 -0.24448373331374531614 0.20985112893289828429 -0.3214208899578971379 -0.038308522168514061446 0.29903995761223861605 0.116779292804478671 0.0093712046071173747686 0.28914182309444064201 0.27511269578288038984 -0.043252324659814954388 -0.2408946607588114408 0.16241632068236383502 -0.30120744734025800549 -0.0813657411956118376 0.07555450626072600373 0.26456706606690172379 0.28580686094488727544 0.32039400546209684251 -0.15660103581674023054 0.21155247824968548276 0.12630724168244519823 -0.21459241684061683419 -0.18101694873744111902 -0.11843641030652593549 0.2423053763601253352 -0.052943538483697989705 -0.05575055443978060854 0.081709867542348602054 -0.12347132070184707597 0.019856936667625932347 -0.079003685162372841444 -0.22349082666601352565 0.27038677767849478295 0.044773895761630808088 0.12433970216695082456 0.026468409587032816488 0.24113333584763424478 -0.0060414982769191431788 0.16380040781781304848 0.15228799855606345304 0.19471640189864319881 -0.10516581819067152836 -0.17106172625537827137 -0.28321666465376094113 -0.28307431870371607685;0.1740706806077747526 0.1107657811248308477 -0.012756085270838043305 0.12181514036050251903 0.240838671153392192 -0.025052943969447540734 -0.11300869955420578261 -0.15015786793610602645 -0.23408703623386831194 -0.22852540622863512509 0.30567281164467274834 -0.26302183685327312768 0.1596404812978183263 -0.0004928999604989748283 -0.31084354345443299117 -0.17562392957970687779 -0.25820793297855659798 -0.2145992178074765111 -0.23197179980586998815 0.1178101109907441213 0.08240527804431750647 0.25468387494765631907 -0.19761521082600716492 0.014166745236483108822 -0.2464375289468241359 0.087298109096356990566 -0.17158198628288245935 0.30051866951561134744 -0.17084189114174436197 0.16934645430764491691 0.30929482521023493602 0.1633200407378857244 0.17264480585251421041 0.10708389542709044473 -0.055216050811982927971 0.18213444555810343051 -0.1339260325062908985 0.25935757962286520861 0.31445530267770777089 0.073163766490519005492 0.26045099562107409952 -0.25636933396310962463 -0.19432922054726589622 -0.24227459631449294042 0.10499459330938354373 0.020142887109922295169 -0.1972273905391801474 -0.0059578157352275168748 -0.25741684310447915385 0.28966505855445956463 0.14512607905911348305 0.19541435562588579944 0.21965898850985848823 0.21716904898843780725 -0.038944689501981710755 -0.20065979861939295392 -0.23105735130903140573 0.050278584862581292281 -0.20670112356310951784 -0.15221105134503382095 -0.092258315915355243453 0.060866090089939248187 -0.1299727996586598211 0.047081785915458002068;0.076367984468232272266 0.23229092199504136618 -0.22062619940602301583 0.16052437734003455194 0.02965796581282318517 0.2867537681939685279 0.18473240800537232831 -0.32210391943230887168 0.14748072390020558475 0.22534171620395901381 -0.18913630662820019035 -0.11088960295400220046 0.24565748239696857946 -0.2590928933739386486 -0.074740549181467913487 0.21712045132822901938 -0.16251083770356855585 -0.10638127577089702414 -0.19677892641360189563 0.24115062682985435871 0.1318881605920970701 0.24466983896272068155 0.13162902118242772453 -0.0073787193998214213597 -0.2281189132641469608 -0.35530291732397173421 0.35755168874478215901 -0.016913057435617408902 0.2371971702097944168 0.14951460262970223125 -0.30620404507616078016 -0.12443076140633400894 0.087181535189932074514 0.13459738635409498886 0.15907769663460585852 0.27019010407903504278 0.24716576647911361886 0.34511463285642668408 -0.28865722185439085523 -0.16756142571561047361 0.17174850328602966898 0.14912728597733035385 -0.35965829326428588875 -0.040033900863295564243 -0.089888442060713572013 -0.072513642859743890345 0.083851240734439821956 0.12739082968961129572 -0.02335462328523595435 -0.17940161771724336126 0.050363221695124339716 0.031611938962474418757 0.17604778451674207851 -0.013314549401720774877 0.079667210587237455299 -0.14597914978316370305 0.018636816970006127997 0.27071899107153479802 0.077587569144378282227 0.022860741661041659306 0.0092254191510161842604 0.29666883617822836783 0.010694731652587182932 0.0546605842513654544;-0.10768871819042409588 -0.10229769053463995399 0.025965170037106976436 -0.071502136071707161902 -0.17245823242349755944 -0.062009137405167495671 -0.16991713609924838368 0.17529244513244571224 -0.019557581145886418494 0.15212637648652085898 0.055711297735266930575 0.071192579170507155895 0.16793932055125254665 0.34074436239160205142 -0.14293984185827343647 0.17127048660965210614 -0.11912521373744519582 0.17063663393929534573 0.13493405677357336869 -0.069949414874398999076 0.31434407501603317536 0.3300237760018870925 -0.14639637626452023378 0.26592559505895069227 0.18445211315265083729 0.32676183678238512886 -0.0095208749574741038252 0.26611365824851801465 0.059118385465719527905 -0.165505436384685789 0.22222012792559520111 0.0049481220976336668868 -0.012469883695625934641 -0.091586925395554574791 -0.31647667332558371278 -0.30263551418888462452 0.054402617402339988051 -0.29538826990009342532 -0.10012422251483464597 0.2484064321440567491 -0.13882435682452798353 -0.2827613241013920975 0.20554793912134564082 0.15305386667686451951 0.23573423659777381634 -0.27660183563142703989 -0.087673100962463279551 0.33169824528391378404 -0.048233031126494706198 -0.23240258619399731255 0.03177963880517784695 -0.22710229883763355385 -0.17115279135415081835 -0.12210102567452997546 -0.23095170435826878341 -0.036419568972311265609 -0.054316049333190140336 0.19808564552542648474 0.033884391888344127242 -0.019191662851303494669 0.35898634558614478385 -0.16952324386595582495 0.25184123079539549872 0.16252728076628605858;0.17065496275996458464 0.031225436292279397377 -0.10019563272084489047 0.18015002109424657628 0.2122751790569554764 -0.21325057909216516006 -0.18605690152870804632 0.19081235467951460083 -0.31658352069208772761 0.16258598896103765297 -0.20666827111658100935 -0.094494151469906029206 0.032715969085991988829 0.1010290771838945334 0.0046791730662324683074 0.28507987049499666776 0.30225415118384862945 -0.11887602524112185487 -0.23448173013762529937 -0.27736478056318014662 -0.097527792869458146408 0.045440118583974294098 0.30201799581832600161 -0.25348747230969953526 -0.080365183285391023071 0.055725157214484809243 -0.1120480083767654983 0.053887950887011142054 -0.28298111030498285245 -0.30497885813224917539 -0.026803546845319960873 -0.13733123666033625332 0.11446784037387501554 -0.30959626473038920347 -0.29328968658101028932 0.14725352220955822968 0.31888554937021496016 -0.076863485261497846435 -0.095656131031394683872 -0.077072863610514144583 -0.14726295799640901074 -0.24223236039927975582 -0.14605221093781589614 0.20465085583907882683 -0.11651654646866531351 -0.013029721276846258776 -0.27045113557930278159 0.1115451915575390307 -0.27224957155330320457 -0.081611577028965945346 -0.0042729056043589262043 0.12990105432827567244 0.2840608981358991314 -0.21198492775072952377 -0.027884939642366154272 0.26248461474564815932 0.31823376638081757317 -0.064867941241953774867 -0.20010076413456548416 -0.028106214708426269927 -0.30086336619214998356 -0.18364191418732783712 -0.071784584728714170843 -0.060141460656911650828;0.022586107684909876442 0.16945121698624532325 0.23162275936557907841 0.27999632708184507557 -0.25420462794710063648 0.015380122289061508647 0.081031131752204249574 -0.024126045526678598779 -0.049288979328624228649 -0.28013420713892733804 0.13707483076840715208 0.31861017466693675182 -0.22963791413500159178 -0.15151183764783424102 0.12179546579219029112 -0.022942704423928816926 -0.22236465501734756223 -0.25807429005681675749 0.016596594899206021378 0.11058304275269591199 -0.087730392872013882033 -0.0055003891168760084968 -0.039180293598493447227 0.2407709327495688445 0.13751345015704879993 0.16574660548687217276 -0.17189000797929920861 -0.012379557290467782873 -0.17476777565663981218 0.21335850813646314861 -0.10907993392604520277 0.051617267950875345139 -0.2298311150593976282 0.25352608476114335545 0.30752160326547522962 -0.17350067268743743498 -0.31233857772096895733 0.030873305139745423759 -0.097733851925887044176 -0.14743945725166834881 0.26049747152029317787 -0.16281213957302831385 -0.2486241494152121867 -0.21769560946723828798 -0.27144824235432979398 -0.32844300755194882901 -0.20821627082879143322 0.17378338684950553339 0.1622915826473914358 0.22027380714228636527 0.25518658144111622255 -0.17676888568174511929 -0.15568991013840885462 -0.33147107961667016118 -0.14308736720783282736 -0.24402251986697334751 0.24182041103499832269 -0.15441354758454434171 0.10830855732561034399 -0.22152776666288756524 -0.080615434992060183705 -0.015731664065098523164 -0.12423379443908054431 -0.11049731773226918741;-0.08891550619178804904 0.094271946304677667339 0.2483994671071415028 0.06685355075185699103 -0.31478997333682595672 0.040455669049851025743 -0.031614494385666963572 0.15936922142340781416 0.13313251290066166477 -0.25178974885392091387 0.06463598629763349368 -0.17504688053751446541 0.055257826652715578974 -0.2978142130321889125 -0.19798200212099256734 0.08270410165575223238 0.28449906892676296577 0.052946553342967182798 -0.077706890730094180242 0.10659124953803626734 0.3058280552528377938 -0.079259661385075758089 0.01283439792814517269 0.28662465171096296324 -0.30940395503419226841 0.29227977461092707889 -0.16773871440190687987 -0.028442391300116227904 0.10556473331509841351 0.024828040947119257159 0.27986419943242163422 -0.22414835150476150605 -0.097652252588051768889 0.21691128896153552552 -0.2838004360524447045 0.20759475346739952872 -0.22725331413307892081 -0.22354327129338544267 0.13075913033630090498 -0.2361776896181449481 -0.0414460354401085182 0.21886398157588771163 -0.045156366261902704251 0.12043966166722448741 -0.04390444018382255037 0.13061167221572181352 -0.27055981274477791665 0.17516569890743591276 -0.1001005913054661689 -0.11754705357512018615 -0.31930907778754397119 -0.34236118270636994865 -0.24132013318609837893 0.20993205026516267853 0.1169329406138753108 -0.09185971003461151918 0.20404932713759510454 0.0042045753965763094442 0.30746835102284825192 -0.099520514374196261675 -0.18885894575069500645 0.10244485290024370194 0.031291829024517880953 0.28293109006687439111;0.048199473849544878512 0.28019728831895673871 0.096893696414556224061 -0.060844445678847822179 0.092575235334720826219 -0.040791132067893740021 -0.033096649024124076555 -0.056820364725128219563 -0.31009179137596298848 0.16793368283951951025 0.21740144329647276278 -0.2233793713506173062 0.31555461834482873007 -0.14875663861084384432 -0.062281805708158312351 0.0059331660887628253492 -0.19188372326642796906 0.057155944734490662928 0.19495682740028941193 -0.2091855267784653305 0.10746501492572352321 -0.035801856203611738538 -0.0033944662555731477775 0.31303973654174066521 0.016838805951930740923 -0.28771444537536861041 0.27568644965245270306 0.16789132387784266864 0.16726595254845780247 -0.21249944709957832578 0.090401860461624586329 0.30765559785454138497 0.075525395781247381399 -0.087525058875252859103 0.013360377737877193044 -0.070931440328371009318 0.30065030039261014805 -0.16767405722213232777 -0.29917809326939576176 -0.13838859914179615918 0.30323098383993069005 0.2562349899035371581 -0.24607690879099092252 0.15760212508520010655 -0.05812116724756360292 0.18714980186875163071 0.10981820603870302844 0.17434526994361179697 0.2635327588097839957 0.2557882329934922927 -0.29015625186204607733 0.067681128490573103096 0.14802556309007311452 0.099052765503047326967 -0.30009573696847613444 -0.032481172530268227761 0.084347944566659643906 0.24899537359870152486 0.034667640785121918434 -0.22762260577127912953 0.21479367230957308044 -0.28043144311824963477 0.042437145205720866459 -0.25049829336494561227;0.13027275449221503711 -0.31275860579765007996 0.15163897189243247254 -0.20212083561451046898 -0.15658643542227931866 -0.21126899130675669269 0.34535088506644623374 0.14603335046204585224 0.1079707572286057321 -0.23716886787892371702 0.08500852148280621523 -0.07699374457000938976 -0.18205601208465294061 0.21032686204725239976 0.32716656324472237483 -0.21583832327130089701 -0.0096821910709427722042 -0.15911644184167522686 -0.23684898252489769432 0.051994945286235050297 0.18652165713774013223 0.11335775820392886282 -0.22441620065715775501 0.24230142417579741965 -0.04905634370031994318 0.3186421142237687576 -0.14479876136775868267 -0.15969734729668944029 0.29021780074635777913 0.21506855614926254083 -0.32361796078103266527 0.22427782156504827427 0.26710872007097369307 -0.25006042488635638055 0.064311919851154406014 -0.2451301148577504363 0.056915787604185058557 0.2725424261085708233 0.17013525632174911206 -0.038903991311507145345 -0.26323749203215079939 -0.034359647393731769516 0.165582650602910747 -0.23755732987206742979 0.087010424061107802252 0.095797160395422312207 0.071996797319844083041 0.15805677706270840344 -0.2576429447517447624 -0.25895938802924256539 -0.043218070138537650893 -0.072517907958422361814 0.046029974244571066067 -0.1431320303237830216 -0.054357303898863326697 -0.23629052591539684292 -0.33845924610159039414 -0.17576828972543914742 0.066448692997605918187 -0.14342077893013904788 -0.069834343587177494239 -0.006777788581957284314 -0.040778102772282769084 -0.0052053009702280918225;0.00088783690920905453635 -0.031374015812449494722 -0.18109885613070719756 0.17378889857809187713 0.077831224580161562088 -0.20342091228004993697 -0.12642716891596067486 -0.17018660868929919028 -0.11751989953936536892 0.074859493978563090844 0.054678232521219886919 0.22224088179306533686 -0.28035880312269639836 0.2730799971046787844 0.25136061380475482885 -0.051799397139227529308 0.073704355791471720671 0.20972326442915753542 0.16828000666374143268 0.11708747731166642414 0.31310010592298354037 0.12700846379119745677 0.0039820994406869385587 0.18823306590000907224 -0.017290091315211822409 -0.079235414423837816078 0.24287493309133822983 -0.17316438554163085528 -0.17195371178474594398 0.28901991397579274157 0.23234146320416673714 -0.072282933848819577727 -0.25298933773603277109 0.16532385552987388655 -0.26952089971934739543 0.22792334156881458029 0.24001903023424681072 -0.18454543508379814276 0.18195891380364129231 0.23485696662402771873 -0.017691733571404560238 0.21648180136911476801 0.12100187969311404501 0.13667857300978933366 0.21949007377000884222 -0.062389493072716094291 -0.28073697016484322475 -0.28704363933615067994 -0.24398789239348273039 -0.31444846627373229664 -0.27934859260901029332 0.075701672517696022569 0.19315124334599331757 0.10618185184070756677 -0.28386972175823688147 0.064361830621381899142 -0.06014874561891669219 0.29494953366636078584 0.11246057168013605387 0.30328841539269929539 0.20581778327120051064 0.017027787485377705867 -0.037163151724736880055 0.14261194660472939488;0.23144110650888455316 0.024450183321643541995 0.17302248526955474328 -0.12270312136133880443 0.024428493442867058039 -0.075617409627102893932 0.31299568767621271936 -0.047779749481469714623 -0.28289003510128318819 -0.10783022057471072785 -0.25763884543156923002 -0.0045774870023583625125 -0.30623660426722554284 -0.032072570528649931021 -0.21723341687668037969 -0.13363983715444621714 -0.019255791220797187357 0.22159328948068199305 0.15722659792711191074 0.23886333104022719476 -0.14226261919890922925 -0.17054432694682622462 0.064742403661632599854 0.28476174252554731225 -0.13075691667314720545 -0.087317143128494242865 0.25554678810500075503 0.17258151313532399396 -0.077109801112465140016 0.29716149933394059302 0.29164227851845536676 -0.18371651264839344853 0.27756727764200056496 0.20270037264171647529 -0.082417670092764447332 0.19005555394742187914 -0.30005465156204574884 0.11898210020656481423 0.071617800918508126018 -0.2435596348580604531 -0.009668853927726062461 0.027694159756778202047 0.11451097063089324402 0.28246989954410256507 -0.068640875009209345592 -0.16055552053317684313 -0.15701477093451432498 -0.17810652029088594461 0.24847945741605595438 -0.036361335375463092745 -0.21901289860521785946 0.21872350371020832238 -0.060232997850489584934 0.049158639247975553788 0.24990678306120353569 0.21202972158906857603 0.15889874775428855513 0.24778951706230473162 -0.3072461391142577436 -0.16412287738014036398 -0.021189638313320869473 0.21775710553538288328 0.21884959017770247436 0.27468885957783617524;-0.24491119928548524265 0.13044039156800957269 0.2788031013192577845 -0.19795792754770061284 0.040778060455860451472 -0.098023845518072930116 -0.32211300128367220674 0.017390915586862371045 0.31529586701889827927 0.29521887120432677154 -0.046207066487596128168 -0.24327519813132775228 0.063772459214674503958 0.10022240935562418129 0.26511420797453477682 0.257768646919744715 -0.13741470546297765432 -0.14583829750242205403 -0.23832318452875927983 -0.14172672410070047411 -0.036514854420405890023 -0.0060511923009974296142 0.32610097986787150992 0.014857121290878931227 0.3190010207481668858 -0.15913303906294870571 -0.15741270092381182133 -0.13796732491628918571 -0.07286853357220646199 -0.13059826555045550567 0.16701178452714060541 0.20125110812895838364 0.095613757884228683936 -0.072187414325395049541 0.29407094976394715369 -0.12710073402174609791 0.10283187766358123372 -0.3247829016050947093 -0.13284098319534978772 0.068791231205448361008 0.20065549237078533773 0.3257098130780058387 0.098277698867702059649 0.19143285314383945428 -0.31142951311670902248 0.13628178643954619309 -0.059575949969279444474 0.13166633725752918682 -0.11470353837090738192 0.16460238376372843261 -0.17288262919439692511 -0.31453359805696223805 -0.3226280588133753624 0.17595208454892974359 -0.11371183369615774084 0.19526409585002477143 -0.12488823113394659226 0.023928231768284995845 -0.10860800646282144089 0.16181102433496341586 -0.16466519474619156771 0.12948668715248259908 0.19648352406026609041 -0.072451763898430429633;-0.07062294437240793088 0.23024803504939117538 -0.013677049606256114905 -0.18956544910383621438 -0.092058562291899237451 -0.24890471428265395493 0.096791093622043133937 0.12564833782373488469 0.13779645281714994476 0.26304293754474511458 0.28093951545348960774 0.21890686933920688872 0.12945606346556609578 -0.32589912751456523443 -0.21546956396553570978 0.23649787193946092412 -0.23992027084799327774 -0.037452447834439066277 0.247191330155509148 0.10481478017912827794 0.035725247886292443855 -0.029188481890103711719 -0.11132912914698087081 0.24923269800368264004 -0.24673584468651757473 0.17585815660054332499 0.12992278234619403232 0.29383497431605654082 0.30319559262350737061 0.27157943708843057529 -0.28680338128539306641 -0.14243682875436569635 0.075023057710213350568 0.1478231634553016649 -0.22326306849456387105 -0.10492757042129678691 0.23172904921044046311 0.014411326412814314327 0.18166134459573327065 -0.15072128334959150608 0.29232370884084207807 -0.090006326961039287426 0.085242333465608416398 -0.17715426782036464148 -0.10490088272959088855 -0.15664215949608764622 0.045265071159143216439 -0.16069177009570401182 -0.091118443663405560007 -0.31761517392465982157 0.07068836114477665411 -0.13627805388985259061 -0.18349521163323462281 0.22873495365997373319 0.26680268509576915426 -0.10884046386645081228 -0.077180757654511655819 0.26537939354955353277 -0.15235172790466147696 0.21322436075718004256 -0.1918052131265461091 -0.10938739041666506457 0.032786518250005648734 0.28749184301224650628;0.15644693171406845456 0.2446838586766366952 0.27699165426413951963 0.24399264513731439008 0.10611858463311277245 0.26655702668231079366 -0.11578489335453767684 -0.094112810216545786379 0.028627187026965400518 -0.23847804993182813993 -0.17424216723038990495 -0.17508684655343262349 0.26398197872204337555 0.11694168254376732796 -0.26733877030756403315 -0.17924250103673644574 0.16912115792139187365 0.083555815111267986439 -0.26936764611214025766 0.00278794655809200655 -0.20247858912889460381 0.17127735938919713687 -0.1391018617088110032 -0.23611303585516199566 0.28785390255056203523 -0.22114014739695733724 -0.29573296396480530657 -0.25992818144354773446 -0.24172454591729936046 -0.10304772160828758187 0.21273536691723851644 -0.19538296125126500269 0.038030142138562178511 0.16287476947194917676 0.26912922428699076471 -0.23162758106002764857 0.078128189251737367726 -0.032837108525662142555 0.16964439676124401513 0.033144061720662518211 0.25586208935002957565 0.2786166619887744389 0.047945230780531297721 0.28849058473128130764 0.17467033770530918102 -0.22809290449118424515 -0.015972006263931106534 -0.17459814390502889636 0.093477086023226393929 0.078694420326709230151 -0.050641663166067919788 -0.039488930698300950262 0.28904525588682000725 0.17067233610275645006 -0.13208891796309568667 0.15592190688381799002 0.06937942333728616684 0.23524207888847892267 0.25176151451923128866 -0.060956970279331015861 0.15679939222177821656 -0.21147543368644866613 -0.10261539588715934412 -0.2081121416290653281;-0.19857248943722735635 0.047472397452197501178 0.082485336881621698635 -0.30205278743080732351 0.11926604284131375744 0.017859221421237862076 -0.21070115199003322526 -0.13366388685589875029 0.19726605841197572544 -0.19050746888870623286 0.015959803428605829484 -0.035224382399509285291 -0.16849817775909592399 -0.32106805002418498107 0.14483570500506370848 0.18197566571942463964 -0.087046723134279913037 0.17933275702002329788 0.18377200124491904765 -0.28806256025880566662 -0.016887356357327108075 -0.27049085050491283866 0.29900878330056945842 0.2761639937197015171 -0.11715390237015511909 0.30701936021850856351 0.25904851711702592265 0.032426046412360000348 0.073448219579401535784 0.14162697045222949477 -0.20611417856026237327 0.11457894415869465665 -0.13443345652857316419 0.084083412745355093354 -0.32672013960186663262 -0.19740171557445818085 -0.29588634450181677815 0.30924534894490790515 0.15010191210261406014 -0.078202009423594454063 -0.061567119041735500484 -0.3473917556434282794 -0.009920495466712572763 0.24781451845169927273 -0.050312259918617555088 -0.032482159323869636003 -0.058500829730710086907 0.0052355952112791140016 0.28407460612009616252 -0.19439039543271594002 0.11985796783142035893 -0.2593269521857742288 -0.078144786431453852615 0.016997550609979074354 -0.17848917538298730845 -0.07679188301304651354 0.04849164031357794391 -0.2021122888414514096 -0.1857846240310728203 0.033546306934687422641 0.13806822381533589983 -0.34757264185051195415 -0.22909886586181421597 -0.23715543743302458513;-0.29534524768373576764 -0.105378897007691541 0.16095408221657536707 0.25715233682914562241 -0.019590236879650019947 -0.28227223785256183586 -0.057112367641747603664 -0.18896886765862533353 -0.19586563405169077345 -0.2002351280487572327 0.27411282241108769764 -0.2259820694188549306 -0.12533712702759089441 -0.27912922737667700268 -0.083898815668037654558 -0.30632334174354164391 0.1440264026430713995 -0.20586328897721448139 -0.045560516551936235119 -0.25019133276714766723 0.15134327274893086268 0.28624936905546860544 0.25882988347086122172 -0.12048037936985959984 0.3057831455915603347 -0.0032471930254885312053 0.26848688553005389812 0.028639138046807711968 -0.26889877908265508166 0.11556297003547887081 -0.28730330559746286578 -0.21224219953804246419 -0.18455062672776187394 -0.12553855982503991928 -0.23292173045137934406 0.085409227495058540058 0.12486184323319055034 -0.30097819259750652199 -0.28736550463488302887 -0.054790150645105430149 0.16129845746597476497 -0.081828270100350819494 0.11318761458551217236 0.0022612777816369764028 0.045350804992550369787 -0.2994272436312305774 -0.0083226518385318519477 0.076443461135303869547 -0.11942609880807478206 -0.034338294364064665676 0.10412365692497838054 0.15199715520152204395 -0.012202022554584801561 -0.010941395209537999392 -0.24483036299386803925 -0.031347207463808993144 0.1094203700558357556 0.18521776954236690571 -0.080012190498802898686 -0.26350971898659303339 0.18407513994197075013 -0.2920327201689916774 -0.16692952096922403227 -0.21978293017964445344;-0.25694941554744138434 0.037876861476517330318 0.15357034581190795453 0.19121537770749580387 0.31488965651372385901 0.30693359498047129152 0.20541583051157050188 0.25398624408398462471 0.15367489621274929568 0.28007814782583673185 -0.30311340625311472552 -0.27720076428207240937 0.080231496420124073787 -0.30633527915390790231 0.099760007249763443804 0.068892724903678231874 0.22573465280357982166 0.047984878170078730519 0.10473354111793298227 -0.21770072622438618737 0.14517218247396096453 -0.15559352777187840378 0.30856941834523909929 0.16548361034042782802 -0.1409881305845303856 0.12945972539542974222 -0.17773209562021816121 -0.047355196564658759428 0.25779313436919709668 0.28660208977760909255 -0.29666506269157827402 0.030280153011076251651 0.23238889194240913705 -0.036353923849259624224 0.13257358618251055549 0.16750405223813111255 0.036657698753260831159 0.019512531627567435144 0.072378878492664444622 0.0594752098207077598 0.10937181128332831848 -0.06592083231938648813 -0.18152861370055059509 -0.26634086312416677123 0.20714868867993130319 0.053285892123886222094 0.11742606421700674257 -0.015926799925156602533 -0.086314247222991552499 -0.30077012519970197646 0.039382818901205304818 0.27124142692672414956 -0.13315068836657839579 -0.19308710199560844001 0.24655133401615272892 0.13921417509354935826 0.15144246539332117951 -0.22248582978658690279 0.029444901631332467962 -0.18184067801508738138 -0.10154539189466289806 -0.30481405994904975376 -0.19780538538669076298 0.17893943533483688824;-0.17148657744571660366 0.04000580025165315079 0.090926906143970670504 -0.059747959100766169505 0.20157506303815769799 -0.27788086990182248037 0.066952351524617828571 0.29784404461240870932 0.0095816208158406006995 0.17082087795971528932 -0.14086595707933891042 0.26453798663265926105 0.29825042420066050219 -0.15230887188075933891 -0.015687421645275194393 0.040317152613017007146 -0.29508386520432938749 0.018091224449975063654 -0.051870261939359341152 -0.0021145871249398807273 0.32021417930206852454 0.27379927134082188145 0.18326296166581654279 -0.090318498109876924063 -0.087894749486262524485 -0.044971187683051395967 0.25254936355490203992 -0.13188586330360202448 -0.3102994492535207649 -0.066098608955125093267 0.2694489935763969557 0.20517198919885940023 0.20651596681937606226 0.25674888055346462012 0.16525893010524278504 0.14674974240236832168 0.32348112368692988339 0.33784170568760912845 0.2794231639570577963 0.17033895993977821171 0.29433239443020881021 0.13671138315054734425 0.259300064325793167 0.20404415233728182 -0.064715468214890964349 0.17239225924321727179 0.044449390597994194174 0.00042973980833527962529 -0.028111912765320434815 0.084875113030266235992 0.22469581624970155764 0.33150006322573377648 0.15234603887636516406 0.13852541236223722687 0.26551655974020349493 -0.05826769611198951565 -0.060087023263581292032 -0.30482832742858556596 0.037669904385309233019 -0.22261188358802244669 0.088352827456907020998 0.0304587936098784616 0.054655305499907026745 0.022860739542382945561;-0.11359335602600961757 0.048885625979969524191 -0.24734584565078762686 -0.31681222289764632283 -0.06838958640286126045 0.2508412926577310853 0.31351845137657319285 -0.092046137037741115883 0.24546227504042406053 -0.17349447104956286503 -0.036863814761004622123 -0.15558628127101364891 0.16089727312903104317 -0.09648665754345010781 0.0078467677427390761236 -0.17824545679876724336 0.14892032588259529469 -0.21720138412172101949 -0.33949863477525121791 -0.2502242037392831131 0.16735280235452679176 -0.12793421284630765444 -0.0046247481586952953261 0.20171590264181149532 -0.10271657847197562807 0.084946449327874234969 0.046581667907300963738 0.26398928517695097185 -0.29114124386044498705 -0.29469021489038871309 0.082889792242407375755 0.18151661694002663161 -0.033912656170484369034 0.16625264786987239973 0.0093953055958152873611 0.20174275218626172568 -0.29046926369097092469 -0.25358290351441964416 0.096422503515011831476 -0.016136546669376267832 -0.20413149730181240349 0.27926852086828002353 -0.24802612501142534684 -0.008002361421742118161 -0.26839828351044631161 -0.083669689230300298144 0.0097314158685944673888 0.32941775630030001309 -0.070325861850773455086 0.024051069040551077693 0.18559788330881796248 0.0008760601187606920472 -0.01256395379153443792 0.14898274678351178246 -0.25752931241818416419 0.12943956419976240801 -0.22585969230851191125 0.15405260382242327855 -0.20178021732462039783 0.31201363840928447724 0.19957195194148186213 -0.28384091739362432572 -0.12699031346879263715 -0.14623876496082088838;-0.13811939573941328652 -0.04584262682268253758 -0.097996686288232229267 0.30470589184266766436 -0.09110786373502860469 -0.20113982866098731317 -0.30334804651676194887 0.25035553151159245511 0.073961024832037827736 0.17890985274064405419 0.29878942790444046329 -0.055938622204713156494 0.013718860466699312264 -0.25205574371012162693 0.26811339211021573137 0.042002018040787972297 -0.27709595881534726525 -0.23787999740333154453 -0.23146463955414467439 0.14410966358353657912 0.2638786423126536218 0.072348878134678343277 -0.29772786195122197261 0.050248711594661064905 -0.13084391575937839858 0.1877126081427446247 0.21035625620405626335 -0.0041622303675130905426 0.18855983280526436574 -0.14468156331915804635 0.070096156632987433044 -0.28587135027563015388 -0.17470652345272877359 -0.26480911959848651982 0.1473672077304378214 -0.18785307299893416744 0.19708240203822058323 0.15071854179924029649 -0.13508065515648978727 -0.25270111312126608549 0.090085685980855950694 0.063763755978248376488 -0.11144354133130689177 -0.29921412935434160696 -0.054012817543146199317 -0.10467789728107962377 0.19840521722740503408 -0.13177722736158212213 -0.17345019328623093036 0.22555769590908530953 0.056754945782447614733 -0.21445208229063883465 -0.25725678161695947344 0.052689591550816525234 -0.10216769114097531967 0.28729432861059783777 -0.30394967734938876935 0.21899197493948621696 0.028830469889264256911 0.055330998941097130073 -0.086368583980905050401 -0.30331000716149242313 -0.1691882224137995494 -0.14897975004709515523;0.10516724755078279974 0.12743602515329316427 -0.22339474755970678554 0.01966406592531932257 -0.1088449901495306682 -0.17176202478346569436 -0.25301109952286254812 0.14576535803584622641 0.096827039841803894116 0.24725091004387417248 -0.28893618223603806383 -0.04196990456658712676 -0.23097420758573991573 0.20472723865304448543 0.20737227584175618733 0.17032240158887987369 0.22950512435211431472 0.19852456713741756245 -0.24415147338556797418 0.053795753311766246474 -0.29541805553975319931 -0.15938462208158973854 -0.14725038250681377061 0.26670156332945205158 0.29902826242585017757 0.26212097457950761514 -0.11619200794893906614 -0.16236699578316646231 -0.084988535267671430629 0.024277466524944359832 -0.17428674744538041885 -0.040306548872530802152 -0.12096296575205357782 -0.20676529669119536603 -0.079299790332416075778 0.054374829568863955465 -0.088373951600368899628 0.24352520054233550706 0.092864437022592435933 0.20283384329204962038 0.15961546792947203799 